{"learner":{"attributes":{},"feature_names":["Open","High","Low","Close","Adj Close","Volume","SMA_7","SMA_14","EMA_7","EMA_14","RSI","MACD","Signal Line","Bollinger_SMA","Upper_Band_BB","Lower_Band_BB","ATR","%K","%D","OBV","aggregated_sentiment"],"feature_types":["float","float","float","float","float","int","float","float","float","float","float","float","float","float","float","float","float","float","float","int","float"],"gradient_booster":{"model":{"gbtree_model_param":{"num_parallel_tree":"1","num_trees":"100"},"iteration_indptr":[0,1,2,3,4,5,6,7,8,9,10,11,12,13,14,15,16,17,18,19,20,21,22,23,24,25,26,27,28,29,30,31,32,33,34,35,36,37,38,39,40,41,42,43,44,45,46,47,48,49,50,51,52,53,54,55,56,57,58,59,60,61,62,63,64,65,66,67,68,69,70,71,72,73,74,75,76,77,78,79,80,81,82,83,84,85,86,87,88,89,90,91,92,93,94,95,96,97,98,99,100],"tree_info":[0,0,0,0,0,0,0,0,0,0,0,0,0,0,0,0,0,0,0,0,0,0,0,0,0,0,0,0,0,0,0,0,0,0,0,0,0,0,0,0,0,0,0,0,0,0,0,0,0,0,0,0,0,0,0,0,0,0,0,0,0,0,0,0,0,0,0,0,0,0,0,0,0,0,0,0,0,0,0,0,0,0,0,0,0,0,0,0,0,0,0,0,0,0,0,0,0,0,0,0],"trees":[{"base_weights":[2.095391E-4,-9.599822E3,2.5402E4,-1.1048447E4,1.1997848E3,1.790272E4,3.3671188E4,-1.4463636E4,-9.109245E3,-1.9909908E3,3.3955989E3,1.318984E4,2.102004E4,8.717617E3,1.184431E4,-4.7680205E3,-4.00446E3,-1.0463971E4,-7.6481226E3,-3.3526929E3,-1.6912437E2,1.9517869E3,4.59332E3,3.3235657E3,4.432022E3,5.8397734E3,2.329601E4,-3.287823E3,-2.903012E3,-2.474279E3,-1.94661E3,-1.2913682E3,-2.6974023E3,-1.3020137E3,3.4913202E2,1.2011132E3,2.2727634E3,1.044919E3,1.5716725E3,1.9591284E3,7.043635E3,-1.0790345E3,-6.3464825E2,-1.848337E2,-5.182537E2,1.2752933E2,-1.6413252E2,3.7104465E2,1.0519219E2,7.0837366E2,2.1565117E2],"categories":[],"categories_nodes":[],"categories_segments":[],"categories_sizes":[],"default_left":[0,0,0,0,0,0,0,0,0,0,0,0,0,0,0,0,0,0,0,0,0,0,0,0,0,0,0,0,0,0,0,0,0,0,0,0,0,0,0,0,0,0,0,0,0,0,0,0,0,0,0],"id":0,"left_children":[1,3,5,7,9,11,13,15,17,19,21,23,25,-1,-1,-1,-1,27,29,31,33,35,37,-1,-1,-1,39,-1,-1,-1,-1,-1,41,43,45,47,49,-1,-1,-1,-1,-1,-1,-1,-1,-1,-1,-1,-1,-1,-1],"loss_changes":[4.3211053E11,2.0132176E10,2.9535502E10,7.378436E9,1.078732E9,3.4984755E9,5.0162074E9,4.401234E8,1.3570253E9,1.5572586E8,1.4839962E8,1.8738586E8,8.770765E7,0E0,0E0,0E0,0E0,3.982541E7,1.9183411E8,1.0843872E7,1.6894134E7,7.63096E6,1.687424E7,0E0,0E0,0E0,2.1336064E7,0E0,0E0,0E0,0E0,0E0,4.951568E6,1.56231E6,1.5942458E6,2.1778E4,2.289984E6,0E0,0E0,0E0,0E0,0E0,0E0,0E0,0E0,0E0,0E0,0E0,0E0,0E0,0E0],"parents":[2147483647,0,0,1,1,2,2,3,3,4,4,5,5,6,6,7,7,8,8,9,9,10,10,11,11,12,12,17,17,18,18,19,19,20,20,21,21,22,22,26,26,32,32,33,33,34,34,35,35,36,36],"right_children":[2,4,6,8,10,12,14,16,18,20,22,24,26,-1,-1,-1,-1,28,30,32,34,36,38,-1,-1,-1,40,-1,-1,-1,-1,-1,42,44,46,48,50,-1,-1,-1,-1,-1,-1,-1,-1,-1,-1,-1,-1,-1,-1],"split_conditions":[2.452269E4,1.3271285E4,4.4118445E4,6.01145E3,1.91408E4,3.6457316E4,5.4529145E4,3.2367617E3,8.756431E3,1.66246E4,2.1239754E4,3.179681E4,4.095138E4,8.717617E3,1.184431E4,-4.7680205E3,-4.00446E3,7.45969E3,1.023149E4,4.9240685E1,1.2466166E4,1.9796809E4,2.2805162E4,3.3235657E3,4.432022E3,5.8397734E3,-2.9128916E3,-3.287823E3,-2.903012E3,-2.474279E3,-1.94661E3,-1.2913682E3,1.4039854E4,1.5151388E10,1.2564524E3,3.1962253E10,3.5708973E4,1.044919E3,1.5716725E3,1.9591284E3,7.043635E3,-1.0790345E3,-6.3464825E2,-1.848337E2,-5.182537E2,1.2752933E2,-1.6413252E2,3.7104465E2,1.0519219E2,7.0837366E2,2.1565117E2],"split_indices":[2,3,3,3,3,3,3,3,3,3,3,3,3,0,0,0,0,3,2,17,15,3,3,0,0,0,11,0,0,0,0,0,6,5,12,5,14,0,0,0,0,0,0,0,0,0,0,0,0,0,0],"split_type":[0,0,0,0,0,0,0,0,0,0,0,0,0,0,0,0,0,0,0,0,0,0,0,0,0,0,0,0,0,0,0,0,0,0,0,0,0,0,0,0,0,0,0,0,0,0,0,0,0,0,0],"sum_hessian":[1.77E3,1.285E3,4.85E2,1.133E3,1.52E2,2.56E2,2.29E2,4.08E2,7.25E2,6.2E1,9E1,1.04E2,1.52E2,1.31E2,9.8E1,1.73E2,2.35E2,3.73E2,3.52E2,3.5E1,2.7E1,4.2E1,4.8E1,4.8E1,5.6E1,9.6E1,5.6E1,2.21E2,1.52E2,2.28E2,1.24E2,1.2E1,2.3E1,8E0,1.9E1,1.4E1,2.8E1,2E1,2.8E1,1E0,5.5E1,7E0,1.6E1,4E0,4E0,1.8E1,1E0,1.3E1,1E0,2.6E1,2E0],"tree_param":{"num_deleted":"0","num_feature":"21","num_nodes":"51","size_leaf_vector":"1"}},{"base_weights":[1.3578963E1,-6.7347373E3,1.7870207E4,-7.779357E3,6.653934E2,1.3248159E4,2.4641357E4,-1.0409222E4,-6.531429E3,-2.1205132E3,2.144873E3,9.897827E3,1.5929383E4,6.348229E3,8.351369E3,-3.4628882E3,-2.9433542E3,-7.518534E3,-5.4740737E3,-2.7689673E3,-9.079004E2,9.5776514E2,3.1664895E3,8.1175728E3,3.4075977E3,4.278303E3,5.1113096E3,-2.3804119E3,-2.1046262E3,-1.8041794E3,-4.7688975E3,-2.9217898E3,-5.15534E2,-1.5010132E3,-2.3225116E2,1.2635105E3,3.9241693E2,6.220847E2,3.5157454E3,4.9831436E3,2.5261177E3,-1.4347689E3,-3.7507092E2,-8.904052E2,-2.3717886E2,-6.020681E2,-2.2348917E2,1.1591769E1,-1.6951425E2,4.7847366E1,3.8819376E2,4.269135E1,1.8098633E2,5.63907E2,1.1072285E3,1.7955762E2,1.6572042E3],"categories":[],"categories_nodes":[],"categories_segments":[],"categories_sizes":[],"default_left":[0,0,0,0,0,0,0,0,0,0,0,0,0,0,0,0,0,0,0,0,0,0,0,0,0,0,0,0,0,0,0,0,0,0,0,0,0,0,0,0,0,0,0,0,0,0,0,0,0,0,0,0,0,0,0,0,0],"id":1,"left_children":[1,3,5,7,9,11,13,15,17,19,21,23,25,-1,-1,-1,-1,27,29,31,33,35,37,39,-1,-1,-1,-1,-1,-1,41,43,-1,45,47,49,51,-1,53,55,-1,-1,-1,-1,-1,-1,-1,-1,-1,-1,-1,-1,-1,-1,-1,-1,-1],"loss_changes":[2.1352969E11,9.94637E9,1.4883684E10,3.6306985E9,6.6401894E8,2.4563835E9,1.5915991E9,1.3151437E8,7.593759E8,4.152021E7,1.2430803E8,2.510807E8,5.2875264E7,0E0,0E0,0E0,0E0,2.6832896E7,1.1369984E8,7.58624E5,8.066848E6,8.146808E6,1.408448E7,1.7837568E7,0E0,0E0,0E0,0E0,0E0,0E0,2.050816E6,6.09072E5,0E0,2.712112E6,1.01349756E6,8.70036E5,9.1623625E5,0E0,4.802272E6,1.5665808E7,0E0,0E0,0E0,0E0,0E0,0E0,0E0,0E0,0E0,0E0,0E0,0E0,0E0,0E0,0E0,0E0,0E0],"parents":[2147483647,0,0,1,1,2,2,3,3,4,4,5,5,6,6,7,7,8,8,9,9,10,10,11,11,12,12,17,17,18,18,19,19,20,20,21,21,22,22,23,23,30,30,31,31,33,33,34,34,35,35,36,36,38,38,39,39],"right_children":[2,4,6,8,10,12,14,16,18,20,22,24,26,-1,-1,-1,-1,28,30,32,34,36,38,40,-1,-1,-1,-1,-1,-1,42,44,-1,46,48,50,52,-1,54,56,-1,-1,-1,-1,-1,-1,-1,-1,-1,-1,-1,-1,-1,-1,-1,-1,-1],"split_conditions":[2.452269E4,1.1900929E4,4.6481105E4,5.2049585E3,1.8264992E4,3.637554E4,5.31296E4,2.1785E3,8.50489E3,1.60998E4,2.0836328E4,3.300576E4,4.095138E4,6.348229E3,8.351369E3,-3.4628882E3,-2.9433542E3,7.03758E3,1.00588E4,1.4558929E12,1.6737182E11,5.584811E2,4.8494545E1,2.8236213E4,3.4075977E3,4.278303E3,5.1113096E3,-2.3804119E3,-2.1046262E3,-1.8041794E3,1.39487E4,1.9850464E3,-5.15534E2,2.2410933E3,9.148734E1,1.8046041E4,1.00650354E3,6.220847E2,2.2314941E4,3.4242316E10,2.5261177E3,-1.4347689E3,-3.7507092E2,-8.904052E2,-2.3717886E2,-6.020681E2,-2.2348917E2,1.1591769E1,-1.6951425E2,4.7847366E1,3.8819376E2,4.269135E1,1.8098633E2,5.63907E2,1.1072285E3,1.7955762E2,1.6572042E3],"split_indices":[2,2,3,3,3,2,2,2,3,3,3,3,3,0,0,0,0,3,3,19,19,11,18,2,0,0,0,0,0,0,0,11,0,11,17,2,16,0,1,5,0,0,0,0,0,0,0,0,0,0,0,0,0,0,0,0,0],"split_type":[0,0,0,0,0,0,0,0,0,0,0,0,0,0,0,0,0,0,0,0,0,0,0,0,0,0,0,0,0,0,0,0,0,0,0,0,0,0,0,0,0,0,0,0,0,0,0,0,0,0,0,0,0,0,0,0,0],"sum_hessian":[1.77E3,1.285E3,4.85E2,1.126E3,1.59E2,2.9E2,1.95E2,3.6E2,7.66E2,5.5E1,1.04E2,1.31E2,1.59E2,9.7E1,9.8E1,1.18E2,2.42E2,3.93E2,3.73E2,3.5E1,2E1,4.9E1,5.5E1,6.2E1,6.9E1,6.9E1,9E1,2.07E2,1.86E2,2.07E2,1.66E2,2.9E1,6E0,1E1,1E1,3.1E1,1.8E1,1.5E1,4E1,7E0,5.5E1,1.65E2,1E0,2.8E1,1E0,5E0,5E0,6E0,4E0,1E0,3E1,9E0,9E0,5E0,3.5E1,1E0,6E0],"tree_param":{"num_deleted":"0","num_feature":"21","num_nodes":"57","size_leaf_vector":"1"}},{"base_weights":[1.948866E1,-4.6787036E3,1.2701625E4,-5.4216265E3,8.9223376E2,9.810241E3,1.7995734E4,-7.2352637E3,-4.5064917E3,-7.0189044E2,1.9860533E3,7.446511E3,1.1817991E4,4.920014E3,6.6359834E3,-2.398242E3,-2.0189325E3,-5.0875703E3,-3.5504968E3,-1.3889459E3,2.065341E2,1.3491908E3,2.9215605E3,1.8199229E3,8.392938E3,1.0826494E4,3.8508843E3,-1.6096515E3,-1.3648505E3,-1.1584034E3,-2.8989153E3,-5.779246E2,-9.593556E2,-3.1081558E2,3.6175745E2,9.339948E2,1.7310298E3,1.5262384E2,2.9759624E3,2.5307356E3,7.25504E2,3.2640684E3,8.9856274E2,-8.9595825E2,-5.803443E2,-3.7025003E2,-5.8249474E1,-1.6463712E2,-3.1760275E1,1.27591995E2,-1.4591632E2,2.904114E2,9.488243E1,1.3361017E2,5.2864557E2,7.407098E2,1.0679993E3],"categories":[],"categories_nodes":[],"categories_segments":[],"categories_sizes":[],"default_left":[0,0,0,0,0,0,0,0,0,0,0,0,0,0,0,0,0,0,0,0,0,0,0,0,0,0,0,0,0,0,0,0,0,0,0,0,0,0,0,0,0,0,0,0,0,0,0,0,0,0,0,0,0,0,0,0,0],"id":2,"left_children":[1,3,5,7,9,11,13,15,17,19,21,23,25,-1,-1,-1,-1,27,29,31,33,35,37,-1,39,41,-1,-1,-1,-1,43,-1,45,47,49,51,53,-1,55,-1,-1,-1,-1,-1,-1,-1,-1,-1,-1,-1,-1,-1,-1,-1,-1,-1,-1],"loss_changes":[1.0558113E11,5.3562757E9,7.1556547E9,1.8611364E9,2.6817771E8,1.392681E9,7.428342E8,9.235251E7,4.0467968E8,3.960756E7,5.0275104E7,1.3978522E8,2.9636608E7,0E0,0E0,0E0,0E0,4.602675E7,4.774605E7,6.463976E6,2.3609728E6,7.26136E6,3.211392E6,0E0,1.102336E6,5.704704E6,0E0,0E0,0E0,0E0,2.503168E6,0E0,4.386594E6,2.8330806E5,1.3926405E6,3.0368E5,3.35552E5,0E0,1.572512E6,0E0,0E0,0E0,0E0,0E0,0E0,0E0,0E0,0E0,0E0,0E0,0E0,0E0,0E0,0E0,0E0,0E0,0E0],"parents":[2147483647,0,0,1,1,2,2,3,3,4,4,5,5,6,6,7,7,8,8,9,9,10,10,11,11,12,12,17,17,18,18,19,19,20,20,21,21,22,22,24,24,25,25,30,30,32,32,33,33,34,34,35,35,36,36,38,38],"right_children":[2,4,6,8,10,12,14,16,18,20,22,24,26,-1,-1,-1,-1,28,30,32,34,36,38,-1,40,42,-1,-1,-1,-1,44,-1,46,48,50,52,54,-1,56,-1,-1,-1,-1,-1,-1,-1,-1,-1,-1,-1,-1,-1,-1,-1,-1,-1,-1],"split_conditions":[2.88149E4,1.4593E4,4.7686812E4,5.347646E3,1.9345121E4,3.7458004E4,5.905788E4,2.60872E3,9.240347E3,1.67646E4,2.2399812E4,3.3572117E4,4.3193234E4,4.920014E3,6.6359834E3,-2.398242E3,-2.0189325E3,7.95158E3,1.094899E4,4.840503E1,1.5676325E4,2.0836328E4,8.022756E-1,1.8199229E3,1.3454546E0,4.7504066E4,3.8508843E3,-1.6096515E3,-1.3648505E3,-1.1584034E3,1.3552858E12,-5.779246E2,1.8982258E4,6.75601E1,1.2564524E3,3.5708973E4,1.709809E1,1.5262384E2,2.3869832E4,2.5307356E3,7.25504E2,3.2640684E3,8.9856274E2,-8.9595825E2,-5.803443E2,-3.7025003E2,-5.8249474E1,-1.6463712E2,-3.1760275E1,1.27591995E2,-1.4591632E2,2.904114E2,9.488243E1,1.3361017E2,5.2864557E2,7.407098E2,1.0679993E3],"split_indices":[3,1,3,2,3,2,3,3,3,2,2,3,3,0,0,0,0,3,3,10,13,3,17,0,20,7,0,0,0,0,19,0,14,10,12,14,10,0,3,0,0,0,0,0,0,0,0,0,0,0,0,0,0,0,0,0,0],"split_type":[0,0,0,0,0,0,0,0,0,0,0,0,0,0,0,0,0,0,0,0,0,0,0,0,0,0,0,0,0,0,0,0,0,0,0,0,0,0,0,0,0,0,0,0,0,0,0,0,0,0,0,0,0,0,0,0,0],"sum_hessian":[1.77E3,1.292E3,4.78E2,1.14E3,1.52E2,3.11E2,1.67E2,3.8E2,7.6E2,6.2E1,9E1,1.45E2,1.66E2,1.24E2,4.3E1,1.46E2,2.34E2,4.7E2,2.9E2,3.5E1,2.7E1,5.5E1,3.5E1,6.2E1,8.3E1,9E1,7.6E1,3.04E2,1.66E2,1.93E2,9.7E1,1.4E1,2.1E1,6E0,2.1E1,2.8E1,2.7E1,1E0,3.4E1,8.2E1,1E0,8.9E1,1E0,8.7E1,1E1,1.5E1,6E0,2E0,4E0,2E1,1E0,2.6E1,2E0,1E0,2.6E1,2.1E1,1.3E1],"tree_param":{"num_deleted":"0","num_feature":"21","num_nodes":"57","size_leaf_vector":"1"}},{"base_weights":[2.290623E1,-3.3153953E3,8.856307E3,-3.8039258E3,5.2521356E2,6.9322954E3,1.295916E4,-5.211661E3,-3.2023872E3,-7.5213837E2,1.1585303E3,4.7916606E3,8.1794106E3,1.1474117E4,4.5658003E3,-1.7498414E3,-1.4739666E3,-3.6192466E3,-2.5112449E3,-1.0415339E3,-2.6739452E1,5.587359E2,1.5983986E3,1.1023695E3,5.3126665E3,7.1749033E3,8.985324E3,3.4586194E3,9.3468463E2,-1.1877703E3,-1.00913837E3,-8.092277E2,-1.9893003E3,-1.5370798E3,-7.5036383E2,6.2901894E1,-1.21881645E2,6.547124E2,5.699951E1,9.326159E2,1.7779929E3,1.6272786E3,3.3261672E3,7.2666616E3,1.8469961E3,2.70612E3,7.637783E2,-6.0145764E2,-1.0469136E2,-5.0067822E2,-1.7556847E2,1.09089264E2,-2.4438252E2,4.1198364E1,-1.4044923E1,2.0652681E2,6.3877445E1,-8.7510796E1,9.736841E1,2.9746606E2,2.496416E1,3.341795E2,5.7630334E2,4.1526447E2,1.1478315E3,2.189627E3,6.3265576E2,6.585205E2,1.7262775E2],"categories":[],"categories_nodes":[],"categories_segments":[],"categories_sizes":[],"default_left":[0,0,0,0,0,0,0,0,0,0,0,0,0,0,0,0,0,0,0,0,0,0,0,0,0,0,0,0,0,0,0,0,0,0,0,0,0,0,0,0,0,0,0,0,0,0,0,0,0,0,0,0,0,0,0,0,0,0,0,0,0,0,0,0,0,0,0,0,0],"id":3,"left_children":[1,3,5,7,9,11,13,15,17,19,21,23,25,27,-1,-1,-1,29,31,33,35,37,39,-1,41,43,45,-1,-1,-1,-1,-1,47,49,51,53,-1,55,57,59,61,-1,63,65,67,-1,-1,-1,-1,-1,-1,-1,-1,-1,-1,-1,-1,-1,-1,-1,-1,-1,-1,-1,-1,-1,-1,-1,-1],"loss_changes":[5.2253594E10,2.4148623E9,3.7466153E9,9.495173E8,1.18980744E8,8.4978995E8,3.422638E8,3.4369536E7,2.2197504E8,1.0258584E7,2.4962312E7,5.3229824E7,1.0472653E8,8.359936E6,0E0,0E0,0E0,2.9933568E7,2.4272768E7,3.896716E6,5.3588256E5,2.033344E6,5.037776E6,0E0,3.57888E5,3.4489344E7,2.332672E6,0E0,0E0,0E0,0E0,0E0,1.444096E6,5.29286E5,2.013852E6,1.12585805E5,0E0,3.89557E5,8.4107044E5,6.18352E5,1.943952E6,0E0,1.49984E6,4.992E5,6.4696E4,0E0,0E0,0E0,0E0,0E0,0E0,0E0,0E0,0E0,0E0,0E0,0E0,0E0,0E0,0E0,0E0,0E0,0E0,0E0,0E0,0E0,0E0,0E0,0E0],"parents":[2147483647,0,0,1,1,2,2,3,3,4,4,5,5,6,6,7,7,8,8,9,9,10,10,11,11,12,12,13,13,17,17,18,18,19,19,20,20,21,21,22,22,24,24,25,25,26,26,32,32,33,33,34,34,35,35,37,37,38,38,39,39,40,40,42,42,43,43,44,44],"right_children":[2,4,6,8,10,12,14,16,18,20,22,24,26,28,-1,-1,-1,30,32,34,36,38,40,-1,42,44,46,-1,-1,-1,-1,-1,48,50,52,54,-1,56,58,60,62,-1,64,66,68,-1,-1,-1,-1,-1,-1,-1,-1,-1,-1,-1,-1,-1,-1,-1,-1,-1,-1,-1,-1,-1,-1,-1,-1],"split_conditions":[2.452269E4,1.4593E4,4.8824426E4,4.59712E3,1.8699766E4,3.73344E4,5.782805E4,1.83349E3,8.975525E3,1.549663E12,2.0836328E4,3.1533068E4,4.224447E4,8.4977905E1,4.5658003E3,-1.7498414E3,-1.4739666E3,6.83476E3,1.0874965E4,4.9240685E1,9.2729195E1,7.9155266E1,-3.9981177E2,1.1023695E3,7.866524E10,3.484715E3,6.3708215E4,3.4586194E3,9.3468463E2,-1.1877703E3,-1.00913837E3,-8.092277E2,1.2435718E3,1.643063E4,4.0116174E2,3.4065935E-1,-1.21881645E2,2.1864781E4,8.853839E1,7.992329E1,4.55973E1,1.6272786E3,8E-2,4.6919664E4,3.7340145E4,2.70612E3,7.637783E2,-6.0145764E2,-1.0469136E2,-5.0067822E2,-1.7556847E2,1.09089264E2,-2.4438252E2,4.1198364E1,-1.4044923E1,2.0652681E2,6.3877445E1,-8.7510796E1,9.736841E1,2.9746606E2,2.496416E1,3.341795E2,5.7630334E2,4.1526447E2,1.1478315E3,2.189627E3,6.3265576E2,6.585205E2,1.7262775E2],"split_indices":[2,1,3,3,3,3,3,1,2,19,3,3,3,10,0,0,0,3,2,17,18,18,11,0,5,12,14,0,0,0,0,0,11,13,12,20,0,6,17,18,17,0,20,7,0,0,0,0,0,0,0,0,0,0,0,0,0,0,0,0,0,0,0,0,0,0,0,0,0],"split_type":[0,0,0,0,0,0,0,0,0,0,0,0,0,0,0,0,0,0,0,0,0,0,0,0,0,0,0,0,0,0,0,0,0,0,0,0,0,0,0,0,0,0,0,0,0,0,0,0,0,0,0,0,0,0,0,0,0,0,0,0,0,0,0,0,0,0,0,0,0],"sum_hessian":[1.77E3,1.285E3,4.85E2,1.14E3,1.45E2,3.32E2,1.53E2,3.39E2,8.01E2,4.8E1,9.7E1,1.24E2,2.08E2,9.6E1,5.7E1,1.04E2,2.35E2,4.97E2,3.04E2,3.4E1,1.4E1,4.2E1,5.5E1,4.2E1,8.2E1,9.7E1,1.11E2,9.5E1,1E0,2.07E2,2.9E2,2.21E2,8.3E1,1.1E1,2.3E1,1.2E1,2E0,3.5E1,7E0,1.3E1,4.2E1,7.6E1,6E0,9.5E1,2E0,1.1E2,1E0,8.2E1,1E0,9E0,2E0,1E0,2.2E1,7E0,5E0,3.2E1,3E0,3E0,4E0,1.2E1,1E0,9E0,3.3E1,2E0,4E0,9.4E1,1E0,1E0,1E0],"tree_param":{"num_deleted":"0","num_feature":"21","num_nodes":"69","size_leaf_vector":"1"}},{"base_weights":[2.396534E1,-2.3030933E3,6.305516E3,-2.7319639E3,4.0483086E1,5.1419624E3,9.743631E3,-3.690719E3,-2.3214353E3,-9.562241E2,8.4104706E2,3.6785984E3,6.111772E3,8.86834E3,3.6221682E3,-1.2395562E3,-1.045746E3,-2.6649294E3,-1.978155E3,-1.1298832E3,-3.318261E2,2.7339462E2,1.1777329E3,3.06011E3,4.3063843E3,1.6651946E3,2.0175138E3,8.96064E3,9.522016E2,-8.489913E2,-7.509155E2,-6.452427E2,-5.1560425E2,-1.1754872E3,-7.3871014E2,-6.519066E2,1.8420366E1,4.7403613E2,1.23973785E2,8.936411E2,1.5485646E3,2.2856096E3,9.587826E2,1.3063856E3,1.467337E2,2.710958E3,3.7730535E3,-1.3226309E2,-3.5787503E2,9.272593E1,-2.668425E2,-3.56991E2,-9.0415985E1,2.7943872E1,-4.0690945E1,6.720078E1,1.6589159E2,-2.868539E1,5.047375E1,2.8920325E2,-4.7619143E0,5.9956253E1,4.9232013E2,7.169434E2,1.2401778E2,3.330129E2,1.3648612E3],"categories":[],"categories_nodes":[],"categories_segments":[],"categories_sizes":[],"default_left":[0,0,0,0,0,0,0,0,0,0,0,0,0,0,0,0,0,0,0,0,0,0,0,0,0,0,0,0,0,0,0,0,0,0,0,0,0,0,0,0,0,0,0,0,0,0,0,0,0,0,0,0,0,0,0,0,0,0,0,0,0,0,0,0,0,0,0],"id":4,"left_children":[1,3,5,7,9,11,13,15,17,19,21,23,25,27,-1,-1,-1,29,31,33,35,37,39,41,43,-1,-1,45,-1,-1,-1,-1,-1,47,49,51,53,55,57,59,61,63,-1,-1,-1,-1,65,-1,-1,-1,-1,-1,-1,-1,-1,-1,-1,-1,-1,-1,-1,-1,-1,-1,-1,-1,-1],"loss_changes":[2.5902176E10,1.2996936E9,1.8661048E9,4.2163302E8,1.6118774E8,4.8842445E8,1.3768294E8,1.5063552E7,8.528691E7,9.383992E6,2.1083512E7,4.3510656E7,3.6657664E7,1.9387392E7,0E0,0E0,0E0,3.095552E6,1.368576E7,3.80384E5,2.3662568E6,1.230373E6,5.990656E6,7.95904E5,1.0758784E7,0E0,0E0,9.41056E5,0E0,0E0,0E0,0E0,0E0,2.5512E5,1.854633E6,1.7159805E6,1.3926638E5,2.313915E5,2.6885353E5,2.703396E6,3.290032E6,1.938392E6,0E0,0E0,0E0,0E0,1.153172E6,0E0,0E0,0E0,0E0,0E0,0E0,0E0,0E0,0E0,0E0,0E0,0E0,0E0,0E0,0E0,0E0,0E0,0E0,0E0,0E0],"parents":[2147483647,0,0,1,1,2,2,3,3,4,4,5,5,6,6,7,7,8,8,9,9,10,10,11,11,12,12,13,13,17,17,18,18,19,19,20,20,21,21,22,22,23,23,24,24,27,27,33,33,34,34,35,35,36,36,37,37,38,38,39,39,40,40,41,41,46,46],"right_children":[2,4,6,8,10,12,14,16,18,20,22,24,26,28,-1,-1,-1,30,32,34,36,38,40,42,44,-1,-1,46,-1,-1,-1,-1,-1,48,50,52,54,56,58,60,62,64,-1,-1,-1,-1,66,-1,-1,-1,-1,-1,-1,-1,-1,-1,-1,-1,-1,-1,-1,-1,-1,-1,-1,-1,-1],"split_conditions":[2.88149E4,1.1601473E4,5.078454E4,4.33871E3,1.8264992E4,3.870598E4,6.089218E4,1.42103E3,8.108116E3,1.60998E4,2.0471482E4,3.4316387E4,4.4963074E4,3.9325383E3,3.6221682E3,-1.2395562E3,-1.045746E3,6.59654E3,9.729802E3,1.43369E4,1.6737182E11,4.8270615E1,2.3671928E4,2.970439E4,4.383069E3,1.6651946E3,2.0175138E3,9.883252E1,9.522016E2,-8.489913E2,-7.509155E2,-6.452427E2,-5.1560425E2,6.1620254E3,4.0116174E2,1.4092501E3,9.55196E1,1.9079842E4,5.24997E1,2.630044E4,6.150988E0,3.0817625E4,9.587826E2,1.3063856E3,1.467337E2,2.710958E3,5.390468E4,-1.3226309E2,-3.5787503E2,9.272593E1,-2.668425E2,-3.56991E2,-9.0415985E1,2.7943872E1,-4.0690945E1,6.720078E1,1.6589159E2,-2.868539E1,5.047375E1,2.8920325E2,-4.7619143E0,5.9956253E1,4.9232013E2,7.169434E2,1.2401778E2,3.330129E2,1.3648612E3],"split_indices":[3,3,3,3,3,3,3,0,3,3,3,3,3,12,0,0,0,3,3,2,19,18,1,3,11,0,0,17,0,0,0,0,0,15,12,12,17,2,17,7,18,0,0,0,0,0,1,0,0,0,0,0,0,0,0,0,0,0,0,0,0,0,0,0,0,0,0],"split_type":[0,0,0,0,0,0,0,0,0,0,0,0,0,0,0,0,0,0,0,0,0,0,0,0,0,0,0,0,0,0,0,0,0,0,0,0,0,0,0,0,0,0,0,0,0,0,0,0,0,0,0,0,0,0,0,0,0,0,0,0,0,0,0,0,0,0,0],"sum_hessian":[1.77E3,1.292E3,4.78E2,1.092E3,2E2,3.59E2,1.19E2,3.25E2,7.67E2,8.9E1,1.11E2,1.45E2,2.14E2,9E1,2.9E1,9.7E1,2.28E2,3.8E2,3.87E2,6.9E1,2E1,4.2E1,6.9E1,7.6E1,6.9E1,1.17E2,9.7E1,8.8E1,2E0,1.8E2,2E2,2.28E2,1.59E2,6E1,9E0,1E1,1E1,1.7E1,2.5E1,4.1E1,2.8E1,1.4E1,6.2E1,6.8E1,1E0,8.6E1,2E0,2E0,5.8E1,1E0,8E0,3E0,7E0,7E0,3E0,5E0,1.2E1,4E0,2.1E1,3.8E1,3E0,2E0,2.6E1,1.3E1,1E0,1E0,1E0],"tree_param":{"num_deleted":"0","num_feature":"21","num_nodes":"67","size_leaf_vector":"1"}},{"base_weights":[2.2896431E1,-1.6326149E3,4.4034824E3,-1.9169915E3,-2.2016209E1,3.5766868E3,6.8954023E3,-2.627006E3,-1.6400947E3,-6.818502E2,5.437655E2,2.6696343E3,4.4355093E3,6.266751E3,2.5717395E3,-8.2853955E2,-6.928485E2,-1.900499E3,-1.4020388E3,-8.2908154E2,-3.26228E2,1.9730351E2,7.7160834E2,2.123027E3,3.1869048E3,4.498055E3,2.6987039E3,6.3070537E3,3.9592972E2,-6.030405E2,-5.388405E2,-4.6476898E2,-1.2272777E3,-8.916269E2,-5.1993585E2,-8.1224164E2,-1.5675874E2,2.7704385E2,-8.023738E0,5.491512E2,9.451997E2,2.1541042E3,-1.01086525E2,3.2754136E3,1.6568839E3,1.2270936E3,4.831127E3,2.9259524E3,1.3210724E2,3.1776516E3,6.4156577E3,-8.8283646E1,-3.6917102E2,-2.743927E2,-6.5549904E1,-1.9505957E2,-9.4618996E1,-1.0257664E2,-3.2385022E2,-1.4816743E2,-8.56489E0,7.124681E1,1.7011679E2,-4.28084E1,7.079661E1,-1.0047891E2,1.7735582E2,1.2754102E2,3.0606177E2,2.2906383E2,6.629709E2,3.255807E2,9.945338E2,9.384336E1,6.395852E2,4.95734E2,1.4648488E3,3.7802094E2,9.8137054E2,1.259229E3,-1.3521915E2,1.9357882E3,4.9098987E2],"categories":[],"categories_nodes":[],"categories_segments":[],"categories_sizes":[],"default_left":[0,0,0,0,0,0,0,0,0,0,0,0,0,0,0,0,0,0,0,0,0,0,0,0,0,0,0,0,0,0,0,0,0,0,0,0,0,0,0,0,0,0,0,0,0,0,0,0,0,0,0,0,0,0,0,0,0,0,0,0,0,0,0,0,0,0,0,0,0,0,0,0,0,0,0,0,0,0,0,0,0,0,0],"id":5,"left_children":[1,3,5,7,9,11,13,15,17,19,21,23,25,27,-1,-1,-1,29,31,33,35,37,39,41,43,45,47,49,-1,-1,-1,-1,51,53,55,57,59,61,63,65,67,69,-1,71,73,-1,75,77,-1,79,81,-1,-1,-1,-1,-1,-1,-1,-1,-1,-1,-1,-1,-1,-1,-1,-1,-1,-1,-1,-1,-1,-1,-1,-1,-1,-1,-1,-1,-1,-1,-1,-1],"loss_changes":[1.2850675E10,5.889672E8,9.766472E8,2.1057587E8,7.279524E7,2.7405056E8,7.279309E7,6.674816E6,4.624627E7,4.441816E6,8.13634E6,4.441075E7,8.175104E6,9.819392E6,0E0,0E0,0E0,6.688E5,8.799424E6,7.54556E5,2.1788758E6,7.0625625E5,1.913792E6,7.68272E6,6.896256E6,4.548864E6,3.330392E6,1.0201088E7,0E0,0E0,0E0,0E0,2.36896E5,5.9026E5,1.412995E5,5.107755E5,9.368162E5,2.2093975E5,4.6087225E5,1.312873E6,8.92544E5,5.295808E6,0E0,3.79264E6,3.802772E6,0E0,7.215616E6,4.79624E5,0E0,2.0392628E7,4.6336E6,0E0,0E0,0E0,0E0,0E0,0E0,0E0,0E0,0E0,0E0,0E0,0E0,0E0,0E0,0E0,0E0,0E0,0E0,0E0,0E0,0E0,0E0,0E0,0E0,0E0,0E0,0E0,0E0,0E0,0E0,0E0,0E0],"parents":[2147483647,0,0,1,1,2,2,3,3,4,4,5,5,6,6,7,7,8,8,9,9,10,10,11,11,12,12,13,13,17,17,18,18,19,19,20,20,21,21,22,22,23,23,24,24,25,25,26,26,27,27,32,32,33,33,34,34,35,35,36,36,37,37,38,38,39,39,40,40,41,41,43,43,44,44,46,46,47,47,49,49,50,50],"right_children":[2,4,6,8,10,12,14,16,18,20,22,24,26,28,-1,-1,-1,30,32,34,36,38,40,42,44,46,48,50,-1,-1,-1,-1,52,54,56,58,60,62,64,66,68,70,-1,72,74,-1,76,78,-1,80,82,-1,-1,-1,-1,-1,-1,-1,-1,-1,-1,-1,-1,-1,-1,-1,-1,-1,-1,-1,-1,-1,-1,-1,-1,-1,-1,-1,-1,-1,-1,-1,-1],"split_conditions":[2.452269E4,1.1601473E4,5.078454E4,4.139878E3,1.8264992E4,3.9935516E4,6.089218E4,3.6142344E3,7.679419E3,1.43369E4,2.0471482E4,3.654211E4,8.429301E10,6.022253E4,2.5717395E3,-8.2853955E2,-6.928485E2,6.47629E3,9.5102E3,1.01892686E12,1.3757037E11,5.796201E1,-1.9913326E1,2.9857668E3,7.866524E10,4.3706285E4,4.535171E4,-1.1154296E3,3.9592972E2,-6.030405E2,-5.388405E2,-4.6476898E2,-9.8282965E2,1.643063E4,8.996458E1,7.7636053E2,7.530147E2,1.037037E0,9.340492E1,2.8347533E0,2.384557E1,6.150988E0,-1.01086525E2,3.4316387E4,8.429301E10,1.2270936E3,1.3730151E1,4.2479613E4,1.3210724E2,3.2479048E10,9.205242E10,-8.8283646E1,-3.6917102E2,-2.743927E2,-6.5549904E1,-1.9505957E2,-9.4618996E1,-1.0257664E2,-3.2385022E2,-1.4816743E2,-8.56489E0,7.124681E1,1.7011679E2,-4.28084E1,7.079661E1,-1.0047891E2,1.7735582E2,1.2754102E2,3.0606177E2,2.2906383E2,6.629709E2,3.255807E2,9.945338E2,9.384336E1,6.395852E2,4.95734E2,1.4648488E3,3.7802094E2,9.8137054E2,1.259229E3,-1.3521915E2,1.9357882E3,4.9098987E2],"split_indices":[2,3,3,3,3,3,3,3,2,2,3,1,5,2,0,0,0,3,3,19,19,10,12,12,5,2,2,12,0,0,0,0,11,13,18,11,12,20,17,17,17,18,0,3,5,0,18,1,0,5,5,0,0,0,0,0,0,0,0,0,0,0,0,0,0,0,0,0,0,0,0,0,0,0,0,0,0,0,0,0,0,0,0],"split_type":[0,0,0,0,0,0,0,0,0,0,0,0,0,0,0,0,0,0,0,0,0,0,0,0,0,0,0,0,0,0,0,0,0,0,0,0,0,0,0,0,0,0,0,0,0,0,0,0,0,0,0,0,0,0,0,0,0,0,0,0,0,0,0,0,0,0,0,0,0,0,0,0,0,0,0,0,0,0,0,0,0,0,0],"sum_hessian":[1.77E3,1.285E3,4.85E2,1.092E3,1.93E2,3.66E2,1.19E2,3.04E2,7.88E2,8.9E1,1.04E2,1.8E2,1.86E2,9E1,2.9E1,2.08E2,9.6E1,3.73E2,4.15E2,6.2E1,2.7E1,4.2E1,6.2E1,9E1,9E1,1.78E2,8E0,8.9E1,1E0,1.73E2,2E2,2.21E2,1.94E2,5E1,1.2E1,6E0,2.1E1,3E1,1.2E1,2.9E1,3.3E1,8.9E1,1E0,8.4E1,6E0,8.6E1,9.2E1,7E0,1E0,4E0,8.5E1,1E0,1.93E2,4.8E1,2E0,6E0,6E0,3E0,3E0,5E0,1.6E1,2.8E1,2E0,8E0,4E0,1E0,2.8E1,5E0,2.8E1,4E0,8.5E1,2E0,8.2E1,2E0,4E0,2E0,9E1,2E0,5E0,3E0,1E0,8.4E1,1E0],"tree_param":{"num_deleted":"0","num_feature":"21","num_nodes":"83","size_leaf_vector":"1"}},{"base_weights":[2.168735E1,-1.1353218E3,3.144842E3,-1.3151815E3,2.1340585E2,2.5346003E3,4.816263E3,-1.8701614E3,-1.1290853E3,-1.30515E2,5.545552E2,1.9273545E3,3.1075234E3,4.492889E3,6.778865E3,-6.301332E2,-5.2593176E2,-1.316139E3,-9.1409625E2,-4.3496762E2,4.2588768E1,4.4525577E2,8.075649E2,1.5511951E3,2.253399E3,9.744375E2,3.1260164E3,2.021045E2,4.521227E3,5.706487E2,2.0931504E3,-4.1473892E2,-3.550669E2,-9.730919E2,-6.348818E2,-1.48908205E1,-5.0436E2,-1.3093834E2,9.373357E1,-6.933203E1,4.8617273E2,-1.8661914E2,9.163143E2,1.6215691E3,3.660703E2,2.2702407E3,1.1064698E2,-4.3991604E1,4.824885E2,5.4496216E2,3.1689976E3,2.039956E3,4.571263E3,-2.987586E2,-1.8271361E2,-2.3913312E2,-1.5295267E2,-9.515567E1,8.771026E1,-1.9682852E2,-5.3570637E1,5.652211E0,5.2373547E1,4.7135353E1,-8.180138E1,-2.8231642E1,1.533798E2,-7.8978226E1,-5.000391E0,3.2787323E2,5.038278E1,3.4320996E2,5.3242365E2,-3.8263332E1,2.7065997E2,1.3839258E2,6.856148E2,7.799256E2,9.8294257E2,8.2085394E2,-7.3072267E0,1.382563E3,5.1908325E2],"categories":[],"categories_nodes":[],"categories_segments":[],"categories_sizes":[],"default_left":[0,0,0,0,0,0,0,0,0,0,0,0,0,0,0,0,0,0,0,0,0,0,0,0,0,0,0,0,0,0,0,0,0,0,0,0,0,0,0,0,0,0,0,0,0,0,0,0,0,0,0,0,0,0,0,0,0,0,0,0,0,0,0,0,0,0,0,0,0,0,0,0,0,0,0,0,0,0,0,0,0,0,0],"id":6,"left_children":[1,3,5,7,9,11,13,15,17,19,21,23,25,27,29,-1,-1,31,33,35,37,39,41,43,45,47,49,-1,51,-1,-1,-1,-1,53,55,57,59,-1,61,63,65,67,69,71,73,75,-1,-1,-1,-1,77,79,81,-1,-1,-1,-1,-1,-1,-1,-1,-1,-1,-1,-1,-1,-1,-1,-1,-1,-1,-1,-1,-1,-1,-1,-1,-1,-1,-1,-1,-1,-1],"loss_changes":[6.4031114E9,3.1393907E8,4.7635866E8,1.1573043E8,1.802362E7,1.1682099E8,5.0144256E7,4.000192E6,3.3260672E7,4.0765708E6,1.76977E6,1.7844736E7,4.054528E6,9.075968E6,2.20128E6,0E0,0E0,2.373632E6,6.004128E6,8.08693E5,1.2659566E6,1.212808E6,2.549573E6,6.412176E6,2.051008E6,2.3676458E6,4.26176E6,0E0,4.45568E6,0E0,0E0,0E0,0E0,2.128992E6,1.074402E6,5.571476E5,1.0692565E6,0E0,2.7522738E5,2.730722E5,8.05289E5,3.468796E4,2.459652E6,3.74824E6,1.7029192E6,1.410848E6,0E0,0E0,0E0,0E0,1.944064E6,5.815541E6,3.464448E6,0E0,0E0,0E0,0E0,0E0,0E0,0E0,0E0,0E0,0E0,0E0,0E0,0E0,0E0,0E0,0E0,0E0,0E0,0E0,0E0,0E0,0E0,0E0,0E0,0E0,0E0,0E0,0E0,0E0,0E0],"parents":[2147483647,0,0,1,1,2,2,3,3,4,4,5,5,6,6,7,7,8,8,9,9,10,10,11,11,12,12,13,13,14,14,17,17,18,18,19,19,20,20,21,21,22,22,23,23,24,24,25,25,26,26,28,28,33,33,34,34,35,35,36,36,38,38,39,39,40,40,41,41,42,42,43,43,44,44,45,45,50,50,51,51,52,52],"right_children":[2,4,6,8,10,12,14,16,18,20,22,24,26,28,30,-1,-1,32,34,36,38,40,42,44,46,48,50,-1,52,-1,-1,-1,-1,54,56,58,60,-1,62,64,66,68,70,72,74,76,-1,-1,-1,-1,78,80,82,-1,-1,-1,-1,-1,-1,-1,-1,-1,-1,-1,-1,-1,-1,-1,-1,-1,-1,-1,-1,-1,-1,-1,-1,-1,-1,-1,-1,-1,-1],"split_conditions":[2.88149E4,1.4593E4,5.0098336E4,4.025229E3,2.0190115E4,3.9935516E4,6.3742285E4,1.24997E3,8.30086E3,1.6737182E11,2.3474455E4,3.654211E4,1.6739162E12,-2.7239043E3,3.9607944E1,-6.301332E2,-5.2593176E2,7.146134E3,8.421595E11,1.9991768E2,1.5241086E4,8.16779E2,3.182667E0,3.6512133E4,4.383069E3,4.191023E4,5.678413E0,2.021045E2,1.9832439E3,5.706487E2,2.0931504E3,-4.1473892E2,-3.550669E2,6.90666E2,1.1441132E2,4.9382716E-2,2.1135886E3,-1.3093834E2,2.0023953E4,1.9799582E4,8.541467E0,2.8936734E4,8.615645E1,3.1006188E4,3.3878965E4,3.3572117E4,1.1064698E2,-4.3991604E1,4.824885E2,5.4496216E2,4.031238E4,5.0854918E4,3.9325383E3,-2.987586E2,-1.8271361E2,-2.3913312E2,-1.5295267E2,-9.515567E1,8.771026E1,-1.9682852E2,-5.3570637E1,5.652211E0,5.2373547E1,4.7135353E1,-8.180138E1,-2.8231642E1,1.533798E2,-7.8978226E1,-5.000391E0,3.2787323E2,5.038278E1,3.4320996E2,5.3242365E2,-3.8263332E1,2.7065997E2,1.3839258E2,6.856148E2,7.799256E2,9.8294257E2,8.2085394E2,-7.3072267E0,1.382563E3,5.1908325E2],"split_indices":[3,1,3,3,3,3,1,2,3,19,0,1,19,11,17,0,0,3,19,11,6,16,17,6,11,0,17,0,16,0,0,0,0,12,11,20,11,0,14,0,18,0,18,1,2,3,0,0,0,0,7,0,12,0,0,0,0,0,0,0,0,0,0,0,0,0,0,0,0,0,0,0,0,0,0,0,0,0,0,0,0,0,0],"split_type":[0,0,0,0,0,0,0,0,0,0,0,0,0,0,0,0,0,0,0,0,0,0,0,0,0,0,0,0,0,0,0,0,0,0,0,0,0,0,0,0,0,0,0,0,0,0,0,0,0,0,0,0,0,0,0,0,0,0,0,0,0,0,0,0,0,0,0,0,0,0,0,0,0,0,0,0,0,0,0,0,0,0,0],"sum_hessian":[1.77E3,1.292E3,4.78E2,1.14E3,1.52E2,3.52E2,1.26E2,2.84E2,8.56E2,7.6E1,7.6E1,1.73E2,1.79E2,1.11E2,1.5E1,9E1,1.94E2,4.55E2,4.01E2,2.7E1,4.9E1,5.5E1,2.1E1,8.3E1,9E1,2E0,1.77E2,1E0,1.1E2,1E0,1.4E1,2.97E2,1.58E2,3.29E2,7.2E1,4E0,2.3E1,4E0,4.5E1,4E0,5.1E1,2E0,1.9E1,7.8E1,5E0,8.9E1,1E0,1E0,1E0,7E0,1.7E2,3E0,1.07E2,3.08E2,2.1E1,2.9E1,4.3E1,2E0,2E0,1.5E1,8E0,2.4E1,2.1E1,2E0,2E0,2E0,4.9E1,1E0,1E0,1.5E1,4E0,2.1E1,5.7E1,3E0,2E0,1E0,8.8E1,3.1E1,1.39E2,2E0,1E0,1.05E2,2E0],"tree_param":{"num_deleted":"0","num_feature":"21","num_nodes":"83","size_leaf_vector":"1"}},{"base_weights":[1.9486685E1,-7.970567E2,2.2236018E3,-9.2308044E2,1.4797711E2,1.7373236E3,3.2994175E3,-1.2057362E3,-7.3793866E2,-1.4540202E2,3.4945963E2,1.3254235E3,2.1082295E3,2.8907217E3,4.1997275E3,-1.3592566E3,-1.0316127E3,-8.339229E2,-5.649028E2,-3.1368637E2,-1.0475233E1,2.0263138E2,5.0864856E2,1.0802893E3,1.534351E3,1.2690352E2,2.1254658E3,1.8002715E3,3.0524604E3,3.180126E3,1.4349879E3,-4.6404715E2,-3.8769266E2,-3.1890222E2,-8.8131305E2,-8.232908E2,-4.1356253E2,-6.1476965E2,-4.4264468E2,-5.150596E2,-2.0738412E2,-3.3171036E2,4.0045105E1,1.5098776E2,1.3452942E2,2.922211E2,6.678111E2,1.1446888E3,3.817566E2,1.7945631E3,1.1375525E3,2.1549163E3,1.1276389E3,2.8507705E3,3.9342627E2,3.1581475E3,1.5743994E3,1.835672E2,9.8664355E2,-1.915908E2,-2.8639545E2,-2.6443842E2,-2.2537604E2,-1.792172E2,-4.2361075E2,-1.8781201E2,-1.1248054E2,-4.6562893E1,-2.778209E2,-1.3496786E2,-2.1394985E1,-2.3921045E1,-1.1243086E2,2.199714E1,-4.6297386E1,5.245342E1,-6.523028E1,1.5592351E2,2.9167921E1,1.1870854E2,2.4141032E2,2.6264264E2,3.90996E2,-3.0410938E1,1.6790811E2,3.3557953E2,5.7560706E2,1.9971078E2,4.1259204E2,5.6278015E2,6.877505E2,1.7304785E2,4.1896262E2,1.048576E3,3.5140607E2,-2.3831367E2,2.7652734E2,7.068993E2,9.9433716E2,8.7498987E2,-1.4909766E2],"categories":[],"categories_nodes":[],"categories_segments":[],"categories_sizes":[],"default_left":[0,0,0,0,0,0,0,0,0,0,0,0,0,0,0,0,0,0,0,0,0,0,0,0,0,0,0,0,0,0,0,0,0,0,0,0,0,0,0,0,0,0,0,0,0,0,0,0,0,0,0,0,0,0,0,0,0,0,0,0,0,0,0,0,0,0,0,0,0,0,0,0,0,0,0,0,0,0,0,0,0,0,0,0,0,0,0,0,0,0,0,0,0,0,0,0,0,0,0,0,0],"id":7,"left_children":[1,3,5,7,9,11,13,15,17,19,21,23,25,27,29,31,33,35,37,39,41,43,45,47,49,-1,51,53,55,57,-1,-1,-1,-1,59,61,-1,63,65,67,69,71,73,75,-1,77,79,81,83,85,87,89,91,93,95,97,99,-1,-1,-1,-1,-1,-1,-1,-1,-1,-1,-1,-1,-1,-1,-1,-1,-1,-1,-1,-1,-1,-1,-1,-1,-1,-1,-1,-1,-1,-1,-1,-1,-1,-1,-1,-1,-1,-1,-1,-1,-1,-1,-1,-1],"loss_changes":[3.1891395E9,1.541287E8,2.4485453E8,5.882029E7,9.094759E6,4.792749E7,4.23168E7,1.0627008E7,1.1022176E7,1.4271962E6,2.023914E6,6.536864E6,4.126016E6,1.3023424E7,1.0968704E7,9.64512E5,7.7648E4,1.430272E6,1.25204E6,4.92565E5,5.9752406E5,5.5429825E5,1.286079E6,3.026872E6,6.631744E6,0E0,2.595136E6,2.2524664E7,9.086848E6,3.291088E6,0E0,0E0,0E0,0E0,1.5562E5,1.168992E6,0E0,1.581204E6,7.09014E5,1.1873825E6,6.278664E5,2.4365938E4,2.1830353E5,4.0717325E5,0E0,8.367861E5,5.75581E5,1.848368E6,7.444649E5,1.96512E6,3.123088E6,2.032768E6,2.31245E5,5.647024E6,5.752664E6,2.592512E6,2.3691872E7,0E0,0E0,0E0,0E0,0E0,0E0,0E0,0E0,0E0,0E0,0E0,0E0,0E0,0E0,0E0,0E0,0E0,0E0,0E0,0E0,0E0,0E0,0E0,0E0,0E0,0E0,0E0,0E0,0E0,0E0,0E0,0E0,0E0,0E0,0E0,0E0,0E0,0E0,0E0,0E0,0E0,0E0,0E0,0E0],"parents":[2147483647,0,0,1,1,2,2,3,3,4,4,5,5,6,6,7,7,8,8,9,9,10,10,11,11,12,12,13,13,14,14,15,15,16,16,17,17,18,18,19,19,20,20,21,21,22,22,23,23,24,24,26,26,27,27,28,28,29,29,34,34,35,35,37,37,38,38,39,39,40,40,41,41,42,42,43,43,45,45,46,46,47,47,48,48,49,49,50,50,51,51,52,52,53,53,54,54,55,55,56,56],"right_children":[2,4,6,8,10,12,14,16,18,20,22,24,26,28,30,32,34,36,38,40,42,44,46,48,50,-1,52,54,56,58,-1,-1,-1,-1,60,62,-1,64,66,68,70,72,74,76,-1,78,80,82,84,86,88,90,92,94,96,98,100,-1,-1,-1,-1,-1,-1,-1,-1,-1,-1,-1,-1,-1,-1,-1,-1,-1,-1,-1,-1,-1,-1,-1,-1,-1,-1,-1,-1,-1,-1,-1,-1,-1,-1,-1,-1,-1,-1,-1,-1,-1,-1,-1,-1],"split_conditions":[2.8936734E4,1.4593E4,4.8927305E4,6.36126E3,1.9845975E4,3.92942E4,5.8443E4,3.7615571E3,9.461059E3,1.6737182E11,5.6370342E1,3.4316387E4,-3.3137742E3,2.6830889E1,1.9483442E3,1.14384E3,2.6347685E11,1.0564985E4,6.596885E1,3.771203E1,1.5241086E4,7.692308E-1,2.404082E4,6.8564705E10,3.8138387E4,1.2690352E2,2.4709222E12,1.5565228E1,7.8688526E-1,5.762788E4,1.4349879E3,-4.6404715E2,-3.8769266E2,-3.1890222E2,5.2049585E3,8.1777935E3,-4.1356253E2,1.3108063E4,1.0138518E4,1.36912E4,1.6322716E3,3.4242316E10,4.285064E10,3.5708973E4,1.3452942E2,7.743419E1,6.7686874E1,3.1935945E4,4.9382716E-2,3.654211E4,-9.6866943E2,4.2586918E4,4.726752E4,1.0807087E1,-8.181415E2,4.6413372E1,5.600855E4,1.835672E2,9.8664355E2,-1.915908E2,-2.8639545E2,-2.6443842E2,-2.2537604E2,-1.792172E2,-4.2361075E2,-1.8781201E2,-1.1248054E2,-4.6562893E1,-2.778209E2,-1.3496786E2,-2.1394985E1,-2.3921045E1,-1.1243086E2,2.199714E1,-4.6297386E1,5.245342E1,-6.523028E1,1.5592351E2,2.9167921E1,1.1870854E2,2.4141032E2,2.6264264E2,3.90996E2,-3.0410938E1,1.6790811E2,3.3557953E2,5.7560706E2,1.9971078E2,4.1259204E2,5.6278015E2,6.877505E2,1.7304785E2,4.1896262E2,1.048576E3,3.5140607E2,-2.3831367E2,2.7652734E2,7.068993E2,9.9433716E2,8.7498987E2,-1.4909766E2],"split_indices":[0,1,3,3,1,3,8,3,3,19,17,3,11,17,12,3,19,13,10,17,6,20,14,5,0,0,19,18,20,1,0,0,0,0,3,1,0,0,3,2,16,5,5,14,0,18,17,1,20,1,12,3,3,17,11,17,3,0,0,0,0,0,0,0,0,0,0,0,0,0,0,0,0,0,0,0,0,0,0,0,0,0,0,0,0,0,0,0,0,0,0,0,0,0,0,0,0,0,0,0,0],"split_type":[0,0,0,0,0,0,0,0,0,0,0,0,0,0,0,0,0,0,0,0,0,0,0,0,0,0,0,0,0,0,0,0,0,0,0,0,0,0,0,0,0,0,0,0,0,0,0,0,0,0,0,0,0,0,0,0,0,0,0,0,0,0,0,0,0,0,0,0,0,0,0,0,0,0,0,0,0,0,0,0,0,0,0,0,0,0,0,0,0,0,0,0,0,0,0,0,0,0,0,0,0],"sum_hessian":[1.77E3,1.292E3,4.78E2,1.14E3,1.52E2,3.31E2,1.47E2,4.49E2,6.91E2,6.2E1,9E1,1.59E2,1.72E2,1.04E2,4.3E1,2.35E2,2.14E2,4.42E2,2.49E2,2.7E1,3.5E1,4.8E1,4.2E1,7.6E1,8.3E1,2E0,1.7E2,1.5E1,8.9E1,1.8E1,2.5E1,5.6E1,1.79E2,1.72E2,4.2E1,4.36E2,6E0,1.74E2,7.5E1,8E0,1.9E1,4E0,3.1E1,4.1E1,7E0,1.9E1,2.3E1,6.9E1,7E0,4.8E1,3.5E1,1.64E2,6E0,8E0,7E0,8.2E1,7E0,1E0,1.7E1,1.2E1,3E1,2.35E2,2.01E2,1.72E2,2E0,1.8E1,5.7E1,5E0,3E0,6E0,1.3E1,1E0,3E0,2.7E1,4E0,3.9E1,2E0,8E0,1.1E1,9E0,1.4E1,2.8E1,4.1E1,2E0,5E0,9E0,3.9E1,1.3E1,2.2E1,5.9E1,1.05E2,3E0,3E0,5E0,3E0,2E0,5E0,1.6E1,6.6E1,4E0,3E0],"tree_param":{"num_deleted":"0","num_feature":"21","num_nodes":"101","size_leaf_vector":"1"}},{"base_weights":[1.7776794E1,-5.666728E2,1.5642468E3,-6.690175E2,-3.3035156E1,1.2581306E3,2.4874165E3,-9.415702E2,-5.8001886E2,-2.4141724E2,2.0332654E2,9.611031E2,1.5613698E3,2.315916E3,1.3035801E3,-3.223189E2,-2.6643152E2,-6.825401E2,-5.0864343E2,-7.5699835E2,-2.0474594E2,1.2274476E2,3.078464E2,8.500127E2,1.5408741E3,1.6554071E2,1.5811792E3,8.5165546E2,2.3622622E3,-2.3366728E2,-6.605972E2,-5.523193E2,-4.22169E2,-1.9280176E2,-3.3958362E2,-2.3256784E2,-2.2310091E1,1.4282869E2,-8.59127E1,3.5720813E2,1.0008092E1,7.124786E2,1.121959E3,1.7016056E3,4.2904218E2,1.5923573E3,4.0579037E2,5.926789E2,-5.561706E2,2.44827E3,1.4701771E3,-1.9852592E2,-5.1237232E1,-1.6235893E2,-2.7512146E2,-1.1929476E2,-1.93238E2,3.6896486E0,-7.958047E1,-6.2696014E1,-1.5954083E2,-1.8354065E1,4.606914E1,1.9689543E1,7.940665E1,7.641435E1,2.0522894E2,6.550449E1,-3.50993E1,2.2796306E2,5.7272463E0,4.0837067E2,2.0131647E2,2.920502E2,5.9609357E2,1.5514102E2,1.149961E1,4.8202307E2,1.7377794E2,5.149219E0,1.7745645E2,-2.8657385E2,3.6297073E1,7.431101E2,2.1639961E2,-1.1555069E2,6.3942676E2],"categories":[],"categories_nodes":[],"categories_segments":[],"categories_sizes":[],"default_left":[0,0,0,0,0,0,0,0,0,0,0,0,0,0,0,0,0,0,0,0,0,0,0,0,0,0,0,0,0,0,0,0,0,0,0,0,0,0,0,0,0,0,0,0,0,0,0,0,0,0,0,0,0,0,0,0,0,0,0,0,0,0,0,0,0,0,0,0,0,0,0,0,0,0,0,0,0,0,0,0,0,0,0,0,0,0,0],"id":8,"left_children":[1,3,5,7,9,11,13,15,17,19,21,23,25,27,-1,-1,-1,29,31,33,35,37,39,41,43,-1,45,47,49,-1,51,53,55,57,-1,59,61,63,-1,65,67,69,71,73,75,77,79,-1,81,83,85,-1,-1,-1,-1,-1,-1,-1,-1,-1,-1,-1,-1,-1,-1,-1,-1,-1,-1,-1,-1,-1,-1,-1,-1,-1,-1,-1,-1,-1,-1,-1,-1,-1,-1,-1,-1],"loss_changes":[1.6015761E9,7.02128E7,1.3421261E8,2.5627008E7,1.0293823E7,3.15552E7,2.8171456E7,9.2064E5,5.623904E6,1.943687E6,7.87608E5,1.0798752E7,2.727328E6,5.5888E6,0E0,0E0,0E0,1.87392E5,1.598608E6,1.2625658E6,5.277605E5,5.092573E5,6.13901E5,5.184928E6,4.452424E6,0E0,1.666208E6,9.010335E6,4.68704E6,0E0,4.38E4,7.97888E5,6.52738E5,6.271414E4,0E0,5.309835E5,1.11938664E5,5.0002512E5,0E0,1.0318935E6,2.1076908E5,3.567824E6,4.69686E6,3.260208E6,1.5227425E5,1.60528E6,2.0638703E5,0E0,9.2629044E5,3.031488E6,1.554302E7,0E0,0E0,0E0,0E0,0E0,0E0,0E0,0E0,0E0,0E0,0E0,0E0,0E0,0E0,0E0,0E0,0E0,0E0,0E0,0E0,0E0,0E0,0E0,0E0,0E0,0E0,0E0,0E0,0E0,0E0,0E0,0E0,0E0,0E0,0E0,0E0],"parents":[2147483647,0,0,1,1,2,2,3,3,4,4,5,5,6,6,7,7,8,8,9,9,10,10,11,11,12,12,13,13,17,17,18,18,19,19,20,20,21,21,22,22,23,23,24,24,26,26,27,27,28,28,30,30,31,31,32,32,33,33,35,35,36,36,37,37,39,39,40,40,41,41,42,42,43,43,44,44,45,45,46,46,48,48,49,49,50,50],"right_children":[2,4,6,8,10,12,14,16,18,20,22,24,26,28,-1,-1,-1,30,32,34,36,38,40,42,44,-1,46,48,50,-1,52,54,56,58,-1,60,62,64,-1,66,68,70,72,74,76,78,80,-1,82,84,86,-1,-1,-1,-1,-1,-1,-1,-1,-1,-1,-1,-1,-1,-1,-1,-1,-1,-1,-1,-1,-1,-1,-1,-1,-1,-1,-1,-1,-1,-1,-1,-1,-1,-1,-1,-1],"split_conditions":[2.5826182E4,1.1478169E4,5.078454E4,3.8404463E3,1.8699766E4,3.894142E4,6.4261992E4,1.17182E3,7.2431343E3,-9.328163E-1,2.2314941E4,7.913806E1,3.71699E4,-1.1154296E3,1.3035801E3,-3.223189E2,-2.6643152E2,2.9590443E1,9.613424E3,1.1713307E4,1.549663E12,2.1362441E4,1.8362063E12,3.9468246E4,9.506019E1,1.6554071E2,1.1428572E0,5.0854918E4,7.8688526E-1,-2.3366728E2,5.584811E2,1.0266318E4,1.17857E4,1.1446597E4,-3.3958362E2,3.5319796E10,9.572192E1,2.0471482E4,-8.59127E1,8.160802E1,2.1864781E4,7.259972E1,3.978928E4,3.2358613E4,3.9478375E4,9.205242E10,4.682776E4,5.926789E2,5.6620273E4,3.9325383E3,6.0984883E4,-1.9852592E2,-5.1237232E1,-1.6235893E2,-2.7512146E2,-1.1929476E2,-1.93238E2,3.6896486E0,-7.958047E1,-6.2696014E1,-1.5954083E2,-1.8354065E1,4.606914E1,1.9689543E1,7.940665E1,7.641435E1,2.0522894E2,6.550449E1,-3.50993E1,2.2796306E2,5.7272463E0,4.0837067E2,2.0131647E2,2.920502E2,5.9609357E2,1.5514102E2,1.149961E1,4.8202307E2,1.7377794E2,5.149219E0,1.7745645E2,-2.8657385E2,3.6297073E1,7.431101E2,2.1639961E2,-1.1555069E2,6.3942676E2],"split_indices":[8,3,3,2,3,2,3,2,3,11,1,17,7,12,0,0,0,10,3,0,19,2,19,13,18,0,20,0,20,0,11,9,1,0,0,5,17,3,0,17,6,17,1,0,0,5,0,0,0,12,14,0,0,0,0,0,0,0,0,0,0,0,0,0,0,0,0,0,0,0,0,0,0,0,0,0,0,0,0,0,0,0,0,0,0,0,0],"split_type":[0,0,0,0,0,0,0,0,0,0,0,0,0,0,0,0,0,0,0,0,0,0,0,0,0,0,0,0,0,0,0,0,0,0,0,0,0,0,0,0,0,0,0,0,0,0,0,0,0,0,0,0,0,0,0,0,0,0,0,0,0,0,0,0,0,0,0,0,0,0,0,0,0,0,0,0,0,0,0,0,0,0,0,0,0,0,0],"sum_hessian":[1.77E3,1.285E3,4.85E2,1.078E3,2.07E2,3.66E2,1.19E2,2.63E2,8.15E2,1.1E2,9.7E1,1.87E2,1.79E2,1.11E2,8E0,7E1,1.93E2,3.31E2,4.84E2,6E0,1.04E2,5.6E1,4.1E1,1.59E2,2.8E1,4E0,1.75E2,4E0,1.07E2,5.5E1,2.76E2,3.18E2,1.66E2,3E0,3E0,9E1,1.4E1,5.4E1,2E0,3.5E1,6E0,1.08E2,5.1E1,2.4E1,4E0,1.73E2,2E0,2E0,2E0,9.6E1,1.1E1,2.75E2,1E0,3.11E2,7E0,1.52E2,1.4E1,1E0,2E0,8.5E1,5E0,1.2E1,2E0,3.4E1,2E1,2.8E1,7E0,2E0,4E0,1.01E2,7E0,3.2E1,1.9E1,8E0,1.6E1,3E0,1E0,1.7E2,3E0,1E0,1E0,1E0,1E0,9.4E1,2E0,3E0,8E0],"tree_param":{"num_deleted":"0","num_feature":"21","num_nodes":"87","size_leaf_vector":"1"}},{"base_weights":[1.465982E1,-3.8670035E2,1.1427524E3,-4.650432E2,4.669396E1,9.738668E2,2.0510603E3,-6.297348E2,-3.893362E2,-1.4191034E2,1.778491E2,7.589059E2,1.20776E3,1.8593374E3,9.5595807E2,-2.1988452E2,-5.8254486E2,-4.5076855E2,-3.2073883E2,-2.1673993E2,4.9013333E0,1.2862225E2,4.150909E2,7.06285E2,1.1938499E3,1.1293207E3,1.8814777E3,2.0791755E3,1.3101847E3,-2.0322069E2,-5.5051587E2,-4.366961E2,-8.06568E2,-4.7632285E2,-3.0831894E2,1.3096889E1,-2.8819174E2,3.8822483E1,-9.060684E1,-1.1098027E2,1.5353876E2,6.2428534E2,1.8717862E2,5.215095E2,8.325665E2,1.4255743E3,5.267472E2,1.0631272E3,1.9894698E3,5.7661526E1,1.9695404E3,3.764766E1,2.1216914E3,3.5498715E2,1.6685979E3,-1.0953661E2,-1.6868063E2,-1.346059E2,-3.941424E1,-2.5197992E2,-5.5923344E1,-1.5640306E2,-5.7591446E1,-9.48955E1,-3.8118347E1,-9.860831E1,1.940181E1,-1.5966327E2,-4.4152393E1,-1.4209571E1,3.667115E1,-1.1546675E2,1.8418024E1,2.0135357E1,7.211659E1,2.1957637E2,-5.1665627E1,1.5933595E1,1.580957E2,2.295549E2,4.759684E1,1.8305855E2,3.2616254E2,4.4598697E2,8.56336E1,1.8110333E2,9.77461E0,3.4833112E2,3.2630936E1,7.6257745E2,1.1615772E2,6.1238324E2,1.23262505E2,7.461853E2,4.9789752E2,-1.2229688E2,1.6501114E2,2.762955E2,6.1940247E2],"categories":[],"categories_nodes":[],"categories_segments":[],"categories_sizes":[],"default_left":[0,0,0,0,0,0,0,0,0,0,0,0,0,0,0,0,0,0,0,0,0,0,0,0,0,0,0,0,0,0,0,0,0,0,0,0,0,0,0,0,0,0,0,0,0,0,0,0,0,0,0,0,0,0,0,0,0,0,0,0,0,0,0,0,0,0,0,0,0,0,0,0,0,0,0,0,0,0,0,0,0,0,0,0,0,0,0,0,0,0,0,0,0,0,0,0,0,0,0],"id":9,"left_children":[1,3,5,7,9,11,13,15,17,19,21,23,25,27,-1,-1,29,31,33,35,37,39,41,43,45,47,49,51,53,-1,55,57,59,61,63,65,67,69,-1,71,73,75,77,79,81,83,85,87,89,-1,91,-1,93,95,97,-1,-1,-1,-1,-1,-1,-1,-1,-1,-1,-1,-1,-1,-1,-1,-1,-1,-1,-1,-1,-1,-1,-1,-1,-1,-1,-1,-1,-1,-1,-1,-1,-1,-1,-1,-1,-1,-1,-1,-1,-1,-1,-1,-1],"loss_changes":[8.023001E8,4.4398736E7,6.933357E7,1.3557248E7,4.9972595E6,1.8892896E7,9.749184E6,1.263136E6,3.062352E6,9.1288875E5,1.3363715E6,3.917328E6,7.757408E6,5.002288E6,0E0,0E0,3.65352E5,1.645552E6,5.5458E5,9.069985E5,3.1365062E5,6.140459E5,8.367065E5,3.952544E6,2.495346E6,7.564096E6,2.29916E6,3.388528E6,6.597132E6,0E0,2.0216E5,1.354112E6,1.33109E5,2.19959E5,4.51342E5,2.6805178E5,1.3669285E6,1.9990147E5,0E0,4.9577653E5,6.668795E5,9.833745E5,4.731355E5,6.8636E6,5.565344E6,6.19702E5,2.4644562E5,1.4834448E7,8.752832E6,0E0,1.062124E6,0E0,3.135344E6,1.265501E6,2.540148E6,0E0,0E0,0E0,0E0,0E0,0E0,0E0,0E0,0E0,0E0,0E0,0E0,0E0,0E0,0E0,0E0,0E0,0E0,0E0,0E0,0E0,0E0,0E0,0E0,0E0,0E0,0E0,0E0,0E0,0E0,0E0,0E0,0E0,0E0,0E0,0E0,0E0,0E0,0E0,0E0,0E0,0E0,0E0,0E0],"parents":[2147483647,0,0,1,1,2,2,3,3,4,4,5,5,6,6,7,7,8,8,9,9,10,10,11,11,12,12,13,13,16,16,17,17,18,18,19,19,20,20,21,21,22,22,23,23,24,24,25,25,26,26,27,27,28,28,30,30,31,31,32,32,33,33,34,34,35,35,36,36,37,37,39,39,40,40,41,41,42,42,43,43,44,44,45,45,46,46,47,47,48,48,50,50,52,52,53,53,54,54],"right_children":[2,4,6,8,10,12,14,16,18,20,22,24,26,28,-1,-1,30,32,34,36,38,40,42,44,46,48,50,52,54,-1,56,58,60,62,64,66,68,70,-1,72,74,76,78,80,82,84,86,88,90,-1,92,-1,94,96,98,-1,-1,-1,-1,-1,-1,-1,-1,-1,-1,-1,-1,-1,-1,-1,-1,-1,-1,-1,-1,-1,-1,-1,-1,-1,-1,-1,-1,-1,-1,-1,-1,-1,-1,-1,-1,-1,-1,-1,-1,-1,-1,-1,-1],"split_conditions":[2.970439E4,1.1694008E4,5.7248457E4,4.56425E3,1.7998129E4,4.2586918E4,6.4261992E4,1.74861E3,4.5462743E11,8.323865E1,1.7803834E12,8.853839E1,9.292281E1,6.549206E1,9.5595807E2,-2.1988452E2,2.7356548E1,1.0564985E4,7.828271E0,2.9581541E1,8.793272E1,8.541467E0,8.615645E1,1.1764706E-1,9.1641396E1,6.579954E4,8.794326E1,1.2553774E1,7.037605E1,-2.0322069E2,2.1785E3,1.0198248E4,1.1902336E4,2.8785997E1,1.0868899E12,1.606694E1,3.771203E1,9.003821E1,-9.060684E1,4.9382716E-2,2.187504E4,2.9303572E4,2.88149E4,3.1288158E10,4.3491637E4,2.8694863E3,4.2235547E4,5.580596E4,3.8941647E1,5.7661526E1,7.2357726E-1,3.764766E1,6.016619E4,5.721418E4,6.0984883E4,-1.0953661E2,-1.6868063E2,-1.346059E2,-3.941424E1,-2.5197992E2,-5.5923344E1,-1.5640306E2,-5.7591446E1,-9.48955E1,-3.8118347E1,-9.860831E1,1.940181E1,-1.5966327E2,-4.4152393E1,-1.4209571E1,3.667115E1,-1.1546675E2,1.8418024E1,2.0135357E1,7.211659E1,2.1957637E2,-5.1665627E1,1.5933595E1,1.580957E2,2.295549E2,4.759684E1,1.8305855E2,3.2616254E2,4.4598697E2,8.56336E1,1.8110333E2,9.77461E0,3.4833112E2,3.2630936E1,7.6257745E2,1.1615772E2,6.1238324E2,1.23262505E2,7.461853E2,4.9789752E2,-1.2229688E2,1.6501114E2,2.762955E2,6.1940247E2],"split_indices":[3,7,3,2,7,3,3,6,19,17,19,17,18,10,0,0,17,13,17,18,10,18,18,20,18,14,17,18,10,0,2,3,1,18,19,18,17,17,0,20,7,2,3,5,14,16,1,8,17,0,20,0,9,0,14,0,0,0,0,0,0,0,0,0,0,0,0,0,0,0,0,0,0,0,0,0,0,0,0,0,0,0,0,0,0,0,0,0,0,0,0,0,0,0,0,0,0,0,0],"split_type":[0,0,0,0,0,0,0,0,0,0,0,0,0,0,0,0,0,0,0,0,0,0,0,0,0,0,0,0,0,0,0,0,0,0,0,0,0,0,0,0,0,0,0,0,0,0,0,0,0,0,0,0,0,0,0,0,0,0,0,0,0,0,0,0,0,0,0,0,0,0,0,0,0,0,0,0,0,0,0,0,0,0,0,0,0,0,0,0,0,0,0,0,0,0,0,0,0,0,0],"sum_hessian":[1.77E3,1.306E3,4.64E2,1.106E3,2E2,3.93E2,7.1E1,3.46E2,7.6E2,8.2E1,1.18E2,2.07E2,1.86E2,6.3E1,8E0,1.04E2,2.42E2,3.98E2,3.62E2,5.4E1,2.8E1,9.9E1,1.9E1,1.87E2,2E1,1.69E2,1.7E1,4.3E1,2E1,5.6E1,1.86E2,3.85E2,1.3E1,2.4E1,3.38E2,1.3E1,4.1E1,2.6E1,2E0,9E0,9E1,9E0,1E1,7.8E1,1.09E2,1.4E1,6E0,1.59E2,1E1,1E0,1.6E1,1E0,4.2E1,6E0,1.4E1,1.3E1,1.73E2,3.7E2,1.5E1,1.2E1,1E0,2E1,4E0,3.23E2,1.5E1,1E0,1.2E1,1.4E1,2.7E1,1.3E1,1.3E1,3E0,6E0,4.6E1,4.4E1,8E0,1E0,8E0,2E0,4.6E1,3.2E1,6E1,4.9E1,1.3E1,1E0,5E0,1E0,1.44E2,1.5E1,7E0,3E0,1.5E1,1E0,2.1E1,2.1E1,1E0,5E0,6E0,8E0],"tree_param":{"num_deleted":"0","num_feature":"21","num_nodes":"99","size_leaf_vector":"1"}},{"base_weights":[1.3194371E1,-2.6666632E2,8.328901E2,-3.1810086E2,1.0854375E2,5.9859973E2,1.1758875E3,-4.1799045E2,-2.4438435E2,6.811092E1,3.729272E2,5.0365433E2,9.1564795E2,1.1056353E3,2.4034424E3,-4.8009335E2,-3.593357E2,-2.6741092E2,-1.42663E2,8.728753E1,-3.087143E2,1.3432602E2,6.7613696E2,5.2547064E2,-7.512549E2,9.573419E2,7.716211E1,7.617519E2,1.1961191E3,1.5090352E2,7.734359E2,-1.8578099E2,-1.3751424E2,-3.9574826E2,-3.1308914E2,-3.571566E2,-2.477147E2,-1.6503012E2,1.0457434E1,3.2353264E1,1.5871255E2,-4.328957E2,1.1595052E0,1.7115323E2,-4.548242E1,8.111038E2,1.3583528E2,5.710748E2,1.3580774E2,-3.5415118E2,8.047383E1,9.9504755E2,3.6619376E2,1.2170414E3,3.9211395E2,9.7242944E2,1.3872092E3,1.8196217E1,-1.1984043E2,-8.508885E1,-1.1245406E2,-9.902969E1,-4.391447E2,-7.1316124E1,-1.1013169E2,-5.173354E1,9.648091E1,-4.465459E1,1.656795E1,1.4834837E1,-8.76044E1,-8.08399E1,5.6090145E1,-3.7029007E1,-1.7941885E2,-2.4045412E1,2.4567188E1,7.082905E1,1.3800469E1,-2.3906837E1,3.4397461E0,5.911553E1,2.6418115E2,1.191211E0,5.993467E1,1.7895154E2,-1.9840065E1,2.2370795E2,-5.328688E1,2.5835504E2,3.8302734E2,3.1995314E1,1.5110156E2,4.0328165E2,1.402421E2,-1.6649532E2,1.8621384E2,3.093326E2,-4.2625723E2,4.3019342E2,2.2642651E2],"categories":[],"categories_nodes":[],"categories_segments":[],"categories_sizes":[],"default_left":[0,0,0,0,0,0,0,0,0,0,0,0,0,0,0,0,0,0,0,0,0,0,0,0,0,0,0,0,0,0,0,0,0,0,0,0,0,0,0,0,0,0,0,0,0,0,0,0,0,0,0,0,0,0,0,0,0,0,0,0,0,0,0,0,0,0,0,0,0,0,0,0,0,0,0,0,0,0,0,0,0,0,0,0,0,0,0,0,0,0,0,0,0,0,0,0,0,0,0,0,0],"id":10,"left_children":[1,3,5,7,9,11,13,15,17,19,21,23,25,27,29,31,33,35,37,39,41,43,45,47,49,51,-1,53,55,-1,-1,-1,-1,57,59,61,63,65,67,69,71,73,75,77,79,81,83,85,87,-1,-1,89,91,93,95,97,99,-1,-1,-1,-1,-1,-1,-1,-1,-1,-1,-1,-1,-1,-1,-1,-1,-1,-1,-1,-1,-1,-1,-1,-1,-1,-1,-1,-1,-1,-1,-1,-1,-1,-1,-1,-1,-1,-1,-1,-1,-1,-1,-1,-1],"loss_changes":[4.064906E8,2.5528184E7,3.553891E7,8.454256E6,1.6849626E6,7.666448E6,1.3038064E7,1.619664E6,1.533532E6,1.03861906E6,1.4284472E6,6.14404E6,1.428396E6,4.503008E6,1.690832E6,4.29304E5,3.08872E5,8.7666E5,4.332585E5,5.2063844E5,2.6986588E5,9.386841E4,5.4612875E5,3.600892E6,2.0671445E6,9.06128E5,0E0,6.08618E6,4.464352E6,0E0,0E0,0E0,0E0,2.61912E5,1.08368E5,2.391378E6,4.50878E5,4.5238175E5,1.294641E5,4.4144012E5,7.520666E5,1.8174888E5,2.62566E4,7.854497E4,6.7577964E3,1.25212E5,2.450373E4,3.03726E6,4.5290585E6,0E0,0E0,8.99156E5,1.2469006E5,9.92844E5,5.324114E6,1.0733832E7,1.017824E6,0E0,0E0,0E0,0E0,0E0,0E0,0E0,0E0,0E0,0E0,0E0,0E0,0E0,0E0,0E0,0E0,0E0,0E0,0E0,0E0,0E0,0E0,0E0,0E0,0E0,0E0,0E0,0E0,0E0,0E0,0E0,0E0,0E0,0E0,0E0,0E0,0E0,0E0,0E0,0E0,0E0,0E0,0E0,0E0],"parents":[2147483647,0,0,1,1,2,2,3,3,4,4,5,5,6,6,7,7,8,8,9,9,10,10,11,11,12,12,13,13,14,14,15,15,16,16,17,17,18,18,19,19,20,20,21,21,22,22,23,23,24,24,25,25,27,27,28,28,33,33,34,34,35,35,36,36,37,37,38,38,39,39,40,40,41,41,42,42,43,43,44,44,45,45,46,46,47,47,48,48,51,51,52,52,53,53,54,54,55,55,56,56],"right_children":[2,4,6,8,10,12,14,16,18,20,22,24,26,28,30,32,34,36,38,40,42,44,46,48,50,52,-1,54,56,-1,-1,-1,-1,58,60,62,64,66,68,70,72,74,76,78,80,82,84,86,88,-1,-1,90,92,94,96,98,100,-1,-1,-1,-1,-1,-1,-1,-1,-1,-1,-1,-1,-1,-1,-1,-1,-1,-1,-1,-1,-1,-1,-1,-1,-1,-1,-1,-1,-1,-1,-1,-1,-1,-1,-1,-1,-1,-1,-1,-1,-1,-1,-1,-1],"split_conditions":[3.0395504E4,1.8982258E4,4.711614E4,6.44531E3,8.917987E1,8.186146E1,6.344745E4,3.6591746E3,7.797321E11,2.1464568E3,2.0405531E4,4.7261406E4,2.4709222E12,2.6830889E1,1.6850132E3,1.00445E3,6.1848415E1,1.7786575E1,7.4E-1,2.2576305E4,2.777778E-1,9.1508995E1,9.506019E1,7.022004E1,4.813747E4,9.468247E1,7.716211E1,1.9727833E12,6.0984883E4,1.5090352E2,7.734359E2,-1.8578099E2,-1.3751424E2,1.48228E9,5.347646E3,1.7535213E1,1.13543E4,1.1491415E3,2.4999077E1,2.1362441E4,2.2348602E4,1.0055985E4,1.9144492E4,9.537759E1,1.9144492E4,1.6497592E12,2.6280822E4,4.8013996E4,1.7109043E3,-3.5415118E2,8.047383E1,3.6499547E4,9.540917E1,4.6896906E10,-2.4542072E2,5.7083176E4,2.4291254E12,1.8196217E1,-1.1984043E2,-8.508885E1,-1.1245406E2,-9.902969E1,-4.391447E2,-7.1316124E1,-1.1013169E2,-5.173354E1,9.648091E1,-4.465459E1,1.656795E1,1.4834837E1,-8.76044E1,-8.08399E1,5.6090145E1,-3.7029007E1,-1.7941885E2,-2.4045412E1,2.4567188E1,7.082905E1,1.3800469E1,-2.3906837E1,3.4397461E0,5.911553E1,2.6418115E2,1.191211E0,5.993467E1,1.7895154E2,-1.9840065E1,2.2370795E2,-5.328688E1,2.5835504E2,3.8302734E2,3.1995314E1,1.5110156E2,4.0328165E2,1.402421E2,-1.6649532E2,1.8621384E2,3.093326E2,-4.2625723E2,4.3019342E2,2.2642651E2],"split_indices":[6,14,6,2,17,17,8,2,19,12,13,0,19,17,11,3,17,17,20,0,20,18,18,17,0,18,0,19,14,0,0,0,0,5,2,17,0,16,17,2,8,15,0,17,0,19,0,7,16,0,0,15,18,5,12,6,19,0,0,0,0,0,0,0,0,0,0,0,0,0,0,0,0,0,0,0,0,0,0,0,0,0,0,0,0,0,0,0,0,0,0,0,0,0,0,0,0,0,0,0,0],"split_type":[0,0,0,0,0,0,0,0,0,0,0,0,0,0,0,0,0,0,0,0,0,0,0,0,0,0,0,0,0,0,0,0,0,0,0,0,0,0,0,0,0,0,0,0,0,0,0,0,0,0,0,0,0,0,0,0,0,0,0,0,0,0,0,0,0,0,0,0,0,0,0,0,0,0,0,0,0,0,0,0,0,0,0,0,0,0,0,0,0,0,0,0,0,0,0,0,0,0,0,0,0],"sum_hessian":[1.77E3,1.32E3,4.5E2,1.161E3,1.59E2,2.69E2,1.81E2,4.91E2,6.7E2,1.39E2,2E1,2.09E2,6E1,1.73E2,8E0,2.35E2,2.56E2,5.45E2,1.25E2,1.33E2,6E0,1.2E1,8E0,2.06E2,3E0,5.6E1,4E0,3.8E1,1.35E2,1E0,7E0,2.8E1,2.07E2,1.39E2,1.17E2,9.5E1,4.5E2,1.09E2,1.6E1,7.6E1,5.7E1,4E0,2E0,1E1,2E0,6E0,2E0,1.84E2,2.2E1,2E0,1E0,5.2E1,4E0,1.6E1,2.2E1,6.5E1,7E1,1E0,1.38E2,8.3E1,3.4E1,9.4E1,1E0,4.18E2,3.2E1,1.08E2,1E0,3E0,1.3E1,7.3E1,3E0,3E0,5.4E1,2E0,2E0,1E0,1E0,6E0,4E0,1E0,1E0,1E0,5E0,1E0,1E0,1.77E2,7E0,7E0,1.5E1,3.8E1,1.4E1,2E0,2E0,1.3E1,3E0,4E0,1.8E1,6.4E1,1E0,6.4E1,6E0],"tree_param":{"num_deleted":"0","num_feature":"21","num_nodes":"101","size_leaf_vector":"1"}},{"base_weights":[1.0249154E1,-1.8975407E2,5.8403516E2,-2.3135153E2,3.2544693E1,4.8985217E2,1.0821571E3,-3.3426114E2,-2.0000122E2,-4.2057423E1,1.16710915E2,3.7659894E2,6.1800116E2,9.6639526E2,1.7851128E3,-1.2406243E2,-3.1359634E2,-2.3338777E2,-1.5740544E2,-1.0342517E2,4.625534E0,7.145637E1,3.8313422E2,3.1787448E2,7.4276074E2,7.4320654E2,4.1063266E2,1.3597576E3,7.566906E2,9.251813E2,6.864066E2,-2.7866205E2,-3.4161404E2,-2.2608769E2,-5.502328E2,-1.6171434E2,6.1556763E1,6.3713264E1,-2.2508524E2,2.4586687E2,-1.9985882E1,9.191252E1,-8.226739E1,1.8927246E1,4.807427E2,-1.00880745E2,3.5909244E2,9.3840857E2,2.2545877E2,5.953687E2,1.4739595E3,6.718313E2,-8.6398125E1,-9.820899E0,1.4310192E3,9.4776337E2,1.2266797E1,3.048841E2,8.4117775E1,-9.20671E1,-4.596818E1,-1.1898989E2,-8.801974E1,-6.922757E1,3.3946037E1,-2.0576546E2,-8.3221115E1,-4.5573563E1,-8.727356E1,7.341543E1,-1.2085011E1,4.0682545E1,-1.4164389E1,-1.2824414E2,-2.0693316E1,2.9401466E1,1.0831817E2,4.7366383E1,-1.4090022E1,-6.928164E1,3.485742E1,1.9154884E1,-5.1990237E0,4.8812843E1,1.7389996E2,-8.698008E1,8.821153E1,1.15500206E2,-2.4295547E1,-3.3591797E0,2.9669318E2,-9.833126E1,1.2910464E2,2.5443536E2,1.3341959E2,4.7446567E2,-5.3267582E1,8.6797134E1,2.9446942E2,-1.6662102E2,7.8989685E1,5.1840237E1,4.4644394E2,-1.3657324E2,3.0072537E2,-2.9200195E2,1.14100784E2],"categories":[],"categories_nodes":[],"categories_segments":[],"categories_sizes":[],"default_left":[0,0,0,0,0,0,0,0,0,0,0,0,0,0,0,0,0,0,0,0,0,0,0,0,0,0,0,0,0,0,0,0,0,0,0,0,0,0,0,0,0,0,0,0,0,0,0,0,0,0,0,0,0,0,0,0,0,0,0,0,0,0,0,0,0,0,0,0,0,0,0,0,0,0,0,0,0,0,0,0,0,0,0,0,0,0,0,0,0,0,0,0,0,0,0,0,0,0,0,0,0,0,0,0,0,0,0],"id":11,"left_children":[1,3,5,7,9,11,13,15,17,19,21,23,25,27,29,-1,31,33,35,37,39,41,43,45,47,49,51,53,55,57,-1,59,61,63,65,67,69,71,73,75,77,79,-1,81,83,85,87,89,91,93,95,97,99,-1,101,103,105,-1,-1,-1,-1,-1,-1,-1,-1,-1,-1,-1,-1,-1,-1,-1,-1,-1,-1,-1,-1,-1,-1,-1,-1,-1,-1,-1,-1,-1,-1,-1,-1,-1,-1,-1,-1,-1,-1,-1,-1,-1,-1,-1,-1,-1,-1,-1,-1,-1,-1],"loss_changes":[2.0334912E8,1.2158168E7,2.09568E7,3.504608E6,1.3109361E6,5.383904E6,4.133912E6,2.9136E5,1.173496E6,3.1847428E5,1.1541955E6,4.236448E6,4.368272E6,4.250436E6,1.77537E6,0E0,1.0839E5,9.74268E5,3.65649E5,9.903765E5,3.8490047E5,6.262655E5,4.8859688E5,3.160328E6,2.62228E6,1.1114104E7,9.145708E6,2.130704E6,6.246894E6,8.741E3,0E0,2.99976E5,1.7808E5,7.64512E5,1.79831E5,4.24395E5,1.5908348E5,1.7388156E5,8.5518525E5,6.681091E4,2.9056762E5,6.617492E5,0E0,7.6215776E3,2.5175425E5,1.3544816E6,1.91245E6,9.71476E5,1.1612166E6,3.201708E6,3.47926E6,5.165876E6,4.2464815E6,0E0,1.180416E6,3.140168E6,3.9979098E6,0E0,0E0,0E0,0E0,0E0,0E0,0E0,0E0,0E0,0E0,0E0,0E0,0E0,0E0,0E0,0E0,0E0,0E0,0E0,0E0,0E0,0E0,0E0,0E0,0E0,0E0,0E0,0E0,0E0,0E0,0E0,0E0,0E0,0E0,0E0,0E0,0E0,0E0,0E0,0E0,0E0,0E0,0E0,0E0,0E0,0E0,0E0,0E0,0E0,0E0],"parents":[2147483647,0,0,1,1,2,2,3,3,4,4,5,5,6,6,7,7,8,8,9,9,10,10,11,11,12,12,13,13,14,14,16,16,17,17,18,18,19,19,20,20,21,21,22,22,23,23,24,24,25,25,26,26,27,27,28,28,29,29,31,31,32,32,33,33,34,34,35,35,36,36,37,37,38,38,39,39,40,40,41,41,43,43,44,44,45,45,46,46,47,47,48,48,49,49,50,50,51,51,52,52,54,54,55,55,56,56],"right_children":[2,4,6,8,10,12,14,16,18,20,22,24,26,28,30,-1,32,34,36,38,40,42,44,46,48,50,52,54,56,58,-1,60,62,64,66,68,70,72,74,76,78,80,-1,82,84,86,88,90,92,94,96,98,100,-1,102,104,106,-1,-1,-1,-1,-1,-1,-1,-1,-1,-1,-1,-1,-1,-1,-1,-1,-1,-1,-1,-1,-1,-1,-1,-1,-1,-1,-1,-1,-1,-1,-1,-1,-1,-1,-1,-1,-1,-1,-1,-1,-1,-1,-1,-1,-1,-1,-1,-1,-1,-1],"split_conditions":[3.0208639E4,1.1694008E4,5.7248457E4,3.896375E3,2.0632672E4,4.8804664E4,6.344745E4,1.1153E3,4.3298207E11,4.9023605E1,8.917987E1,9.211983E1,4.9011195E4,1.4643198E3,2.5938367E3,-1.2406243E2,2.60872E3,1.0702561E4,9.925758E1,3.0326193E1,5.0653652E1,1.8508009E12,1.6638834E4,1.151947E1,2.1650566E3,4.862015E4,4.5505737E1,2.6246662E10,5.8238472E10,2.0856658E3,6.864066E2,1.6504211E2,3.597918E3,8.7481976E2,8.31069E9,6.5375116E2,2.4967782E10,3.253913E1,3.771203E1,1.28892E4,1.4601632E10,8.541467E0,-8.226739E1,3.861931E10,2.061529E4,3.2111782E1,3.815504E4,4.973878E1,1.9983123E12,4.4802363E4,5.140145E4,4.9382716E-2,3.207644E3,-9.820899E0,5.422389E4,9.218348E2,7.041933E1,3.048841E2,8.4117775E1,-9.20671E1,-4.596818E1,-1.1898989E2,-8.801974E1,-6.922757E1,3.3946037E1,-2.0576546E2,-8.3221115E1,-4.5573563E1,-8.727356E1,7.341543E1,-1.2085011E1,4.0682545E1,-1.4164389E1,-1.2824414E2,-2.0693316E1,2.9401466E1,1.0831817E2,4.7366383E1,-1.4090022E1,-6.928164E1,3.485742E1,1.9154884E1,-5.1990237E0,4.8812843E1,1.7389996E2,-8.698008E1,8.821153E1,1.15500206E2,-2.4295547E1,-3.3591797E0,2.9669318E2,-9.833126E1,1.2910464E2,2.5443536E2,1.3341959E2,4.7446567E2,-5.3267582E1,8.6797134E1,2.9446942E2,-1.6662102E2,7.8989685E1,5.1840237E1,4.4644394E2,-1.3657324E2,3.0072537E2,-2.9200195E2,1.14100784E2],"split_indices":[6,7,3,3,1,14,8,3,19,10,17,17,7,12,16,0,3,13,17,18,10,19,15,18,11,8,10,5,5,12,0,16,1,11,5,11,5,10,17,0,5,18,0,5,6,10,15,10,19,13,6,20,16,0,7,11,18,0,0,0,0,0,0,0,0,0,0,0,0,0,0,0,0,0,0,0,0,0,0,0,0,0,0,0,0,0,0,0,0,0,0,0,0,0,0,0,0,0,0,0,0,0,0,0,0,0,0],"split_type":[0,0,0,0,0,0,0,0,0,0,0,0,0,0,0,0,0,0,0,0,0,0,0,0,0,0,0,0,0,0,0,0,0,0,0,0,0,0,0,0,0,0,0,0,0,0,0,0,0,0,0,0,0,0,0,0,0,0,0,0,0,0,0,0,0,0,0,0,0,0,0,0,0,0,0,0,0,0,0,0,0,0,0,0,0,0,0,0,0,0,0,0,0,0,0,0,0,0,0,0,0,0,0,0,0,0,0],"sum_hessian":[1.77E3,1.313E3,4.57E2,1.106E3,2.07E2,3.86E2,7.1E1,2.56E2,8.5E2,1.1E2,9.7E1,2.07E2,1.79E2,6.3E1,8E0,4.9E1,2.07E2,4.74E2,3.76E2,4.7E1,6.3E1,8.4E1,1.3E1,1.8E2,2.7E1,1.1E2,6.9E1,2E1,4.3E1,4E0,4E0,9.7E1,1.1E2,4.65E2,9E0,3.69E2,7E0,2E1,2.7E1,5E0,5.8E1,8E1,4E0,3E0,1E1,1.6E1,1.64E2,1.9E1,8E0,9.3E1,1.7E1,4.5E1,2.4E1,1E0,1.9E1,3.4E1,9E0,3E0,1E0,7.8E1,1.9E1,4.8E1,6.2E1,4.59E2,6E0,5E0,4E0,3.45E2,2.4E1,2E0,5E0,1.2E1,8E0,1.1E1,1.6E1,3E0,2E0,7E0,5.1E1,5E0,7.5E1,1E0,2E0,3E0,7E0,1.1E1,5E0,1.55E2,9E0,1E0,1.8E1,2E0,6E0,3.3E1,6E1,1.6E1,1E0,2.1E1,2.4E1,1E1,1.4E1,1E0,1.8E1,1E0,3.3E1,2E0,7E0],"tree_param":{"num_deleted":"0","num_feature":"21","num_nodes":"107","size_leaf_vector":"1"}},{"base_weights":[8.514417E0,-1.3224379E2,4.2078287E2,-1.6961241E2,6.060258E-1,3.2241507E2,6.8942725E2,-2.0881883E2,-1.3053244E2,-5.342157E1,7.1780426E1,2.917187E2,5.745609E2,1.2045493E3,6.0436646E2,-2.2921495E2,-1.574537E2,-1.2467138E2,-3.330442E2,1.04670265E2,-6.2966774E1,3.4888233E1,2.1942938E2,3.3360043E2,1.16408005E2,7.0523035E2,1.7736446E2,1.5250553E3,-1.3823242E2,-2.2791193E0,7.56055E2,-1.02489006E2,-2.213593E2,-1.6550056E2,2.9425432E1,-1.3998901E2,-7.077225E1,-4.581894E2,-1.6144922E1,-9.0365845E1,6.151465E1,4.351545E1,-1.2546915E2,4.3028973E1,3.549562E2,2.6493015E2,6.252843E2,-6.18879E1,4.190824E2,-2.8552735E0,7.342009E2,-6.834635E1,2.4733545E2,1.6698662E3,-3.190137E1,1.7169649E2,-3.404842E2,-8.8020245E2,3.0771024E2,3.9892087E2,9.0927167E2,-6.5578835E1,-1.387732E2,-5.0590702E1,1.1104932E1,3.079008E1,-3.0718994E1,-3.9247776E1,-6.899297E1,-2.819978E1,1.2928397E1,-2.1985548E1,-1.4784413E2,3.877368E1,-2.5441187E1,-2.3656387E1,-1.1147537E2,5.595209E1,4.609354E0,8.073106E1,7.930535E0,-9.661775E0,3.7089455E1,1.5129112E2,4.0069588E1,9.026605E1,-9.3444E1,4.2723885E1,2.4510011E2,8.724051E1,-9.9482315E1,2.1464153E2,-2.4396095E0,2.5209377E2,1.2110245E2,1.0238672E1,-4.0994534E1,1.0759571E2,1.3906641E1,9.017754E1,5.301058E2,-3.8053546E2,1.5915645E2,1.7975266E2,-9.795157E1,2.8627286E2,-3.268586E1,1.8142561E2,3.2357053E2],"categories":[],"categories_nodes":[],"categories_segments":[],"categories_sizes":[],"default_left":[0,0,0,0,0,0,0,0,0,0,0,0,0,0,0,0,0,0,0,0,0,0,0,0,0,0,0,0,0,0,0,0,0,0,0,0,0,0,0,0,0,0,0,0,0,0,0,0,0,0,0,0,0,0,0,0,0,0,0,0,0,0,0,0,0,0,0,0,0,0,0,0,0,0,0,0,0,0,0,0,0,0,0,0,0,0,0,0,0,0,0,0,0,0,0,0,0,0,0,0,0,0,0,0,0,0,0,0,0],"id":12,"left_children":[1,3,5,7,9,11,13,15,17,19,21,23,25,27,29,31,33,35,37,-1,39,41,43,45,47,49,51,53,55,57,59,-1,61,63,65,67,69,71,73,75,77,79,-1,81,83,85,87,89,91,-1,93,95,97,99,-1,-1,-1,101,103,105,107,-1,-1,-1,-1,-1,-1,-1,-1,-1,-1,-1,-1,-1,-1,-1,-1,-1,-1,-1,-1,-1,-1,-1,-1,-1,-1,-1,-1,-1,-1,-1,-1,-1,-1,-1,-1,-1,-1,-1,-1,-1,-1,-1,-1,-1,-1,-1,-1],"loss_changes":[1.0282707E8,6.558094E6,1.1695824E7,1.552426E6,1.1228408E6,2.40206E6,4.530012E6,5.01352E5,5.74497E5,6.594507E5,6.786783E5,2.149174E6,1.691466E6,7.096726E6,9.663948E6,2.46708E5,2.289345E5,4.0785E5,5.4782075E5,0E0,5.614988E5,4.1693325E5,5.8240125E5,4.641546E6,3.2099068E6,5.45361E5,1.8883075E5,3.248736E6,3.4824338E6,6.258079E6,4.23366E6,0E0,1.28168E5,9.7035E4,7.80625E4,2.939665E5,3.055567E5,9.71545E4,6.0872402E4,4.0447988E5,1.7018675E5,3.820513E5,0E0,7.675114E4,3.9554112E5,4.15598E6,4.049488E6,3.7112718E6,2.7914985E6,0E0,5.37604E5,2.5661484E4,1.6235422E5,1.065198E6,0E0,0E0,0E0,3.9592145E6,3.3381135E6,7.71887E6,2.33788E6,0E0,0E0,0E0,0E0,0E0,0E0,0E0,0E0,0E0,0E0,0E0,0E0,0E0,0E0,0E0,0E0,0E0,0E0,0E0,0E0,0E0,0E0,0E0,0E0,0E0,0E0,0E0,0E0,0E0,0E0,0E0,0E0,0E0,0E0,0E0,0E0,0E0,0E0,0E0,0E0,0E0,0E0,0E0,0E0,0E0,0E0,0E0,0E0],"parents":[2147483647,0,0,1,1,2,2,3,3,4,4,5,5,6,6,7,7,8,8,9,9,10,10,11,11,12,12,13,13,14,14,15,15,16,16,17,17,18,18,20,20,21,21,22,22,23,23,24,24,25,25,26,26,27,27,28,28,29,29,30,30,32,32,33,33,34,34,35,35,36,36,37,37,38,38,39,39,40,40,41,41,43,43,44,44,45,45,46,46,47,47,48,48,50,50,51,51,52,52,53,53,57,57,58,58,59,59,60,60],"right_children":[2,4,6,8,10,12,14,16,18,20,22,24,26,28,30,32,34,36,38,-1,40,42,44,46,48,50,52,54,56,58,60,-1,62,64,66,68,70,72,74,76,78,80,-1,82,84,86,88,90,92,-1,94,96,98,100,-1,-1,-1,102,104,106,108,-1,-1,-1,-1,-1,-1,-1,-1,-1,-1,-1,-1,-1,-1,-1,-1,-1,-1,-1,-1,-1,-1,-1,-1,-1,-1,-1,-1,-1,-1,-1,-1,-1,-1,-1,-1,-1,-1,-1,-1,-1,-1,-1,-1,-1,-1,-1,-1],"split_conditions":[3.0817625E4,1.079334E4,5.078454E4,6.62248E3,1.9144492E4,9.211983E1,5.5397945E4,1.7896278E11,1.2979478E4,9.93909E3,8.160802E1,5.1146162E10,8.180035E1,1.9027065E3,5.762788E4,9.66725E2,2.8422778E2,5.4545456E-1,1.1005253E3,1.04670265E2,9.13701E1,3.281574E4,2.054918E4,4.7859273E4,4.846656E1,4.973878E1,1.6018755E3,6.8564705E10,5.105368E4,2.0228402E12,4.856343E4,-1.02489006E2,4.616822E2,1.0827242E4,5.205822E3,7.5522644E1,1.0588632E4,9.029774E2,7.679419E3,9.2099304E1,1.5713967E10,1.8283315E10,-1.2546915E2,8.970972E1,8.615645E1,1.9667614E12,2.8546144E10,2.663788E1,7.038886E10,-2.8552735E0,6.296296E-1,4.0617723E4,3.8251287E3,4.758022E4,-3.190137E1,1.7169649E2,-3.404842E2,5.6620273E4,5.65957E4,1.4634146E-1,4.884763E1,-6.5578835E1,-1.387732E2,-5.0590702E1,1.1104932E1,3.079008E1,-3.0718994E1,-3.9247776E1,-6.899297E1,-2.819978E1,1.2928397E1,-2.1985548E1,-1.4784413E2,3.877368E1,-2.5441187E1,-2.3656387E1,-1.1147537E2,5.595209E1,4.609354E0,8.073106E1,7.930535E0,-9.661775E0,3.7089455E1,1.5129112E2,4.0069588E1,9.026605E1,-9.3444E1,4.2723885E1,2.4510011E2,8.724051E1,-9.9482315E1,2.1464153E2,-2.4396095E0,2.5209377E2,1.2110245E2,1.0238672E1,-4.0994534E1,1.0759571E2,1.3906641E1,9.017754E1,5.301058E2,-3.8053546E2,1.5915645E2,1.7975266E2,-9.795157E1,2.8627286E2,-3.268586E1,1.8142561E2,3.2357053E2],"split_indices":[0,3,3,3,0,17,1,19,14,2,17,5,10,11,1,3,12,20,16,0,17,6,7,7,17,10,11,5,2,19,15,0,12,14,1,10,14,16,0,18,5,5,0,17,18,19,5,18,5,0,20,1,11,6,0,0,0,0,6,20,17,0,0,0,0,0,0,0,0,0,0,0,0,0,0,0,0,0,0,0,0,0,0,0,0,0,0,0,0,0,0,0,0,0,0,0,0,0,0,0,0,0,0,0,0,0,0,0,0],"split_type":[0,0,0,0,0,0,0,0,0,0,0,0,0,0,0,0,0,0,0,0,0,0,0,0,0,0,0,0,0,0,0,0,0,0,0,0,0,0,0,0,0,0,0,0,0,0,0,0,0,0,0,0,0,0,0,0,0,0,0,0,0,0,0,0,0,0,0,0,0,0,0,0,0,0,0,0,0,0,0,0,0,0,0,0,0,0,0,0,0,0,0,0,0,0,0,0,0,0,0,0,0,0,0,0,0,0,0,0,0],"sum_hessian":[1.77E3,1.32E3,4.5E2,1.03E3,2.9E2,3.31E2,1.19E2,5.12E2,5.18E2,1.65E2,1.25E2,2.97E2,3.4E1,1.5E1,1.04E2,3.64E2,1.48E2,5.05E2,1.3E1,3E0,1.62E2,1.01E2,2.4E1,2.39E2,5.8E1,2.5E1,9E0,1.2E1,3E0,2.1E1,8.3E1,2.1E1,3.43E2,1.42E2,6E0,3.92E2,1.13E2,9E0,4E0,1.33E2,2.9E1,1E2,1E0,1.1E1,1.3E1,1.95E2,4.4E1,3.7E1,2.1E1,1E0,2.4E1,2E0,7E0,1.1E1,1E0,2E0,1E0,5E0,1.6E1,2.6E1,5.7E1,3.41E2,2E0,1.4E2,2E0,4E0,2E0,3.58E2,3.4E1,9.4E1,1.9E1,1E0,8E0,1E0,3E0,1.29E2,4E0,7E0,2.2E1,6E0,9.4E1,6E0,5E0,7E0,6E0,1.84E2,1.1E1,1.3E1,3.1E1,1.6E1,2.1E1,1.2E1,9E0,1.7E1,7E0,1E0,1E0,4E0,3E0,1E0,1E1,4E0,1E0,1.1E1,5E0,1.2E1,1.4E1,2.2E1,3.5E1],"tree_param":{"num_deleted":"0","num_feature":"21","num_nodes":"109","size_leaf_vector":"1"}},{"base_weights":[6.8467517E0,-9.3064255E1,2.9947556E2,-1.15167305E2,2.50877E1,2.5962097E2,7.383994E2,-1.3735E2,-7.319833E1,4.957545E0,1.1853172E2,1.6401976E2,3.4951495E2,2.6952344E2,9.526789E2,-1.3250314E2,-3.0206134E2,-5.6287327E1,-1.7214932E2,1.6332876E1,-1.4392003E2,1.5909117E2,-7.6756935E1,2.5182141E2,-5.454393E1,3.3605753E2,1.179517E3,5.349247E2,-3.4381138E1,1.0616262E3,-2.0014323E2,-1.6793494E2,-1.1206404E2,-8.274549E2,-1.9771454E2,-6.429658E1,8.700168E1,-2.5681E2,-1.8819149E1,3.8504646E0,2.1566641E2,2.327222E2,3.728097E1,2.8658694E2,-9.395536E1,-5.8649023E2,9.375066E1,1.8789197E2,4.25106E2,4.5285062E2,7.793204E1,7.3915076E2,1.6239584E1,8.6813675E1,-1.3657097E2,2.030791E2,1.1802543E3,-1.4330098E2,5.3236526E1,-6.42227E1,-4.5650017E1,-8.727978E1,-3.220771E1,-1.5352955E1,-3.5700177E2,-9.2430176E1,-2.3578697E1,-1.6527294E1,-7.342076E1,5.892651E1,-2.2297815E1,-1.3055972E2,-4.827326E1,2.286859E1,-1.0146534E2,-3.968875E0,3.371E1,8.691296E1,-6.7608696E1,1.15278984E2,2.611333E1,3.9201138E1,-6.865811E1,6.9630647E0,1.0529096E2,-7.125508E1,1.5348282E2,1.155772E2,-2.7496207E2,2.5228828E2,7.1075287E0,2.726289E2,3.855265E1,-6.516739E1,1.356958E2,5.5321877E1,2.4952061E2,4.2869534E1,-3.556172E1,-7.571338E1,1.9008595E1,3.851725E2,-1.7555002E2,4.0342186E1,3.8669443E2],"categories":[],"categories_nodes":[],"categories_segments":[],"categories_sizes":[],"default_left":[0,0,0,0,0,0,0,0,0,0,0,0,0,0,0,0,0,0,0,0,0,0,0,0,0,0,0,0,0,0,0,0,0,0,0,0,0,0,0,0,0,0,0,0,0,0,0,0,0,0,0,0,0,0,0,0,0,0,0,0,0,0,0,0,0,0,0,0,0,0,0,0,0,0,0,0,0,0,0,0,0,0,0,0,0,0,0,0,0,0,0,0,0,0,0,0,0,0,0,0,0,0,0,0,0],"id":13,"left_children":[1,3,5,7,9,11,13,15,17,19,21,23,25,27,29,31,33,35,37,39,-1,41,-1,43,45,47,49,51,53,55,57,59,61,63,65,67,69,71,73,75,77,79,81,83,85,87,89,91,93,-1,-1,95,97,-1,99,101,103,-1,-1,-1,-1,-1,-1,-1,-1,-1,-1,-1,-1,-1,-1,-1,-1,-1,-1,-1,-1,-1,-1,-1,-1,-1,-1,-1,-1,-1,-1,-1,-1,-1,-1,-1,-1,-1,-1,-1,-1,-1,-1,-1,-1,-1,-1,-1,-1],"loss_changes":[5.1806308E7,3.452705E6,7.6977E6,1.026131E6,3.9255028E5,3.509172E6,3.46064E6,5.40366E5,6.379009E5,9.616744E5,6.025485E5,3.909356E6,1.98276E6,1.0669278E6,3.352398E6,4.93908E5,9.328625E5,3.8660962E5,7.221049E5,4.221573E5,0E0,2.962703E5,0E0,1.769989E6,4.709185E6,2.704042E6,5.1837625E5,7.295E5,2.7111562E5,2.102814E6,3.9914575E5,1.54407E5,3.4916E5,7.834211E5,2.1246775E5,5.0974875E5,3.3234394E5,5.45837E5,6.633026E5,2.998939E5,3.918425E5,4.301515E5,3.778725E5,2.230171E6,1.3386175E6,4.5225325E6,2.4404668E6,3.35063E6,2.388128E6,0E0,0E0,1.034265E5,6.815177E4,0E0,1.5491294E5,4.159136E6,2.100756E6,0E0,0E0,0E0,0E0,0E0,0E0,0E0,0E0,0E0,0E0,0E0,0E0,0E0,0E0,0E0,0E0,0E0,0E0,0E0,0E0,0E0,0E0,0E0,0E0,0E0,0E0,0E0,0E0,0E0,0E0,0E0,0E0,0E0,0E0,0E0,0E0,0E0,0E0,0E0,0E0,0E0,0E0,0E0,0E0,0E0,0E0,0E0,0E0],"parents":[2147483647,0,0,1,1,2,2,3,3,4,4,5,5,6,6,7,7,8,8,9,9,10,10,11,11,12,12,13,13,14,14,15,15,16,16,17,17,18,18,19,19,21,21,23,23,24,24,25,25,26,26,27,27,28,28,29,29,30,30,31,31,32,32,33,33,34,34,35,35,36,36,37,37,38,38,39,39,40,40,41,41,42,42,43,43,44,44,45,45,46,46,47,47,48,48,51,51,52,52,54,54,55,55,56,56],"right_children":[2,4,6,8,10,12,14,16,18,20,22,24,26,28,30,32,34,36,38,40,-1,42,-1,44,46,48,50,52,54,56,58,60,62,64,66,68,70,72,74,76,78,80,82,84,86,88,90,92,94,-1,-1,96,98,-1,100,102,104,-1,-1,-1,-1,-1,-1,-1,-1,-1,-1,-1,-1,-1,-1,-1,-1,-1,-1,-1,-1,-1,-1,-1,-1,-1,-1,-1,-1,-1,-1,-1,-1,-1,-1,-1,-1,-1,-1,-1,-1,-1,-1,-1,-1,-1,-1,-1,-1],"split_conditions":[3.0395504E4,9.052087E11,6.579954E4,8.243721E3,1.772233E12,4.9040714E1,3.6084896E10,7.5417144E3,9.538698E3,2.9837008E4,2.9944803E4,4.3241932E1,6.1362605E4,3.076755E10,5.8268402E4,3.896375E3,7.99433E3,1.1511917E4,1.5587877E3,2.3869832E4,-1.4392003E2,3.2182969E4,-7.6756935E1,6.3708215E4,3.9358324E4,3.4398745E10,6.1548805E4,6.816789E4,5.926636E4,5.6190676E4,6.0893926E4,2.579363E1,1.4653575E1,7.551339E3,7.880099E3,1.3048757E4,1.6685691E4,1.5151388E10,1.522684E4,9.75E-1,2.9401916E4,8.615645E1,2.9303572E4,2.2198E10,5.6620273E4,3.2358613E4,-1.2583927E3,1.9141423E10,-2.3714893E3,4.5285062E2,7.793204E1,2.0172295E12,5.8326562E4,8.6813675E1,6.1455117E4,5.5397945E4,1.9634015E12,-1.4330098E2,5.3236526E1,-6.42227E1,-4.5650017E1,-8.727978E1,-3.220771E1,-1.5352955E1,-3.5700177E2,-9.2430176E1,-2.3578697E1,-1.6527294E1,-7.342076E1,5.892651E1,-2.2297815E1,-1.3055972E2,-4.827326E1,2.286859E1,-1.0146534E2,-3.968875E0,3.371E1,8.691296E1,-6.7608696E1,1.15278984E2,2.611333E1,3.9201138E1,-6.865811E1,6.9630647E0,1.0529096E2,-7.125508E1,1.5348282E2,1.155772E2,-2.7496207E2,2.5228828E2,7.1075287E0,2.726289E2,3.855265E1,-6.516739E1,1.356958E2,5.5321877E1,2.4952061E2,4.2869534E1,-3.556172E1,-7.571338E1,1.9008595E1,3.851725E2,-1.7555002E2,4.0342186E1,3.8669443E2],"split_indices":[6,19,14,3,19,18,5,15,15,7,2,10,9,5,15,3,1,7,16,3,0,14,0,14,7,5,0,14,1,7,0,18,10,0,15,14,0,5,2,20,1,18,2,5,0,0,11,5,11,0,0,19,0,0,7,1,19,0,0,0,0,0,0,0,0,0,0,0,0,0,0,0,0,0,0,0,0,0,0,0,0,0,0,0,0,0,0,0,0,0,0,0,0,0,0,0,0,0,0,0,0,0,0,0,0],"split_type":[0,0,0,0,0,0,0,0,0,0,0,0,0,0,0,0,0,0,0,0,0,0,0,0,0,0,0,0,0,0,0,0,0,0,0,0,0,0,0,0,0,0,0,0,0,0,0,0,0,0,0,0,0,0,0,0,0,0,0,0,0,0,0,0,0,0,0,0,0,0,0,0,0,0,0,0,0,0,0,0,0,0,0,0,0,0,0,0,0,0,0,0,0,0,0,0,0,0,0,0,0,0,0,0,0],"sum_hessian":[1.77E3,1.32E3,4.5E2,1.112E3,2.08E2,4.14E2,3.6E1,7.26E2,3.86E2,1.72E2,3.6E1,2.02E2,2.12E2,1.2E1,2.4E1,7.07E2,1.9E1,3.31E2,5.5E1,1.69E2,3E0,3.3E1,3E0,1.44E2,5.8E1,2.1E2,2E0,6E0,6E0,2.2E1,2E0,2.56E2,4.51E2,2E0,1.7E1,3.14E2,1.7E1,3.5E1,2E1,1.6E2,9E0,2E1,1.3E1,1.31E2,1.3E1,1.2E1,4.6E1,8E1,1.3E2,1E0,1E0,4E0,2E0,1E0,5E0,3E0,1.9E1,1E0,1E0,6.2E1,1.94E2,1E1,4.41E2,1E0,1E0,8E0,9E0,3E2,1.4E1,1E1,7E0,1.1E1,2.4E1,1.6E1,4E0,1.39E2,2.1E1,8E0,1E0,9E0,1.1E1,1E1,3E0,2.6E1,1.05E2,1.1E1,2E0,3E0,9E0,3E0,4.3E1,5E0,7.5E1,5E0,1.25E2,1E0,3E0,1E0,1E0,3E0,2E0,1E0,2E0,2E0,1.7E1],"tree_param":{"num_deleted":"0","num_feature":"21","num_nodes":"105","size_leaf_vector":"1"}},{"base_weights":[5.3617864E0,-5.7852917E1,2.4570016E2,-7.9887436E1,4.4587734E1,2.1216208E2,5.4090247E2,-9.8590225E1,-5.2517372E1,6.38341E1,-4.2178378E2,1.8579033E2,5.164058E2,4.4554385E2,4.4193558E2,-9.357368E1,-5.1141895E2,-4.8527508E1,-4.1466718E2,3.6287685E1,3.6503027E2,1.4021573E2,-5.7251215E2,2.256272E2,-1.1208583E2,6.435874E2,-1.4797526E1,1.1856543E3,3.391068E2,-9.86895E1,1.2786011E1,-6.649943E2,-3.3795246E1,-5.1764797E1,1.4368262E2,-2.0667657E2,-2.1901042E0,7.288677E1,-2.1858768E2,-5.9114585E0,4.8907162E2,-8.319644E1,-7.532004E2,1.8721927E2,5.4100336E2,-6.340205E2,3.0832943E1,6.741953E1,7.751905E2,-1.1026875E2,7.604268E1,3.805078E1,4.4889453E2,-3.9640314E2,4.583369E2,-3.4502083E1,-2.1216951E1,2.309272E1,-1.6864408E1,-2.7762668E2,-9.102744E1,-2.7311354E1,1.2103492E1,-6.3910534E1,-1.4422255E1,1.0851514E1,9.3243065E1,6.0550785E0,-7.040625E0,9.38583E0,1.2423218E2,-1.4190329E2,2.0886621E1,-9.353008E1,6.7487404E1,5.907196E1,1.9859096E2,-2.56078E2,-5.274434E1,8.754505E1,2.7044373E1,1.8062784E2,-1.75425E2,-4.142641E2,-4.6476173E1,5.7838017E1,-6.845215E1,-2.6388283E1,3.8476467E1,2.4836302E2,-1.016836E1,-1.5111035E2,4.9183598E0,6.449847E1,1.8822188E2],"categories":[],"categories_nodes":[],"categories_segments":[],"categories_sizes":[],"default_left":[0,0,0,0,0,0,0,0,0,0,0,0,0,0,0,0,0,0,0,0,0,0,0,0,0,0,0,0,0,0,0,0,0,0,0,0,0,0,0,0,0,0,0,0,0,0,0,0,0,0,0,0,0,0,0,0,0,0,0,0,0,0,0,0,0,0,0,0,0,0,0,0,0,0,0,0,0,0,0,0,0,0,0,0,0,0,0,0,0,0,0,0,0,0,0],"id":14,"left_children":[1,3,5,7,9,11,13,15,17,19,21,23,25,27,-1,29,31,33,35,37,39,-1,41,43,45,47,49,51,53,55,57,59,61,63,65,-1,67,69,71,73,75,-1,77,79,81,83,85,87,89,-1,-1,-1,-1,91,93,-1,-1,-1,-1,-1,-1,-1,-1,-1,-1,-1,-1,-1,-1,-1,-1,-1,-1,-1,-1,-1,-1,-1,-1,-1,-1,-1,-1,-1,-1,-1,-1,-1,-1,-1,-1,-1,-1,-1,-1],"loss_changes":[2.6920874E7,3.170456E6,3.538534E6,5.86063E5,2.2619372E6,2.575862E6,2.632768E6,1.370763E6,6.604385E5,1.9780039E6,1.6078149E6,3.680157E6,1.766065E6,2.3550675E6,0E0,3.701735E5,5.64336E5,2.9802362E5,5.6411E5,2.0774656E6,9.2313325E5,0E0,2.7115875E5,3.193436E6,2.7795365E6,1.540072E6,6.6099225E5,1.1259465E6,2.9879238E6,2.871175E5,1.4605952E5,2.8418075E5,1.6404855E4,2.635445E5,1.3250175E5,0E0,1.9019297E3,2.7408745E6,2.0860954E6,4.9381056E5,6.273765E5,0E0,1.39753E5,2.451129E6,2.34645E6,2.648637E6,1.3024559E6,5.8544543E4,7.52731E5,0E0,0E0,0E0,0E0,2.2971988E5,1.0170775E6,0E0,0E0,0E0,0E0,0E0,0E0,0E0,0E0,0E0,0E0,0E0,0E0,0E0,0E0,0E0,0E0,0E0,0E0,0E0,0E0,0E0,0E0,0E0,0E0,0E0,0E0,0E0,0E0,0E0,0E0,0E0,0E0,0E0,0E0,0E0,0E0,0E0,0E0,0E0,0E0],"parents":[2147483647,0,0,1,1,2,2,3,3,4,4,5,5,6,6,7,7,8,8,9,9,10,10,11,11,12,12,13,13,15,15,16,16,17,17,18,18,19,19,20,20,22,22,23,23,24,24,25,25,26,26,27,27,28,28,29,29,30,30,31,31,32,32,33,33,34,34,36,36,37,37,38,38,39,39,40,40,42,42,43,43,44,44,45,45,46,46,47,47,48,48,53,53,54,54],"right_children":[2,4,6,8,10,12,14,16,18,20,22,24,26,28,-1,30,32,34,36,38,40,-1,42,44,46,48,50,52,54,56,58,60,62,64,66,-1,68,70,72,74,76,-1,78,80,82,84,86,88,90,-1,-1,-1,-1,92,94,-1,-1,-1,-1,-1,-1,-1,-1,-1,-1,-1,-1,-1,-1,-1,-1,-1,-1,-1,-1,-1,-1,-1,-1,-1,-1,-1,-1,-1,-1,-1,-1,-1,-1,-1,-1,-1,-1,-1,-1],"split_conditions":[4.252289E4,1.5241086E4,6.579954E4,8.1777935E3,3.083519E3,9.292281E1,9.340492E1,8.353761E3,1.2466166E4,2.8019956E3,4.873083E10,8.629641E1,5.748479E4,5.5397945E4,4.4193558E2,7.64275E3,8.480092E3,1.6007306E3,1.59034375E4,3.4624793E4,-2.3714893E3,1.4021573E2,4.293634E1,8.186146E1,2.2804546E3,4.2021126E1,5.1921875E4,5.1167562E4,5.7458715E4,1.7896278E11,8.599134E3,7.9504E3,7.0922915E3,5.5979946E3,1.68945E10,-2.0667657E2,1.46082E4,3.2296268E4,4.7292225E1,3.8702408E10,4.43908E1,-8.319644E1,3.647159E4,2.2804546E3,6.3103754E4,6.041905E1,5.4529145E4,3.344375E4,7.8688526E-1,-1.1026875E2,7.604268E1,3.805078E1,4.4889453E2,6.3208113E4,3.6084896E10,-3.4502083E1,-2.1216951E1,2.309272E1,-1.6864408E1,-2.7762668E2,-9.102744E1,-2.7311354E1,1.2103492E1,-6.3910534E1,-1.4422255E1,1.0851514E1,9.3243065E1,6.0550785E0,-7.040625E0,9.38583E0,1.2423218E2,-1.4190329E2,2.0886621E1,-9.353008E1,6.7487404E1,5.907196E1,1.9859096E2,-2.56078E2,-5.274434E1,8.754505E1,2.7044373E1,1.8062784E2,-1.75425E2,-4.142641E2,-4.6476173E1,5.7838017E1,-6.845215E1,-2.6388283E1,3.8476467E1,2.4836302E2,-1.016836E1,-1.5111035E2,4.9183598E0,6.449847E1,1.8822188E2],"split_indices":[14,6,14,1,16,18,17,9,15,16,5,18,3,1,0,3,6,16,1,9,11,0,10,17,16,12,9,1,13,19,14,0,0,15,5,0,0,6,10,5,17,0,0,16,14,10,3,15,20,0,0,0,0,2,5,0,0,0,0,0,0,0,0,0,0,0,0,0,0,0,0,0,0,0,0,0,0,0,0,0,0,0,0,0,0,0,0,0,0,0,0,0,0,0,0],"split_type":[0,0,0,0,0,0,0,0,0,0,0,0,0,0,0,0,0,0,0,0,0,0,0,0,0,0,0,0,0,0,0,0,0,0,0,0,0,0,0,0,0,0,0,0,0,0,0,0,0,0,0,0,0,0,0,0,0,0,0,0,0,0,0,0,0,0,0,0,0,0,0,0,0,0,0,0,0,0,0,0,0,0,0,0,0,0,0,0,0,0,0,0,0,0,0],"sum_hessian":[1.77E3,1.402E3,3.68E2,1.154E3,2.48E2,3.32E2,3.6E1,6.84E2,4.7E2,2.39E2,9E0,3.07E2,2.5E1,3.4E1,2E0,6.77E2,7E0,4.66E2,4E0,2.2E2,1.9E1,1E0,8E0,2.71E2,3.6E1,2E1,5E0,3E0,3.1E1,6.46E2,3.1E1,5E0,2E0,4.59E2,7E0,2E0,2E0,1.93E2,2.7E1,5E0,1.4E1,4E0,4E0,2.43E2,2.8E1,7E0,2.9E1,4E0,1.6E1,2E0,3E0,1E0,2E0,4E0,2.7E1,4.06E2,2.4E2,1.6E1,1.5E1,2E0,3E0,1E0,1E0,9E0,4.5E2,5E0,2E0,1E0,1E0,1.73E2,2E1,1.4E1,1.3E1,2E0,3E0,6E0,8E0,3E0,1E0,1.16E2,1.27E2,2.7E1,1E0,2E0,5E0,1.8E1,1.1E1,1E0,3E0,1.5E1,1E0,3E0,1E0,1.2E1,1.5E1],"tree_param":{"num_deleted":"0","num_feature":"21","num_nodes":"95","size_leaf_vector":"1"}},{"base_weights":[3.9094663E0,-3.3639927E1,2.1743033E2,-5.2483624E1,7.340104E1,1.989439E2,7.2116144E2,-4.919001E1,-2.6515033E2,-2.1129102E2,1.0669763E2,3.877377E2,1.5594745E2,2.7654767E2,1.02154297E3,-5.1129578E1,1.7440343E2,3.0885937E1,-5.5342737E2,7.1174385E1,3.4579147E2,-3.7089297E2,4.669334E2,-2.453428E1,2.2290843E2,9.848614E1,1.0438477E1,8.260254E1,3.4177734E2,-5.200523E1,1.5966797E2,-2.739461E2,1.6663814E2,-3.1268115E2,-1.9502734E2,8.586511E1,-2.4432188E2,4.4835376E2,-3.3038965E2,-5.711543E2,6.452286E1,7.277288E2,2.0851443E2,7.049219E1,-6.272612E2,3.825653E2,1.0817274E2,-1.9793518E1,-6.013732E0,-1.3854698E2,7.163438E1,-7.681094E1,8.67043E1,-2.168203E0,-1.3290547E2,3.2583954E1,-5.553616E1,6.516617E1,2.0422554E2,-1.4838106E2,-3.3235157E1,-3.9596485E1,-2.0206407E2,6.4965065E1,2.7532907E2,3.713965E0,1.7241577E2,3.7157566E1,-1.3357501E2,-2.8936017E2,7.691133E1,1.861329E2,5.4094433E1,-4.9275726E1,6.415583E1],"categories":[],"categories_nodes":[],"categories_segments":[],"categories_sizes":[],"default_left":[0,0,0,0,0,0,0,0,0,0,0,0,0,0,0,0,0,0,0,0,0,0,0,0,0,0,0,0,0,0,0,0,0,0,0,0,0,0,0,0,0,0,0,0,0,0,0,0,0,0,0,0,0,0,0,0,0,0,0,0,0,0,0,0,0,0,0,0,0,0,0,0,0,0,0],"id":15,"left_children":[1,3,5,7,9,11,13,15,-1,17,19,21,23,25,27,29,-1,31,33,35,37,39,41,43,45,-1,-1,-1,-1,47,-1,49,51,-1,53,55,-1,57,59,61,-1,63,65,67,69,71,73,-1,-1,-1,-1,-1,-1,-1,-1,-1,-1,-1,-1,-1,-1,-1,-1,-1,-1,-1,-1,-1,-1,-1,-1,-1,-1,-1,-1],"loss_changes":[1.4206446E7,3.043543E6,2.324259E6,3.4668298E6,2.1648605E6,2.025721E6,9.194785E5,1.5926732E6,0E0,2.0056739E6,1.6995465E6,2.9969565E6,2.5554535E6,5.1118062E4,1.255095E5,6.789715E5,0E0,6.663741E5,1.5487422E6,2.3856772E6,1.9512492E6,7.0957644E5,2.74622E6,3.3661678E6,2.779642E6,0E0,0E0,0E0,0E0,5.6761375E5,0E0,5.9192344E5,6.429765E5,0E0,3.2280697E5,1.1050406E6,0E0,1.0875695E6,8.945522E4,9.0969125E4,0E0,1.841234E6,1.6448695E6,1.4588355E6,2.6314788E6,2.967222E6,2.655006E6,0E0,0E0,0E0,0E0,0E0,0E0,0E0,0E0,0E0,0E0,0E0,0E0,0E0,0E0,0E0,0E0,0E0,0E0,0E0,0E0,0E0,0E0,0E0,0E0,0E0,0E0,0E0,0E0],"parents":[2147483647,0,0,1,1,2,2,3,3,4,4,5,5,6,6,7,7,9,9,10,10,11,11,12,12,13,13,14,14,15,15,17,17,18,18,19,19,20,20,21,21,22,22,23,23,24,24,29,29,31,31,32,32,34,34,35,35,37,37,38,38,39,39,41,41,42,42,43,43,44,44,45,45,46,46],"right_children":[2,4,6,8,10,12,14,16,-1,18,20,22,24,26,28,30,-1,32,34,36,38,40,42,44,46,-1,-1,-1,-1,48,-1,50,52,-1,54,56,-1,58,60,62,-1,64,66,68,70,72,74,-1,-1,-1,-1,-1,-1,-1,-1,-1,-1,-1,-1,-1,-1,-1,-1,-1,-1,-1,-1,-1,-1,-1,-1,-1,-1,-1,-1],"split_conditions":[4.7811477E4,1.6739162E12,6.344745E4,3.8129168E4,2.0305965E1,2.1638098E1,2.5938367E3,3.706877E4,-2.6515033E2,3.9122395E4,3.6135875E4,2.1300525E10,3.7173466E1,2.0856658E3,3.060236E10,3.9122395E4,1.7440343E2,3.0817625E4,3.8916953E4,4.1113445E4,4.2329523E4,4.224447E4,6.22311E4,3.6209675E1,1.4634146E-1,9.848614E1,1.0438477E1,8.260254E1,3.4177734E2,9.411841E3,1.5966797E2,6.0201054E10,3.2296268E4,-3.1268115E2,3.9744516E4,4.2586465E4,-2.4432188E2,4.457222E4,4.1500875E4,4.1064984E4,6.452286E1,1.8142622E12,3.3463043E1,6.7547324E10,5.6620273E4,1.6850132E3,3.2776876E10,-1.9793518E1,-6.013732E0,-1.3854698E2,7.163438E1,-7.681094E1,8.67043E1,-2.168203E0,-1.3290547E2,3.2583954E1,-5.553616E1,6.516617E1,2.0422554E2,-1.4838106E2,-3.3235157E1,-3.9596485E1,-2.0206407E2,6.4965065E1,2.7532907E2,3.713965E0,1.7241577E2,3.7157566E1,-1.3357501E2,-2.8936017E2,7.691133E1,1.861329E2,5.4094433E1,-4.9275726E1,6.415583E1],"split_indices":[14,19,8,8,18,18,16,0,0,1,15,5,18,12,5,1,0,0,6,13,13,3,14,18,20,0,0,0,0,3,0,5,6,0,0,0,0,14,3,0,0,19,10,5,0,11,5,0,0,0,0,0,0,0,0,0,0,0,0,0,0,0,0,0,0,0,0,0,0,0,0,0,0,0,0],"split_type":[0,0,0,0,0,0,0,0,0,0,0,0,0,0,0,0,0,0,0,0,0,0,0,0,0,0,0,0,0,0,0,0,0,0,0,0,0,0,0,0,0,0,0,0,0,0,0,0,0,0,0,0,0,0,0,0,0,0,0,0,0,0,0,0,0,0,0,0,0,0,0,0,0,0,0],"sum_hessian":[1.77E3,1.506E3,2.64E2,1.281E3,2.25E2,2.56E2,8E0,1.277E3,4E0,2.3E1,2.02E2,4.6E1,2.1E2,4E0,4E0,1.274E3,3E0,1.4E1,9E0,1.77E2,2.5E1,4E0,4.2E1,5.7E1,1.53E2,3E0,1E0,1E0,3E0,1.273E3,1E0,4E0,1E1,3E0,6E0,1.75E2,2E0,2.2E1,3E0,3E0,1E0,2E1,2.2E1,5E1,7E0,6.3E1,9E1,8.85E2,3.88E2,3E0,1E0,2E0,8E0,4E0,2E0,1.62E2,1.3E1,1.2E1,1E1,1E0,2E0,1E0,2E0,6E0,1.4E1,1.5E1,7E0,4.6E1,4E0,5E0,2E0,2.8E1,3.5E1,2.5E1,6.5E1],"tree_param":{"num_deleted":"0","num_feature":"21","num_nodes":"75","size_leaf_vector":"1"}},{"base_weights":[2.8370697E0,-2.3973337E1,1.5529158E2,-2.2118631E1,-5.767031E2,1.4037215E2,5.640699E2,-3.6509518E1,5.851684E1,-3.1087424E2,7.507552E1,2.6977908E2,9.144205E1,3.6428204E2,3.3101025E2,-3.4641224E1,-3.7025558E2,2.1839377E2,2.8392042E1,-3.1076954E1,6.486094E1,3.5230722E2,-2.0489986E2,-3.9207962E2,1.5133797E2,1.9228127E1,4.0930014E2,-3.6313244E1,1.5108955E2,-1.722129E1,-1.2384903E2,1.1777166E1,5.068719E2,-3.1347418E2,6.3194313E1,1.7914688E2,5.718574E2,3.0978516E2,-4.3662988E2,5.1164963E1,-9.887574E2,1.3322777E2,2.5816467E2,2.2576172E1,1.3831758E2,-1.9454117E1,-7.395121E0,-2.4657423E1,4.6992577E1,1.4301368E1,1.7215535E2,-1.2306337E2,3.8297462E1,9.368257E0,8.5662735E1,8.181164E1,-1.8423253E2,3.406387E1,2.0267165E2,1.0750235E2,2.4617579E1,2.4718946E1,-2.2935751E2,-4.1403908E1,1.1443571E2,-5.151853E2,-1.01483986E2,1.5799908E2,3.373913E1],"categories":[],"categories_nodes":[],"categories_segments":[],"categories_sizes":[],"default_left":[0,0,0,0,0,0,0,0,0,0,0,0,0,0,0,0,0,0,0,0,0,0,0,0,0,0,0,0,0,0,0,0,0,0,0,0,0,0,0,0,0,0,0,0,0,0,0,0,0,0,0,0,0,0,0,0,0,0,0,0,0,0,0,0,0,0,0,0,0],"id":16,"left_children":[1,3,5,7,9,11,13,15,17,-1,19,21,23,-1,25,27,29,31,33,-1,-1,35,37,39,41,-1,43,45,-1,-1,-1,47,49,51,53,55,57,59,61,63,65,67,-1,-1,-1,-1,-1,-1,-1,-1,-1,-1,-1,-1,-1,-1,-1,-1,-1,-1,-1,-1,-1,-1,-1,-1,-1,-1,-1],"loss_changes":[7.242451E6,1.5321466E6,1.5369875E6,1.7462412E6,1.5754025E6,1.6026275E6,9.6188875E5,7.82805E5,1.0919068E6,0E0,9.80403E4,2.814394E6,5.503999E6,0E0,1.4094125E5,1.1612938E6,6.9538125E4,2.1397878E6,2.31607E6,0E0,0E0,2.178596E6,1.4472091E6,5.604548E6,2.043134E6,0E0,6.904181E4,4.200405E5,0E0,0E0,0E0,3.1235478E5,4.33997E5,8.20496E5,1.2420482E6,2.7650245E6,1.159166E6,1.4824969E4,1.424484E6,8.649256E5,3.684089E6,1.288705E6,0E0,0E0,0E0,0E0,0E0,0E0,0E0,0E0,0E0,0E0,0E0,0E0,0E0,0E0,0E0,0E0,0E0,0E0,0E0,0E0,0E0,0E0,0E0,0E0,0E0,0E0,0E0],"parents":[2147483647,0,0,1,1,2,2,3,3,4,4,5,5,6,6,7,7,8,8,10,10,11,11,12,12,14,14,15,15,16,16,17,17,18,18,21,21,22,22,23,23,24,24,26,26,27,27,31,31,32,32,33,33,34,34,35,35,36,36,37,37,38,38,39,39,40,40,41,41],"right_children":[2,4,6,8,10,12,14,16,18,-1,20,22,24,-1,26,28,30,32,34,-1,-1,36,38,40,42,-1,44,46,-1,-1,-1,48,50,52,54,56,58,60,62,64,66,68,-1,-1,-1,-1,-1,-1,-1,-1,-1,-1,-1,-1,-1,-1,-1,-1,-1,-1,-1,-1,-1,-1,-1,-1,-1,-1,-1],"split_conditions":[4.7811477E4,4.225189E4,6.344745E4,1.6659462E12,2.0583375E10,2.2804546E3,6.356301E4,3.7821836E4,1.6994746E12,-3.1087424E2,4.2586465E4,1.8651112E3,2.4500352E3,3.6428204E2,2.5735305E3,3.818726E4,3.647159E4,3.1421107E4,2.0305965E1,-3.1076954E1,6.486094E1,3.3499939E10,6.7102646E1,1.9832583E12,9.867236E1,1.9228127E1,1.6850132E3,3.1843323E1,1.5108955E2,-1.722129E1,-1.2384903E2,1.6857899E12,1.9141423E10,3.742157E4,4.0379266E4,7.2357726E-1,1.8142622E12,4.6671965E4,4.8130797E4,4.6787184E4,5.674312E1,1.7182598E12,2.5816467E2,2.2576172E1,1.3831758E2,-1.9454117E1,-7.395121E0,-2.4657423E1,4.6992577E1,1.4301368E1,1.7215535E2,-1.2306337E2,3.8297462E1,9.368257E0,8.5662735E1,8.181164E1,-1.8423253E2,3.406387E1,2.0267165E2,1.0750235E2,2.4617579E1,2.4718946E1,-2.2935751E2,-4.1403908E1,1.1443571E2,-5.151853E2,-1.01483986E2,1.5799908E2,3.373913E1],"split_indices":[14,9,8,19,5,16,6,9,19,0,0,11,16,0,16,1,0,15,18,0,0,5,18,19,17,0,11,17,0,0,0,19,5,15,7,20,19,2,6,6,17,19,0,0,0,0,0,0,0,0,0,0,0,0,0,0,0,0,0,0,0,0,0,0,0,0,0,0,0],"split_type":[0,0,0,0,0,0,0,0,0,0,0,0,0,0,0,0,0,0,0,0,0,0,0,0,0,0,0,0,0,0,0,0,0,0,0,0,0,0,0,0,0,0,0,0,0,0,0,0,0,0,0,0,0,0,0,0,0,0,0,0,0,0,0,0,0,0,0,0,0],"sum_hessian":[1.77E3,1.506E3,2.64E2,1.502E3,4E0,2.56E2,8E0,1.275E3,2.27E2,2E0,2E0,6.9E1,1.87E2,1E0,7E0,1.269E3,6E0,3.5E1,1.92E2,1E0,1E0,5.9E1,1E1,2E1,1.67E2,2E0,5E0,1.266E3,3E0,1E0,5E0,2.1E1,1.4E1,1.7E1,1.75E2,3.4E1,2.5E1,3E0,7E0,1.2E1,8E0,1.64E2,3E0,1E0,4E0,3.66E2,9E2,1.3E1,8E0,2E0,1.2E1,1.4E1,3E0,1.54E2,2.1E1,3.1E1,3E0,5E0,2E1,2E0,1E0,3E0,4E0,8E0,4E0,3E0,5E0,7E0,1.57E2],"tree_param":{"num_deleted":"0","num_feature":"21","num_nodes":"69","size_leaf_vector":"1"}},{"base_weights":[2.2331314E0,-1.3729495E1,1.4167458E2,-2.964237E1,2.7538473E1,2.796626E2,9.565186E1,-8.650744E1,-2.5129406E1,4.402116E1,-1.4929071E2,4.7186664E2,1.0702469E2,-7.248654E1,2.0134389E2,-4.305973E1,-7.305198E1,-4.639453E1,-1.496274E1,2.6913126E1,2.3657825E2,-3.1528302E2,7.430469E1,-2.825065E1,6.2991895E2,-3.4658203E1,2.6340268E2,1.3857704E2,-3.051157E2,-2.2086277E1,2.7971768E2,-7.458801E1,-2.9060455E1,-4.2751728E1,-2.8482617E2,-1.3150117E1,-1.5710167E2,3.6189034E1,-1.9750287E2,3.3049835E2,-9.8234375E1,-6.582335E2,-7.229464E1,3.1667416E2,-4.2281836E2,5.806172E1,-5.6259083E1,9.814844E0,7.128968E2,3.1607095E2,-2.6462674E2,-4.727832E1,3.7221616E2,-4.814453E1,4.4849823E2,-1.6247754E2,-4.033547E2,1.8081445E2,-1.4594218E2,3.729049E2,-7.307366E1,-6.8472414E0,-2.2748882E1,-9.930152E0,-2.5410461E0,-6.2050835E1,-1.1452466E1,-1.6145352E2,1.904043E1,-5.540016E0,2.3068897E1,-9.988052E1,-4.1087403E0,1.2428132E1,-1.8028516E2,-1.4419037E2,5.8421486E1,1.2741415E2,1.9627296E1,-7.553848E1,1.3278281E1,-6.291836E1,-3.4993008E2,-7.3739456E1,6.0002934E1,1.6511719E1,1.7074081E2,9.988301E1,-1.9216783E2,1.4113803E2,2.873207E2,-2.9999414E1,1.2578532E2,2.8822853E1,-1.3829727E2,3.5841213E1,-4.280547E1,7.87793E0,1.2365347E2,8.684332E1,-1.14285706E2,-6.8166214E1,1.6163766E2,-1.8624004E2,-2.757792E0,7.432178E1,-6.899649E1,5.2162094E1,1.5692307E2,-2.0925273E2,2.6737402E1],"categories":[],"categories_nodes":[],"categories_segments":[],"categories_sizes":[],"default_left":[0,0,0,0,0,0,0,0,0,0,0,0,0,0,0,0,0,0,0,0,0,0,0,0,0,0,0,0,0,0,0,0,0,0,0,0,0,0,0,0,0,0,0,0,0,0,0,0,0,0,0,0,0,0,0,0,0,0,0,0,0,0,0,0,0,0,0,0,0,0,0,0,0,0,0,0,0,0,0,0,0,0,0,0,0,0,0,0,0,0,0,0,0,0,0,0,0,0,0,0,0,0,0,0,0,0,0,0,0,0,0],"id":17,"left_children":[1,3,5,7,9,11,13,15,17,19,21,23,25,27,29,-1,31,33,35,37,39,41,43,45,47,49,51,53,55,57,59,61,63,65,67,69,71,73,75,77,79,81,83,85,87,-1,-1,-1,89,91,93,95,97,99,101,103,-1,-1,105,107,109,-1,-1,-1,-1,-1,-1,-1,-1,-1,-1,-1,-1,-1,-1,-1,-1,-1,-1,-1,-1,-1,-1,-1,-1,-1,-1,-1,-1,-1,-1,-1,-1,-1,-1,-1,-1,-1,-1,-1,-1,-1,-1,-1,-1,-1,-1,-1,-1,-1,-1],"loss_changes":[3.9439285E6,1.04495675E6,1.1290562E6,2.9243738E5,1.2977485E6,1.4426752E6,2.4669775E6,5.3967688E4,2.2955394E5,1.3311078E6,1.4338015E6,1.677734E6,5.630311E5,2.6936572E6,1.4946192E6,0E0,2.5624688E3,2.8660756E5,1.8395333E5,7.85689E5,1.0701725E6,1.785739E6,2.1821822E6,2.482539E5,7.6955E5,1.2128342E6,4.232732E5,1.6997929E6,3.6362565E6,1.8678238E6,2.0984155E6,2.5753438E3,5.2377197E1,2.4744006E5,4.753628E5,3.4324128E5,2.2238002E5,1.2263535E6,1.7594365E6,6.2153925E5,1.8619794E5,1.8067418E6,7.10603E5,7.6131E5,1.2006321E6,0E0,0E0,0E0,3.804345E5,2.99591E5,6.817524E5,8.068248E4,1.136025E5,2.2451805E6,7.935715E5,1.6803875E6,0E0,0E0,7.1872494E5,1.403496E6,1.4801188E6,0E0,0E0,0E0,0E0,0E0,0E0,0E0,0E0,0E0,0E0,0E0,0E0,0E0,0E0,0E0,0E0,0E0,0E0,0E0,0E0,0E0,0E0,0E0,0E0,0E0,0E0,0E0,0E0,0E0,0E0,0E0,0E0,0E0,0E0,0E0,0E0,0E0,0E0,0E0,0E0,0E0,0E0,0E0,0E0,0E0,0E0,0E0,0E0,0E0,0E0],"parents":[2147483647,0,0,1,1,2,2,3,3,4,4,5,5,6,6,7,7,8,8,9,9,10,10,11,11,12,12,13,13,14,14,16,16,17,17,18,18,19,19,20,20,21,21,22,22,23,23,24,24,25,25,26,26,27,27,28,28,29,29,30,30,31,31,32,32,33,33,34,34,35,35,36,36,37,37,38,38,39,39,40,40,41,41,42,42,43,43,44,44,48,48,49,49,50,50,51,51,52,52,53,53,54,54,55,55,58,58,59,59,60,60],"right_children":[2,4,6,8,10,12,14,16,18,20,22,24,26,28,30,-1,32,34,36,38,40,42,44,46,48,50,52,54,56,58,60,62,64,66,68,70,72,74,76,78,80,82,84,86,88,-1,-1,-1,90,92,94,96,98,100,102,104,-1,-1,106,108,110,-1,-1,-1,-1,-1,-1,-1,-1,-1,-1,-1,-1,-1,-1,-1,-1,-1,-1,-1,-1,-1,-1,-1,-1,-1,-1,-1,-1,-1,-1,-1,-1,-1,-1,-1,-1,-1,-1,-1,-1,-1,-1,-1,-1,-1,-1,-1,-1,-1,-1],"split_conditions":[4.711614E4,1.0868899E12,4.9011195E4,4.14784E8,4.4919E4,2.037037E-1,5.5204453E4,9.02224E2,3.3651127E1,4.2840176E4,3.474671E10,4.8004895E4,3.456909E10,1.4634146E-1,2.6830889E1,-4.305973E1,9.867236E1,1.31059E4,1.5692236E4,4.2042293E4,1.6850132E3,3.5772195E2,2.6325955E3,4.5634105E4,4.7186086E4,-1.086148E3,2.5E-1,5.469869E4,5.6190676E4,9.426265E0,7.992329E1,3.403039E1,1.10295E3,-8.7008234E2,1.5241086E4,1.00650354E3,1.7719635E4,4.3921684E4,2.3245887E10,3.9705426E4,2.4964773E3,-1.0511388E3,4.5634105E4,5.2106105E4,3.1175709E4,5.806172E1,-5.6259083E1,9.814844E0,4.9612105E4,4.8773316E4,4.823269E4,3.6084896E10,4.758022E4,3.4610928E1,2.9083562E10,5.0137625E4,-4.033547E2,1.8081445E2,5.577037E4,4.9382716E-2,5.958607E4,-6.8472414E0,-2.2748882E1,-9.930152E0,-2.5410461E0,-6.2050835E1,-1.1452466E1,-1.6145352E2,1.904043E1,-5.540016E0,2.3068897E1,-9.988052E1,-4.1087403E0,1.2428132E1,-1.8028516E2,-1.4419037E2,5.8421486E1,1.2741415E2,1.9627296E1,-7.553848E1,1.3278281E1,-6.291836E1,-3.4993008E2,-7.3739456E1,6.0002934E1,1.6511719E1,1.7074081E2,9.988301E1,-1.9216783E2,1.4113803E2,2.873207E2,-2.9999414E1,1.2578532E2,2.8822853E1,-1.3829727E2,3.5841213E1,-4.280547E1,7.87793E0,1.2365347E2,8.684332E1,-1.14285706E2,-6.8166214E1,1.6163766E2,-1.8624004E2,-2.757792E0,7.432178E1,-6.899649E1,5.2162094E1,1.5692307E2,-2.0925273E2,2.6737402E1],"split_indices":[6,19,7,5,7,20,13,2,17,7,5,1,5,20,17,0,17,2,9,7,11,12,16,2,9,11,20,8,7,18,18,10,0,12,6,16,0,13,5,15,12,11,2,14,2,0,0,0,0,9,8,5,6,17,5,13,0,0,9,20,1,0,0,0,0,0,0,0,0,0,0,0,0,0,0,0,0,0,0,0,0,0,0,0,0,0,0,0,0,0,0,0,0,0,0,0,0,0,0,0,0,0,0,0,0,0,0,0,0,0,0],"split_type":[0,0,0,0,0,0,0,0,0,0,0,0,0,0,0,0,0,0,0,0,0,0,0,0,0,0,0,0,0,0,0,0,0,0,0,0,0,0,0,0,0,0,0,0,0,0,0,0,0,0,0,0,0,0,0,0,0,0,0,0,0,0,0,0,0,0,0,0,0,0,0,0,0,0,0,0,0,0,0,0,0,0,0,0,0,0,0,0,0,0,0,0,0,0,0,0,0,0,0,0,0,0,0,0,0,0,0,0,0,0,0],"sum_hessian":[1.77E3,1.589E3,1.81E2,1.147E3,4.42E2,4.4E1,1.37E2,8.3E1,1.064E3,4.05E2,3.7E1,2E1,2.4E1,5.3E1,8.4E1,1.4E1,6.9E1,3.43E2,7.21E2,3.73E2,3.2E1,2.1E1,1.6E1,5E0,1.5E1,1.3E1,1.1E1,2.8E1,2.5E1,2.2E1,6.2E1,6.6E1,3E0,3.39E2,4E0,7.13E2,8E0,3.59E2,1.4E1,2.5E1,7E0,8E0,1.3E1,1.1E1,5E0,2E0,3E0,2E0,1.3E1,5E0,8E0,3E0,8E0,1.8E1,1E1,2.3E1,2E0,3E0,1.9E1,4.9E1,1.3E1,2E0,6.4E1,2E0,1E0,8E0,3.31E2,2E0,2E0,6.74E2,3.9E1,3E0,5E0,3.57E2,2E0,8E0,6E0,1.8E1,7E0,3E0,4E0,5E0,3E0,8E0,5E0,6E0,5E0,1E0,4E0,8E0,5E0,1E0,4E0,3E0,5E0,1E0,2E0,1E0,7E0,9E0,9E0,1E0,9E0,5E0,1.8E1,3E0,1.6E1,2.2E1,2.7E1,2E0,1.1E1],"tree_param":{"num_deleted":"0","num_feature":"21","num_nodes":"111","size_leaf_vector":"1"}},{"base_weights":[1.1957549E0,-1.5708593E1,7.0364136E1,-1.28112135E1,-2.1846407E2,3.359459E1,1.4754286E2,-1.6523472E1,1.703425E2,-5.898354E2,-1.7173828E1,8.2206375E1,-2.007985E2,1.077663E2,6.511675E2,-1.2853281E1,-3.7318695E2,1.5860274E2,6.945805E1,-2.1566095E2,2.7655664E1,1.4917627E2,-2.0483482E2,1.0054099E1,1.4532976E2,-3.0637823E2,5.0171574E1,2.3119693E2,-4.3624187E1,1.1119023E3,1.523461E2,-1.6614977E1,2.545077E2,-1.5390074E2,-2.6487817E2,2.9114297E2,-9.384961E1,2.2830989E2,-1.7644922E1,-8.369532E0,-6.890235E1,9.348239E1,-2.8043732E2,7.095143E1,5.5462476E2,-5.2363306E2,4.503548E1,-3.252207E2,1.9531133E2,1.3398137E2,4.0920743E2,3.035949E2,-1.3153616E2,4.0978127E1,4.1744223E2,-1.1983008E1,2.104043E2,-4.503769E0,-1.3311024E2,1.485979E2,-4.156011E1,-8.665036E1,1.9736017E1,-6.1962894E1,1.324147E2,1.8550392E1,-9.352032E1,8.369719E1,-3.7640626E0,1.4186876E2,5.561927E0,-1.3638571E2,3.98615E1,3.611145E1,-2.3473473E1,1.0174952E2,2.8824094E2,-1.0320524E2,-3.1988498E2,-1.3054922E2,5.537754E1,-2.9872267E1,-1.5032404E2,1.4827344E2,1.763921E1,1.00620125E2,-1.1071821E1,-3.321586E1,1.6383275E2,1.1906993E2,3.927305E1,1.9037403E1,-9.598606E1,7.544531E1,1.307461E1],"categories":[],"categories_nodes":[],"categories_segments":[],"categories_sizes":[],"default_left":[0,0,0,0,0,0,0,0,0,0,0,0,0,0,0,0,0,0,0,0,0,0,0,0,0,0,0,0,0,0,0,0,0,0,0,0,0,0,0,0,0,0,0,0,0,0,0,0,0,0,0,0,0,0,0,0,0,0,0,0,0,0,0,0,0,0,0,0,0,0,0,0,0,0,0,0,0,0,0,0,0,0,0,0,0,0,0,0,0,0,0,0,0,0,0],"id":18,"left_children":[1,3,5,7,9,11,13,15,17,19,21,23,25,27,29,31,33,-1,35,-1,-1,37,39,41,43,45,47,49,51,53,55,57,59,61,-1,63,65,67,-1,-1,-1,69,71,73,75,77,79,81,83,85,87,89,91,-1,-1,-1,93,-1,-1,-1,-1,-1,-1,-1,-1,-1,-1,-1,-1,-1,-1,-1,-1,-1,-1,-1,-1,-1,-1,-1,-1,-1,-1,-1,-1,-1,-1,-1,-1,-1,-1,-1,-1,-1,-1],"loss_changes":[2.0718408E6,8.337435E5,9.826071E5,9.5809375E5,1.4849386E6,2.716948E6,2.1734615E6,1.7990376E6,9.7548625E5,6.8229875E5,4.6760044E5,8.9577475E5,1.1017631E6,1.972139E6,1.6692012E6,1.3770514E6,1.4290229E6,0E0,8.599891E5,0E0,0E0,1.451021E5,2.435775E4,2.2800898E6,3.1571298E6,2.2376255E6,7.7181575E5,9.488865E5,1.5051201E6,9.006075E5,6.422415E4,9.151838E5,1.8670015E6,3.4507734E5,0E0,8.3888456E5,4.9417312E5,7.674122E4,0E0,0E0,0E0,2.0669325E6,1.5722141E6,6.7301475E5,1.07437E6,1.3876115E6,8.845063E5,1.0883353E5,3.7902566E5,1.3547575E6,1.4840428E6,1.0916494E5,1.4531748E6,0E0,0E0,0E0,1.6452078E4,0E0,0E0,0E0,0E0,0E0,0E0,0E0,0E0,0E0,0E0,0E0,0E0,0E0,0E0,0E0,0E0,0E0,0E0,0E0,0E0,0E0,0E0,0E0,0E0,0E0,0E0,0E0,0E0,0E0,0E0,0E0,0E0,0E0,0E0,0E0,0E0,0E0,0E0],"parents":[2147483647,0,0,1,1,2,2,3,3,4,4,5,5,6,6,7,7,8,8,9,9,10,10,11,11,12,12,13,13,14,14,15,15,16,16,18,18,21,21,22,22,23,23,24,24,25,25,26,26,27,27,28,28,29,29,30,30,31,31,32,32,33,33,35,35,36,36,37,37,41,41,42,42,43,43,44,44,45,45,46,46,47,47,48,48,49,49,50,50,51,51,52,52,56,56],"right_children":[2,4,6,8,10,12,14,16,18,20,22,24,26,28,30,32,34,-1,36,-1,-1,38,40,42,44,46,48,50,52,54,56,58,60,62,-1,64,66,68,-1,-1,-1,70,72,74,76,78,80,82,84,86,88,90,92,-1,-1,-1,94,-1,-1,-1,-1,-1,-1,-1,-1,-1,-1,-1,-1,-1,-1,-1,-1,-1,-1,-1,-1,-1,-1,-1,-1,-1,-1,-1,-1,-1,-1,-1,-1,-1,-1,-1,-1,-1,-1],"split_conditions":[3.7999402E4,3.683273E4,2.0311313E12,3.3878965E4,3.8742816E4,1.9832583E12,6.1362605E4,3.6008902E4,3.3949913E10,4.0929152E4,8.996458E1,1.1320755E-1,5.726544E4,5.65957E4,6.618337E4,3.340865E4,3.261841E1,1.5860274E2,1.5714286E-1,-2.1566095E2,2.7655664E1,3.8235535E4,4.0617723E4,3.932616E10,4.4171076E10,7.7323456E1,1.8400469E1,5.0137625E4,2.2804546E3,4.7964447E1,5.8326562E4,3.083519E3,3.4060016E4,3.6667656E4,-2.6487817E2,-2.3714893E3,3.6820105E4,3.9308082E4,-1.7644922E1,-8.369532E0,-6.890235E1,-1.8639205E3,5.2451164E4,6.4912283E-1,3.5099873E1,3.8235295E-1,4.5897574E4,5.721418E4,-1.3024874E3,4.8013996E4,-2.675957E2,6.38732E1,2.2080845E12,4.0978127E1,4.1744223E2,-1.1983008E1,6.785836E1,-4.503769E0,-1.3311024E2,1.485979E2,-4.156011E1,-8.665036E1,1.9736017E1,-6.1962894E1,1.324147E2,1.8550392E1,-9.352032E1,8.369719E1,-3.7640626E0,1.4186876E2,5.561927E0,-1.3638571E2,3.98615E1,3.611145E1,-2.3473473E1,1.0174952E2,2.8824094E2,-1.0320524E2,-3.1988498E2,-1.3054922E2,5.537754E1,-2.9872267E1,-1.5032404E2,1.4827344E2,1.763921E1,1.00620125E2,-1.1071821E1,-3.321586E1,1.6383275E2,1.1906993E2,3.927305E1,1.9037403E1,-9.598606E1,7.544531E1,1.307461E1],"split_indices":[7,2,19,2,0,19,9,7,5,1,18,20,7,6,14,8,18,0,20,0,0,2,1,5,5,17,17,13,16,10,0,16,0,7,0,11,6,6,0,0,0,12,6,20,17,20,3,0,11,7,11,10,19,0,0,0,10,0,0,0,0,0,0,0,0,0,0,0,0,0,0,0,0,0,0,0,0,0,0,0,0,0,0,0,0,0,0,0,0,0,0,0,0,0,0],"split_type":[0,0,0,0,0,0,0,0,0,0,0,0,0,0,0,0,0,0,0,0,0,0,0,0,0,0,0,0,0,0,0,0,0,0,0,0,0,0,0,0,0,0,0,0,0,0,0,0,0,0,0,0,0,0,0,0,0,0,0,0,0,0,0,0,0,0,0,0,0,0,0,0,0,0,0,0,0,0,0,0,0,0,0,0,0,0,0,0,0,0,0,0,0,0,0],"sum_hessian":[1.77E3,1.423E3,3.47E2,1.404E3,1.9E1,2.36E2,1.11E2,1.377E3,2.7E1,6E0,1.3E1,1.96E2,4E1,1.04E2,7E0,1.364E3,1.3E1,5E0,2.2E1,5E0,1E0,7E0,6E0,9.2E1,1.04E2,2.8E1,1.2E1,5.7E1,4.7E1,3E0,4E0,1.346E3,1.8E1,1E1,3E0,9E0,1.3E1,5E0,2E0,1E0,5E0,7.2E1,2E1,8.9E1,1.5E1,1.7E1,1.1E1,3E0,9E0,3.8E1,1.9E1,9E0,3.8E1,1E0,2E0,1E0,3E0,1.342E3,4E0,1.1E1,7E0,6E0,4E0,2E0,7E0,8E0,5E0,4E0,1E0,1.1E1,6.1E1,1.4E1,6E0,6.7E1,2.2E1,1.1E1,4E0,1.4E1,3E0,2E0,9E0,2E0,1E0,2E0,7E0,1.7E1,2.1E1,4E0,1.5E1,5E0,4E0,1.9E1,1.9E1,2E0,1E0],"tree_param":{"num_deleted":"0","num_feature":"21","num_nodes":"95","size_leaf_vector":"1"}},{"base_weights":[1.0437461E0,-3.2162647E0,1.6832227E2,-4.4261603E0,6.939492E2,1.6960446E2,9.075637E1,-1.9858706E0,-2.124836E2,2.7744553E2,3.4831642E1,1.981942E1,6.887656E2,-1.4707359E1,3.5945995E1,8.7080864E1,-2.8447113E2,-5.787195E1,6.363955E2,2.3678166E2,5.8086918E1,-1.3052822E1,-1.6327428E2,4.6843105E1,-1.10547005E2,-4.564879E2,-1.238916E1,-4.261281E2,9.954939E0,2.1822072E2,5.4506252E1,-4.387444E0,4.5731667E1,-7.113926E0,-6.5018234E1,1.0122456E1,9.6904045E1,-1.5317374E2,1.0020296E1,-1.6625391E1,-1.4731595E2,-1.5996429E1,4.112051E1,-1.5973975E2,-1.16601564E-1,6.1874786E1,-3.3166733E1],"categories":[],"categories_nodes":[],"categories_segments":[],"categories_sizes":[],"default_left":[0,0,0,0,0,0,0,0,0,0,0,0,0,0,0,0,0,0,0,0,0,0,0,0,0,0,0,0,0,0,0,0,0,0,0,0,0,0,0,0,0,0,0,0,0,0,0],"id":19,"left_children":[1,3,5,7,9,-1,11,13,15,-1,-1,17,19,21,23,-1,25,27,29,-1,-1,31,33,35,37,39,41,43,45,-1,-1,-1,-1,-1,-1,-1,-1,-1,-1,-1,-1,-1,-1,-1,-1,-1,-1],"loss_changes":[1.2625705E6,1.4606354E6,1.3037006E6,8.759036E5,2.928425E5,0E0,1.5983454E6,8.2424125E5,8.064125E5,0E0,0E0,1.7134219E6,4.6238875E4,3.1225912E5,6.9001256E5,0E0,8.367926E5,8.035275E5,3.336625E4,0E0,0E0,3.31581E5,9.930056E4,1.4364094E6,1.7445682E6,1.252805E5,5.624976E4,2.2615375E5,6.8515806E5,0E0,0E0,0E0,0E0,0E0,0E0,0E0,0E0,0E0,0E0,0E0,0E0,0E0,0E0,0E0,0E0,0E0,0E0],"parents":[2147483647,0,0,1,1,2,2,3,3,4,4,6,6,7,7,8,8,11,11,12,12,13,13,14,14,16,16,17,17,18,18,21,21,22,22,23,23,24,24,25,25,26,26,27,27,28,28],"right_children":[2,4,6,8,10,-1,12,14,16,-1,-1,18,20,22,24,-1,26,28,30,-1,-1,32,34,36,38,40,42,44,46,-1,-1,-1,-1,-1,-1,-1,-1,-1,-1,-1,-1,-1,-1,-1,-1,-1,-1],"split_conditions":[6.531717E4,6.1362605E4,-8.9569055E2,6.3708215E4,6.1548805E4,1.6960446E2,9.340492E1,2.0745512E4,3.149316E4,2.7744553E2,3.4831642E1,9.3333334E-1,4.0298162E3,2.247338E3,5.65957E4,8.7080864E1,5.7717324E4,5.7044938E4,5.8930277E4,2.3678166E2,5.8086918E1,2.1135886E3,1.0055985E4,5.412053E4,7.041933E1,3.550294E4,2.6037417E3,6.3208113E4,6.016619E4,2.1822072E2,5.4506252E1,-4.387444E0,4.5731667E1,-7.113926E0,-6.5018234E1,1.0122456E1,9.6904045E1,-1.5317374E2,1.0020296E1,-1.6625391E1,-1.4731595E2,-1.5996429E1,4.112051E1,-1.5973975E2,-1.16601564E-1,6.1874786E1,-3.3166733E1],"split_indices":[14,9,12,14,0,0,17,15,2,0,0,20,11,12,6,0,9,13,0,0,0,11,15,8,18,0,12,2,9,0,0,0,0,0,0,0,0,0,0,0,0,0,0,0,0,0,0],"split_type":[0,0,0,0,0,0,0,0,0,0,0,0,0,0,0,0,0,0,0,0,0,0,0,0,0,0,0,0,0,0,0,0,0,0,0,0,0,0,0,0,0,0,0,0,0,0,0],"sum_hessian":[1.77E3,1.727E3,4.3E1,1.725E3,2E0,6E0,3.7E1,1.706E3,1.9E1,1E0,1E0,3.4E1,3E0,1.278E3,4.28E2,2E0,1.7E1,3.1E1,3E0,2E0,1E0,1.265E3,1.3E1,3.99E2,2.9E1,1E1,7E0,4E0,2.7E1,2E0,1E0,1.254E3,1.1E1,4E0,9E0,3.82E2,1.7E1,7E0,2.2E1,1E0,9E0,6E0,1E0,3E0,1E0,1E1,1.7E1],"tree_param":{"num_deleted":"0","num_feature":"21","num_nodes":"47","size_leaf_vector":"1"}},{"base_weights":[1.182344E0,-5.733086E0,7.705718E1,-2.2973824E0,-1.3508989E2,5.4801598E1,4.596797E2,-8.531068E0,7.51677E1,1.3994751E2,-1.9409587E2,1.4128682E2,-9.148581E0,7.5567285E2,1.3094922E2,-6.6508527E0,-3.9947153E2,3.4467746E2,5.7652203E1,-4.104492E1,1.0001075E2,-4.5313983E2,-8.6998344E1,1.8477151E2,-3.739992E2,-3.867857E2,2.5754164E1,2.9606836E1,2.8253125E2,-5.2101564E0,5.1711037E1,-4.495444E0,-1.3019148E2,-1.4361426E2,-5.5546094E2,1.8518086E2,1.1218672E2,-4.254641E1,1.1611262E2,-2.6908517E2,-2.3006836E2,-3.5084723E2,4.975933E1,3.77243E2,8.367336E1,-1.8752461E2,1.75E0,1.7820763E2,-6.492585E2,1.25504326E2,-9.468186E1,-3.2096605E0,1.8903105E1,-1.1959761E2,-1.0919597E0,-5.275977E1,-7.0289063E0,-2.1436993E2,-1.172168E1,-5.639063E0,4.4889553E1,3.583637E1,-1.9494682E2,7.1689224E1,7.679102E0,-8.7613235E1,3.0564259E1,-1.6168687E2,-2.7770626E1,3.790919E1,-1.8787793E2,-6.4725784E1,1.3790956E2,1.3818091E2,1.1461507E1,3.4952347E1,-3.4164845E1,-2.5619446E2,-4.79625E1,-4.041707E0,9.920229E1,-8.220299E1,-6.6203732E0],"categories":[],"categories_nodes":[],"categories_segments":[],"categories_sizes":[],"default_left":[0,0,0,0,0,0,0,0,0,0,0,0,0,0,0,0,0,0,0,0,0,0,0,0,0,0,0,0,0,0,0,0,0,0,0,0,0,0,0,0,0,0,0,0,0,0,0,0,0,0,0,0,0,0,0,0,0,0,0,0,0,0,0,0,0,0,0,0,0,0,0,0,0,0,0,0,0,0,0,0,0,0,0],"id":20,"left_children":[1,3,5,7,9,11,13,15,17,19,21,23,25,27,29,31,33,35,37,-1,-1,39,41,43,45,47,49,-1,-1,-1,-1,51,53,55,57,-1,59,61,63,-1,65,67,69,71,73,-1,75,-1,77,79,81,-1,-1,-1,-1,-1,-1,-1,-1,-1,-1,-1,-1,-1,-1,-1,-1,-1,-1,-1,-1,-1,-1,-1,-1,-1,-1,-1,-1,-1,-1,-1,-1],"loss_changes":[9.296981E5,7.214466E5,1.235101E6,7.650609E5,7.0877506E5,7.811276E5,6.794609E5,1.0749298E6,5.371592E5,4.7386738E5,9.315815E5,1.4135281E6,1.0907682E6,3.9611025E5,3.3710586E4,3.881843E5,1.99605E5,3.7437638E5,6.6099725E5,0E0,0E0,7.83655E5,9.556254E5,1.0581114E6,4.7281462E5,2.1877292E6,9.2491E5,0E0,0E0,0E0,0E0,6.0202356E5,8.4792294E5,1.1384109E4,3.0072138E5,0E0,2.733609E4,4.2095565E6,7.8340125E5,0E0,1.943361E5,3.8737012E5,1.0112882E6,1.0282005E6,6.336606E5,0E0,5.3077543E4,0E0,4.64598E5,1.2020362E6,4.497135E5,0E0,0E0,0E0,0E0,0E0,0E0,0E0,0E0,0E0,0E0,0E0,0E0,0E0,0E0,0E0,0E0,0E0,0E0,0E0,0E0,0E0,0E0,0E0,0E0,0E0,0E0,0E0,0E0,0E0,0E0,0E0,0E0],"parents":[2147483647,0,0,1,1,2,2,3,3,4,4,5,5,6,6,7,7,8,8,9,9,10,10,11,11,12,12,13,13,14,14,15,15,16,16,17,17,18,18,21,21,22,22,23,23,24,24,25,25,26,26,31,31,32,32,33,33,34,34,36,36,37,37,38,38,40,40,41,41,42,42,43,43,44,44,46,46,48,48,49,49,50,50],"right_children":[2,4,6,8,10,12,14,16,18,20,22,24,26,28,30,32,34,36,38,-1,-1,40,42,44,46,48,50,-1,-1,-1,-1,52,54,56,58,-1,60,62,64,-1,66,68,70,72,74,-1,76,-1,78,80,82,-1,-1,-1,-1,-1,-1,-1,-1,-1,-1,-1,-1,-1,-1,-1,-1,-1,-1,-1,-1,-1,-1,-1,-1,-1,-1,-1,-1,-1,-1,-1,-1],"split_conditions":[2.0311313E12,1.9832583E12,6.1362605E4,4.7811477E4,2.2482409E1,1.4634146E-1,6.618337E4,4.7295742E4,4.8348836E4,3.253913E1,4.811694E4,6.016619E4,1.8181819E-1,4.7964447E1,5.8326562E4,2.742919E3,4.1064984E4,3.9744516E4,3.1638998E1,-4.104492E1,1.0001075E2,1.3857214E2,4.6413372E1,5.1897586E10,6.089218E4,3.6914463E1,2.247338E3,2.9606836E1,2.8253125E2,-5.2101564E0,5.1711037E1,2.8049842E4,3.7485806E10,3.9974474E10,4.191023E4,1.8518086E2,2.1692004E10,2.9751003E1,4.3672886E1,-2.6908517E2,9.292281E1,2.0059419E12,4.320618E10,3.742157E4,6.625574E2,-1.8752461E2,6.022253E4,1.7820763E2,7.037605E1,1.6018755E3,5.2246876E1,-3.2096605E0,1.8903105E1,-1.1959761E2,-1.0919597E0,-5.275977E1,-7.0289063E0,-2.1436993E2,-1.172168E1,-5.639063E0,4.4889553E1,3.583637E1,-1.9494682E2,7.1689224E1,7.679102E0,-8.7613235E1,3.0564259E1,-1.6168687E2,-2.7770626E1,3.790919E1,-1.8787793E2,-6.4725784E1,1.3790956E2,1.3818091E2,1.1461507E1,3.4952347E1,-3.4164845E1,-2.5619446E2,-4.79625E1,-4.041707E0,9.920229E1,-8.220299E1,-6.6203732E0],"split_indices":[19,19,9,14,18,20,14,14,14,10,3,9,20,10,0,16,0,0,10,0,0,11,17,5,3,10,12,0,0,0,0,15,5,5,0,0,5,10,10,0,18,19,5,15,12,0,2,0,10,11,10,0,0,0,0,0,0,0,0,0,0,0,0,0,0,0,0,0,0,0,0,0,0,0,0,0,0,0,0,0,0,0,0],"split_type":[0,0,0,0,0,0,0,0,0,0,0,0,0,0,0,0,0,0,0,0,0,0,0,0,0,0,0,0,0,0,0,0,0,0,0,0,0,0,0,0,0,0,0,0,0,0,0,0,0,0,0,0,0,0,0,0,0,0,0,0,0,0,0,0,0,0,0,0,0,0,0,0,0,0,0,0,0,0,0,0,0,0,0],"sum_hessian":[1.77E3,1.623E3,1.47E2,1.582E3,4.1E1,1.4E2,7E0,1.465E3,1.17E2,7E0,3.4E1,5.9E1,8.1E1,3E0,4E0,1.459E3,6E0,6E0,1.11E2,3E0,4E0,9E0,2.5E1,5.5E1,4E0,6E0,7.5E1,1E0,2E0,1E0,3E0,1.435E3,2.4E1,3E0,3E0,2E0,4E0,4.1E1,7E1,2E0,7E0,8E0,1.7E1,1.8E1,3.7E1,2E0,2E0,1E0,5E0,4.1E1,3.4E1,1.315E3,1.2E2,7E0,1.7E1,2E0,1E0,2E0,1E0,1E0,3E0,3.3E1,8E0,2.9E1,4.1E1,6E0,1E0,4E0,4E0,1.6E1,1E0,2E0,1.6E1,3E0,3.4E1,1E0,1E0,3E0,2E0,2.5E1,1.6E1,9E0,2.5E1],"tree_param":{"num_deleted":"0","num_feature":"21","num_nodes":"83","size_leaf_vector":"1"}},{"base_weights":[5.0154036E-1,-3.6291485E0,8.247767E1,-1.316618E0,-2.4506177E2,1.0679104E2,-2.0369865E2,-2.360404E0,4.3453223E2,1.3642578E2,-4.8759686E2,-6.419385E1,1.4786865E2,-1.2178858E2,4.9489258E1,-7.2587407E-1,-2.4866264E2,1.546879E2,2.8687502E1,9.884356E1,-9.07334E1,-1.3927083E1,-6.0427344E2,1.8715105E2,-3.3893262E2,1.5981764E2,9.887096E1,2.4770315E1,-7.4619145E0,-5.0820622E0,9.82322E1,-2.9624414E2,3.4072853E1,-1.7098959E1,-4.674551E1,