{"learner":{"attributes":{},"feature_names":["Open","High","Low","Close","Adj Close","Volume","SMA_7","SMA_14","EMA_7","EMA_14","RSI","MACD","Signal Line","Bollinger_SMA","Upper_Band_BB","Lower_Band_BB","ATR","%K","%D","OBV","aggregated_sentiment"],"feature_types":["float","float","float","float","float","int","float","float","float","float","float","float","float","float","float","float","float","float","float","int","float"],"gradient_booster":{"model":{"gbtree_model_param":{"num_parallel_tree":"1","num_trees":"100"},"iteration_indptr":[0,1,2,3,4,5,6,7,8,9,10,11,12,13,14,15,16,17,18,19,20,21,22,23,24,25,26,27,28,29,30,31,32,33,34,35,36,37,38,39,40,41,42,43,44,45,46,47,48,49,50,51,52,53,54,55,56,57,58,59,60,61,62,63,64,65,66,67,68,69,70,71,72,73,74,75,76,77,78,79,80,81,82,83,84,85,86,87,88,89,90,91,92,93,94,95,96,97,98,99,100],"tree_info":[0,0,0,0,0,0,0,0,0,0,0,0,0,0,0,0,0,0,0,0,0,0,0,0,0,0,0,0,0,0,0,0,0,0,0,0,0,0,0,0,0,0,0,0,0,0,0,0,0,0,0,0,0,0,0,0,0,0,0,0,0,0,0,0,0,0,0,0,0,0,0,0,0,0,0,0,0,0,0,0,0,0,0,0,0,0,0,0,0,0,0,0,0,0,0,0,0,0,0,0],"trees":[{"base_weights":[-9.142522E-4,-1.018769E4,2.6957547E4,-1.1781295E4,1.1009352E3,1.9621387E4,3.596126E4,-1.53651E4,-9.780646E3,-1.6948126E3,3.6505977E3,1.4469002E4,2.2762225E4,9.11571E3,1.2247156E4,-5.0426377E3,-4.2603154E3,-1.1225311E4,-8.280723E3,-3.5125957E3,-9.636026E1,2.354144E3,4.8910005E3,3.4547217E3,4.8765166E3,6.2343115E3,7.434686E3,-3.51435E3,-3.1015867E3,-2.7122642E3,-2.1579553E3,-1.3416288E3,-2.6987278E3,-9.5425037E2,3.666652E2,5.1948315E2,8.609013E2,6.781219E2,1.5106184E3,-1.8761192E2,-8.6243835E2,-4.0410815E2,-1.3265771E2,1.2853879E1,1.9333556E2],"categories":[],"categories_nodes":[],"categories_segments":[],"categories_sizes":[],"default_left":[0,0,0,0,0,0,0,0,0,0,0,0,0,0,0,0,0,0,0,0,0,0,0,0,0,0,0,0,0,0,0,0,0,0,0,0,0,0,0,0,0,0,0,0,0],"id":0,"left_children":[1,3,5,7,9,11,13,15,17,19,21,23,25,-1,-1,-1,-1,27,29,31,33,35,37,-1,-1,-1,-1,-1,-1,-1,-1,-1,39,41,43,-1,-1,-1,-1,-1,-1,-1,-1,-1,-1],"loss_changes":[4.8665343E11,2.314761E10,3.1395971E10,7.930233E9,1.1467012E9,4.0400077E9,4.642767E9,4.3687117E8,1.4802043E9,2.2339579E8,1.2356838E8,3.6665344E8,1.4935654E8,0E0,0E0,0E0,0E0,3.808051E7,2.3257702E8,1.6043648E7,1.7033338E7,8.83096E6,4.571328E6,0E0,0E0,0E0,0E0,0E0,0E0,0E0,0E0,0E0,6.233264E6,2.421222E6,2.4910595E6,0E0,0E0,0E0,0E0,0E0,0E0,0E0,0E0,0E0,0E0],"parents":[2147483647,0,0,1,1,2,2,3,3,4,4,5,5,6,6,7,7,8,8,9,9,10,10,11,11,12,12,17,17,18,18,19,19,20,20,21,21,22,22,32,32,33,33,34,34],"right_children":[2,4,6,8,10,12,14,16,18,20,22,24,26,-1,-1,-1,-1,28,30,32,34,36,38,-1,-1,-1,-1,-1,-1,-1,-1,-1,40,42,44,-1,-1,-1,-1,-1,-1,-1,-1,-1,-1],"split_conditions":[2.452269E4,1.28992E4,4.4963074E4,5.90344E3,1.8917568E4,3.6457316E4,5.1762273E4,3.29329E3,8.659487E3,1.60998E4,2.1592207E4,3.256403E4,4.0553465E4,9.11571E3,1.2247156E4,-5.0426377E3,-4.2603154E3,7.45969E3,1.0198248E4,1.39806E4,1.77767E4,2.0471482E4,2.2314941E4,3.4547217E3,4.8765166E3,6.2343115E3,7.434686E3,-3.51435E3,-3.1015867E3,-2.7122642E3,-2.1579553E3,-1.3416288E3,1.2186564E4,1.66246E4,1.8699766E4,5.1948315E2,8.609013E2,6.781219E2,1.5106184E3,-1.8761192E2,-8.6243835E2,-4.0410815E2,-1.3265771E2,1.2853879E1,1.9333556E2],"split_indices":[2,3,3,3,7,3,3,1,3,3,3,1,3,0,0,0,0,3,3,3,3,3,1,0,0,0,0,0,0,0,0,0,7,3,3,0,0,0,0,0,0,0,0,0,0],"split_type":[0,0,0,0,0,0,0,0,0,0,0,0,0,0,0,0,0,0,0,0,0,0,0,0,0,0,0,0,0,0,0,0,0,0,0,0,0,0,0,0,0,0,0,0,0],"sum_hessian":[1.77E3,1.285E3,4.85E2,1.126E3,1.59E2,2.69E2,2.16E2,4.01E2,7.25E2,7.6E1,8.3E1,1.04E2,1.65E2,1.04E2,1.12E2,1.73E2,2.28E2,3.66E2,3.59E2,3.5E1,4.1E1,4.2E1,4.1E1,4.2E1,6.2E1,8.9E1,7.6E1,2.28E2,1.38E2,2.07E2,1.52E2,1.4E1,2.1E1,1.4E1,2.7E1,2.1E1,2.1E1,3E0,3.8E1,2E0,1.9E1,7E0,7E0,1.3E1,1.4E1],"tree_param":{"num_deleted":"0","num_feature":"21","num_nodes":"45","size_leaf_vector":"1"}},{"base_weights":[1.3223808E1,-7.14689E3,1.8959506E4,-8.238211E3,9.88435E2,1.4214505E4,2.5907648E4,-1.0940282E4,-6.8994297E3,-9.570532E2,2.597908E3,1.0499344E4,1.665229E4,6.722645E3,8.885783E3,-3.68513E3,-3.0979663E3,-7.816487E3,-5.604271E3,-1.9938228E3,1.366827E2,1.4940978E3,3.355852E3,8.707266E3,3.698383E3,4.6149917E3,5.593182E3,-2.5387808E3,-2.1934387E3,-1.8215715E3,-4.5791436E3,-2.3981455E3,-1.2678947E3,-4.4469205E2,3.2541196E2,1.1231533E3,5.116724E2,7.712613E2,1.1425704E3,1.6444337E3,2.7037832E3,-1.3809121E3,-3.1767072E2,-1.5008966E2,-7.688746E2,-1.0503223E1,-4.0603708E2,-3.2137386E1,-2.0799634E2,2.2193361E1,1.7714896E2,3.1110939E1,3.5526096E2],"categories":[],"categories_nodes":[],"categories_segments":[],"categories_sizes":[],"default_left":[0,0,0,0,0,0,0,0,0,0,0,0,0,0,0,0,0,0,0,0,0,0,0,0,0,0,0,0,0,0,0,0,0,0,0,0,0,0,0,0,0,0,0,0,0,0,0,0,0,0,0,0,0],"id":1,"left_children":[1,3,5,7,9,11,13,15,17,19,21,23,25,-1,-1,-1,-1,27,29,31,33,35,37,39,-1,-1,-1,-1,-1,-1,41,43,45,47,49,51,-1,-1,-1,-1,-1,-1,-1,-1,-1,-1,-1,-1,-1,-1,-1,-1,-1],"loss_changes":[2.4038502E11,1.1425571E10,1.5654633E10,4.0267366E9,4.8156157E8,2.4606843E9,1.8815959E9,1.8152653E8,8.600617E8,7.964917E7,6.526272E7,2.793431E8,1.5295693E8,0E0,0E0,0E0,0E0,8.267981E7,1.2512051E8,7.525728E6,3.9849935E6,9.0844E5,7.621888E6,1.2652544E7,0E0,0E0,0E0,0E0,0E0,0E0,3.87456E6,5.597336E6,1.534942E6,6.8108975E5,1.7559018E6,8.72988E5,0E0,0E0,0E0,0E0,0E0,0E0,0E0,0E0,0E0,0E0,0E0,0E0,0E0,0E0,0E0,0E0,0E0],"parents":[2147483647,0,0,1,1,2,2,3,3,4,4,5,5,6,6,7,7,8,8,9,9,10,10,11,11,12,12,17,17,18,18,19,19,20,20,21,21,22,22,23,23,30,30,31,31,32,32,33,33,34,34,35,35],"right_children":[2,4,6,8,10,12,14,16,18,20,22,24,26,-1,-1,-1,-1,28,30,32,34,36,38,40,-1,-1,-1,-1,-1,-1,42,44,46,48,50,52,-1,-1,-1,-1,-1,-1,-1,-1,-1,-1,-1,-1,-1,-1,-1,-1,-1],"split_conditions":[2.452269E4,1.3271285E4,4.6481105E4,5.337886E3,1.8917568E4,3.700244E4,5.5137312E4,2.1734E3,8.93088E3,1.66246E4,2.1239754E4,3.300576E4,4.2586918E4,6.722645E3,8.885783E3,-3.68513E3,-3.0979663E3,6.95527E3,1.079334E4,1.5332315E4,1.81541E4,1.6015893E12,2.3862714E2,2.88149E4,3.698383E3,4.6149917E3,5.593182E3,-2.5387808E3,-2.1934387E3,-1.8215715E3,1.1649557E3,1.2186564E4,1.9991768E2,1.1761975E3,1.00650354E3,1.832642E4,5.116724E2,7.712613E2,1.1425704E3,1.6444337E3,2.7037832E3,-1.3809121E3,-3.1767072E2,-1.5008966E2,-7.688746E2,-1.0503223E1,-4.0603708E2,-3.2137386E1,-2.0799634E2,2.2193361E1,1.7714896E2,3.1110939E1,3.5526096E2],"split_indices":[2,3,3,3,7,3,3,3,3,3,3,3,3,0,0,0,0,3,3,3,1,19,11,3,0,0,0,0,0,0,11,7,11,16,16,15,0,0,0,0,0,0,0,0,0,0,0,0,0,0,0,0,0],"split_type":[0,0,0,0,0,0,0,0,0,0,0,0,0,0,0,0,0,0,0,0,0,0,0,0,0,0,0,0,0,0,0,0,0,0,0,0,0,0,0,0,0,0,0,0,0,0,0,0,0,0,0,0,0],"sum_hessian":[1.77E3,1.285E3,4.85E2,1.133E3,1.52E2,2.9E2,1.95E2,3.73E2,7.6E2,6.9E1,8.3E1,1.17E2,1.73E2,1.04E2,9.1E1,1.11E2,2.62E2,4.42E2,3.18E2,3.5E1,3.4E1,3.5E1,4.8E1,6.2E1,5.5E1,1.11E2,6.2E1,1.87E2,2.55E2,2.15E2,1.03E2,2.1E1,1.4E1,8E0,2.6E1,1.5E1,2E1,2E1,2.8E1,7E0,5.5E1,1.02E2,1E0,2E0,1.9E1,1E0,1.3E1,4E0,4E0,1.4E1,1.2E1,1E0,1.4E1],"tree_param":{"num_deleted":"0","num_feature":"21","num_nodes":"53","size_leaf_vector":"1"}},{"base_weights":[2.0698439E1,-5.0133984E3,1.3341332E4,-5.820721E3,4.3100146E2,1.042989E4,1.9153688E4,-7.810921E3,-4.9209536E3,-1.2692341E3,1.6410575E3,7.979443E3,1.252465E4,5.228639E3,6.759689E3,-2.5714219E3,-2.2032332E3,-5.68104E3,-4.146188E3,-1.9021941E3,-2.5185854E2,7.467826E2,2.2984282E3,6.453513E3,2.820523E3,3.4074617E3,4.0917593E3,-1.7900513E3,-1.6035786E3,-1.3746555E3,-3.6193347E3,-2.3253308E3,-1.392594E3,-5.595014E2,5.2065365E1,8.047912E2,-2.949297E2,1.7669979E3,8.1968317E2,1.3507599E3,2.0446788E3,-1.1586525E3,-9.5476654E2,-7.175161E2,-1.396733E2,-1.2007168E2,-4.4154526E2,-2.2629259E2,-1.7396015E1,-3.9386208E1,6.867297E1,1.4136545E2,2.7797177E2,7.9586426E1,-2.123048E2,4.6166833E2,7.040686E2],"categories":[],"categories_nodes":[],"categories_segments":[],"categories_sizes":[],"default_left":[0,0,0,0,0,0,0,0,0,0,0,0,0,0,0,0,0,0,0,0,0,0,0,0,0,0,0,0,0,0,0,0,0,0,0,0,0,0,0,0,0,0,0,0,0,0,0,0,0,0,0,0,0,0,0,0,0],"id":2,"left_children":[1,3,5,7,9,11,13,15,17,19,21,23,25,-1,-1,-1,-1,27,29,31,33,35,37,39,-1,-1,-1,-1,-1,-1,41,43,45,47,49,51,53,55,-1,-1,-1,-1,-1,-1,-1,-1,-1,-1,-1,-1,-1,-1,-1,-1,-1,-1,-1],"loss_changes":[1.1882547E11,5.6549827E9,8.024482E9,1.9671613E9,3.4566538E8,1.5734497E9,5.455585E8,6.0235776E7,4.322468E8,4.4597976E7,5.5894816E7,2.7138662E8,7.129293E7,0E0,0E0,0E0,0E0,5.339136E6,7.231181E7,6.033872E6,2.6471312E6,2.835776E6,8.083488E6,2.3706624E7,0E0,0E0,0E0,0E0,0E0,0E0,6.80064E6,1.60276E6,1.140512E6,1.3240415E6,5.164269E5,1.228922E6,8.814343E5,9.2128E4,0E0,0E0,0E0,0E0,0E0,0E0,0E0,0E0,0E0,0E0,0E0,0E0,0E0,0E0,0E0,0E0,0E0,0E0,0E0],"parents":[2147483647,0,0,1,1,2,2,3,3,4,4,5,5,6,6,7,7,8,8,9,9,10,10,11,11,12,12,17,17,18,18,19,19,20,20,21,21,22,22,23,23,30,30,31,31,32,32,33,33,34,34,35,35,36,36,37,37],"right_children":[2,4,6,8,10,12,14,16,18,20,22,24,26,-1,-1,-1,-1,28,30,32,34,36,38,40,-1,-1,-1,-1,-1,-1,42,44,46,48,50,52,54,56,-1,-1,-1,-1,-1,-1,-1,-1,-1,-1,-1,-1,-1,-1,-1,-1,-1,-1,-1],"split_conditions":[2.452269E4,1.1991233E4,4.811694E4,4.82648E3,1.8699766E4,3.870598E4,5.8346652E4,2.39884E3,8.259992E3,1.60998E4,2.0836328E4,3.392296E4,4.3193234E4,5.228639E3,6.759689E3,-2.5714219E3,-2.2032332E3,6.83476E3,9.795943E3,1.39806E4,1.5126954E12,7.652359E1,2.2805162E4,2.9267225E4,2.820523E3,3.4074617E3,4.0917593E3,-1.7900513E3,-1.6035786E3,-1.3746555E3,1.1111214E4,1.54274E4,1.2186564E4,2.0334683E3,1.01118384E3,1.9345121E4,1.8621316E4,6.2163834E1,8.1968317E2,1.3507599E3,2.0446788E3,-1.1586525E3,-9.5476654E2,-7.175161E2,-1.396733E2,-1.2007168E2,-4.4154526E2,-2.2629259E2,-1.7396015E1,-3.9386208E1,6.867297E1,1.4136545E2,2.7797177E2,7.9586426E1,-2.123048E2,4.6166833E2,7.040686E2],"split_indices":[2,3,3,3,3,3,3,3,3,3,3,3,3,0,0,0,0,3,3,3,19,10,3,3,0,0,0,0,0,0,3,0,7,12,12,3,0,10,0,0,0,0,0,0,0,0,0,0,0,0,0,0,0,0,0,0,0],"split_type":[0,0,0,0,0,0,0,0,0,0,0,0,0,0,0,0,0,0,0,0,0,0,0,0,0,0,0,0,0,0,0,0,0,0,0,0,0,0,0,0,0,0,0,0,0,0,0,0,0,0,0,0,0,0,0,0,0],"sum_hessian":[1.77E3,1.285E3,4.85E2,1.119E3,1.66E2,3.25E2,1.6E2,3.46E2,7.73E2,6.9E1,9.7E1,1.52E2,1.73E2,1.1E2,5E1,1.25E2,2.21E2,3.87E2,3.86E2,4.2E1,2.7E1,4.2E1,5.5E1,7.6E1,7.6E1,9E1,8.3E1,2E2,1.87E2,2.07E2,1.79E2,2.1E1,2.1E1,1.3E1,1.4E1,4E1,2E0,2.7E1,2.8E1,1.4E1,6.2E1,1.1E2,6.9E1,2E1,1E0,2E0,1.9E1,9E0,4E0,7E0,7E0,1.2E1,2.8E1,1E0,1E0,2.2E1,5E0],"tree_param":{"num_deleted":"0","num_feature":"21","num_nodes":"57","size_leaf_vector":"1"}},{"base_weights":[2.278128E1,-3.5179463E3,9.39182E3,-4.0715874E3,4.0374927E2,7.4484585E3,1.3779711E4,-5.5053706E3,-3.447783E3,-6.117402E2,1.3298081E3,5.626237E3,8.899536E3,3.844233E3,5.1451826E3,-1.8519504E3,-1.5640192E3,-1.2143861E3,-2.9361064E3,-1.252718E3,-4.7765438E1,9.3430707E2,1.9433E3,3.9852026E3,6.338469E3,2.4086213E3,2.9246567E3,-9.844396E2,-2.5533867E3,-1.5869005E3,-9.679245E2,-4.2557455E2,1.0002407E2,6.469697E2,1.2078124E3,1.5529572E2,1.9725903E3,4.5702817E2,1.2172638E3,1.613564E3,2.0224785E3,-8.02269E2,-5.7678595E2,-1.8104935E2,-5.347379E2,-1.662041E1,-3.0262195E2,-1.9362695E2,-5.290095E1,-7.337432E1,6.3217434E1,6.0292774E1,2.0206415E2,3.8267438E2,7.891739E1,6.002943E2,1.6813037E2],"categories":[],"categories_nodes":[],"categories_segments":[],"categories_sizes":[],"default_left":[0,0,0,0,0,0,0,0,0,0,0,0,0,0,0,0,0,0,0,0,0,0,0,0,0,0,0,0,0,0,0,0,0,0,0,0,0,0,0,0,0,0,0,0,0,0,0,0,0,0,0,0,0,0,0,0,0],"id":3,"left_children":[1,3,5,7,9,11,13,15,17,19,21,23,25,-1,-1,-1,-1,-1,27,29,31,33,35,37,39,-1,-1,-1,41,43,45,47,49,51,53,-1,55,-1,-1,-1,-1,-1,-1,-1,-1,-1,-1,-1,-1,-1,-1,-1,-1,-1,-1,-1,-1],"loss_changes":[5.8782806E10,2.7938212E9,4.0416092E9,9.890079E8,1.5127797E8,8.463094E8,2.6196378E8,3.410944E7,2.3010406E8,2.7775302E7,1.856584E7,1.535662E8,6.0030976E7,0E0,0E0,0E0,0E0,0E0,4.832435E7,1.890228E6,2.387689E6,3.383764E6,3.1512E5,2.545088E6,4.371712E6,0E0,0E0,0E0,1.071296E7,1.808992E6,7.63502E5,5.4372425E5,1.2341282E6,1.96527E5,1.329092E6,0E0,1.21448E5,0E0,0E0,0E0,0E0,0E0,0E0,0E0,0E0,0E0,0E0,0E0,0E0,0E0,0E0,0E0,0E0,0E0,0E0,0E0,0E0],"parents":[2147483647,0,0,1,1,2,2,3,3,4,4,5,5,6,6,7,7,8,8,9,9,10,10,11,11,12,12,18,18,19,19,20,20,21,21,22,22,23,23,24,24,28,28,29,29,30,30,31,31,32,32,33,33,34,34,36,36],"right_children":[2,4,6,8,10,12,14,16,18,20,22,24,26,-1,-1,-1,-1,-1,28,30,32,34,36,38,40,-1,-1,-1,42,44,46,48,50,52,54,-1,56,-1,-1,-1,-1,-1,-1,-1,-1,-1,-1,-1,-1,-1,-1,-1,-1,-1,-1,-1,-1],"split_conditions":[2.452269E4,1.3184566E4,4.8927305E4,4.59712E3,1.8917568E4,3.870598E4,6.089218E4,1.42103E3,8.052544E3,1.60998E4,5.5926285E1,3.179681E4,4.3574508E4,3.844233E3,5.1451826E3,-1.8519504E3,-1.5640192E3,-1.2143861E3,9.656718E3,1.39487E4,1.6737182E11,2.0836328E4,-7.162613E2,2.3823916E4,3.4316387E4,2.4086213E3,2.9246567E3,-9.844396E2,1.1601473E4,1.4028538E11,1.0918665E10,7.882243E1,1.8982258E4,7.917153E2,7.315899E1,1.5529572E2,5.1897586E10,4.5702817E2,1.2172638E3,1.613564E3,2.0224785E3,-8.02269E2,-5.7678595E2,-1.8104935E2,-5.347379E2,-1.662041E1,-3.0262195E2,-1.9362695E2,-5.290095E1,-7.337432E1,6.3217434E1,6.0292774E1,2.0206415E2,3.8267438E2,7.891739E1,6.002943E2,1.6813037E2],"split_indices":[2,1,3,3,7,3,3,0,3,3,10,3,3,0,0,0,0,0,3,0,19,3,11,7,3,0,0,0,3,19,5,17,14,16,18,0,5,0,0,0,0,0,0,0,0,0,0,0,0,0,0,0,0,0,0,0,0],"split_type":[0,0,0,0,0,0,0,0,0,0,0,0,0,0,0,0,0,0,0,0,0,0,0,0,0,0,0,0,0,0,0,0,0,0,0,0,0,0,0,0,0,0,0,0,0,0,0,0,0,0,0,0,0,0,0,0,0],"sum_hessian":[1.77E3,1.285E3,4.85E2,1.126E3,1.59E2,3.38E2,1.47E2,3.39E2,7.87E2,7.6E1,8.3E1,1.52E2,1.86E2,1.18E2,2.9E1,9.7E1,2.42E2,3.59E2,4.28E2,3.5E1,4.1E1,5.2E1,3.1E1,4.8E1,1.04E2,9.7E1,8.9E1,2.21E2,2.07E2,1.4E1,2.1E1,1.1E1,3E1,2.7E1,2.5E1,1E0,3E1,2E0,4.6E1,3.5E1,6.9E1,1.71E2,3.6E1,3E0,1.1E1,1E0,2E1,5E0,6E0,7E0,2.3E1,2E0,2.5E1,2.3E1,2E0,2.9E1,1E0],"tree_param":{"num_deleted":"0","num_feature":"21","num_nodes":"57","size_leaf_vector":"1"}},{"base_weights":[2.3284443E1,-2.44359E3,6.6822524E3,-2.836501E3,5.0251926E2,5.474508E3,1.02498E4,-3.6012764E3,-2.2235876E3,-9.210262E1,1.2088867E3,4.277072E3,6.6481826E3,2.778732E3,3.5234197E3,-1.226557E3,-9.491009E2,-2.500892E3,-1.7854258E3,-6.3133826E2,1.887891E2,8.799868E2,1.6435386E3,3.397251E3,1.464462E3,1.7925411E3,2.1038198E3,-8.107876E2,-7.076727E2,-1.8896802E3,-1.3192056E3,-8.769594E2,-4.3251648E2,4.137433E2,3.106158E1,7.572304E2,3.9211438E2,1.6849667E3,7.253262E1,7.6747626E2,1.0998575E3,-2.120639E2,-5.7118774E2,-4.2057523E2,-1.1465186E1,-1.07798386E2,-3.2725775E2,1.0269727E2,-1.4946964E2,9.942501E1,2.1658214E2,-2.7990065E1,8.9871796E1,2.3498763E2,6.544258E1,3.529982E2,5.833966E2],"categories":[],"categories_nodes":[],"categories_segments":[],"categories_sizes":[],"default_left":[0,0,0,0,0,0,0,0,0,0,0,0,0,0,0,0,0,0,0,0,0,0,0,0,0,0,0,0,0,0,0,0,0,0,0,0,0,0,0,0,0,0,0,0,0,0,0,0,0,0,0,0,0,0,0,0,0],"id":4,"left_children":[1,3,5,7,9,11,13,15,17,19,21,23,25,-1,-1,-1,-1,27,29,31,33,35,37,39,-1,-1,-1,-1,-1,41,43,45,47,49,51,53,-1,55,-1,-1,-1,-1,-1,-1,-1,-1,-1,-1,-1,-1,-1,-1,-1,-1,-1,-1,-1],"loss_changes":[2.9108259E10,1.4981484E9,2.0077507E9,5.2682547E8,6.437463E7,4.7750963E8,6.833869E7,9.495603E7,7.281178E7,1.2842403E7,8.560696E6,7.967616E7,2.26304E6,0E0,0E0,0E0,0E0,4.70912E6,9.658432E6,1.03691E6,1.9741106E6,1.212092E6,1.27672E6,7.9952E6,0E0,0E0,0E0,0E0,0E0,2.065792E6,5.13812E6,9.36679E5,1.0871008E6,3.4431175E5,1.1632955E6,3.20866E5,0E0,1.407832E6,0E0,0E0,0E0,0E0,0E0,0E0,0E0,0E0,0E0,0E0,0E0,0E0,0E0,0E0,0E0,0E0,0E0,0E0,0E0],"parents":[2147483647,0,0,1,1,2,2,3,3,4,4,5,5,6,6,7,7,8,8,9,9,10,10,11,11,12,12,17,17,18,18,19,19,20,20,21,21,22,22,23,23,29,29,30,30,31,31,32,32,33,33,34,34,35,35,37,37],"right_children":[2,4,6,8,10,12,14,16,18,20,22,24,26,-1,-1,-1,-1,28,30,32,34,36,38,40,-1,-1,-1,-1,-1,42,44,46,48,50,52,54,-1,56,-1,-1,-1,-1,-1,-1,-1,-1,-1,-1,-1,-1,-1,-1,-1,-1,-1,-1,-1],"split_conditions":[2.9401916E4,1.39487E4,5.078454E4,6.59654E3,2.0471482E4,4.0218477E4,5.7807863E4,3.7615571E3,9.461059E3,1.66246E4,2.3671928E4,3.4316387E4,4.4118445E4,2.778732E3,3.5234197E3,-1.226557E3,-9.491009E2,7.707771E3,1.1601473E4,4.9240685E1,5.2122475E1,6.2163834E1,2.9837008E4,3.1006188E4,1.464462E3,1.7925411E3,2.1038198E3,-8.107876E2,-7.076727E2,5.705209E3,9.6727776E1,4.200444E1,4.0116174E2,2.2648014E4,1.91408E4,3.5708973E4,3.9211438E2,2.3125393E4,7.253262E1,7.6747626E2,1.0998575E3,-2.120639E2,-5.7118774E2,-4.2057523E2,-1.1465186E1,-1.07798386E2,-3.2725775E2,1.0269727E2,-1.4946964E2,9.942501E1,2.1658214E2,-2.7990065E1,8.9871796E1,2.3498763E2,6.544258E1,3.529982E2,5.833966E2],"split_indices":[1,0,3,3,3,3,2,3,3,3,1,3,3,0,0,0,0,3,3,17,18,10,7,1,0,0,0,0,0,15,17,10,12,7,3,14,0,6,0,0,0,0,0,0,0,0,0,0,0,0,0,0,0,0,0,0,0],"split_type":[0,0,0,0,0,0,0,0,0,0,0,0,0,0,0,0,0,0,0,0,0,0,0,0,0,0,0,0,0,0,0,0,0,0,0,0,0,0,0,0,0,0,0,0,0,0,0,0,0,0,0,0,0,0,0,0,0],"sum_hessian":[1.77E3,1.292E3,4.78E2,1.14E3,1.52E2,3.59E2,1.19E2,5.05E2,6.35E2,8.3E1,6.9E1,1.8E2,1.79E2,7.6E1,4.3E1,2.35E2,2.7E2,3.86E2,2.49E2,2.8E1,5.5E1,4.1E1,2.8E1,7.6E1,1.04E2,6.9E1,1.1E2,1.52E2,2.34E2,2.01E2,4.8E1,1.1E1,1.7E1,2.2E1,3.3E1,3.4E1,7E0,2.7E1,1E0,2.1E1,5.5E1,3E0,1.98E2,4.5E1,3E0,4E0,7E0,1E0,1.6E1,1.9E1,3E0,2.3E1,1E1,3.2E1,2E0,1.1E1,1.6E1],"tree_param":{"num_deleted":"0","num_feature":"21","num_nodes":"57","size_leaf_vector":"1"}},{"base_weights":[2.206904E1,-1.713142E3,4.706006E3,-2.0042809E3,2.6186804E2,3.7114758E3,6.905181E3,-2.7927083E3,-1.709658E3,-3.120137E2,7.445826E2,2.7943572E3,4.349455E3,1.7664824E3,7.8968013E3,-9.378223E2,-7.8666455E2,-1.971488E3,-1.4195651E3,-7.0255176E2,-7.45113E1,4.8754517E2,1.1237357E3,5.9091925E2,3.0529358E3,2.4217229E2,4.382149E3,2.1833958E3,2.8823347E3,-2.1054185E3,-1.8365198E3,-1.5481528E3,-1.1304587E3,-7.568066E2,-1.7425732E2,-2.0687029E2,1.2775273E2,4.1619263E2,8.1392035E2,7.9786633E2,1.318506E3,2.8127244E3,1.06551E3,1.1548336E3,1.391065E3,-1.5049571E2,-6.3321515E2,-5.5215607E2,-1.4286652E2,-4.6570334E2,-6.309595E1,-3.4540445E2,-6.3215336E1,2.0425782E0,-2.3628706E2,-1.4230958E1,-6.0215626E1,-1.0117611E2,4.044909E1,-1.4170312E2,7.8431114E1,1.0292129E2,1.8209055E2,2.5971423E2,5.993555E1,1.1618365E2,2.58848E2,6.1652637E1,4.0916412E2,5.4306055E2,8.7660144E2],"categories":[],"categories_nodes":[],"categories_segments":[],"categories_sizes":[],"default_left":[0,0,0,0,0,0,0,0,0,0,0,0,0,0,0,0,0,0,0,0,0,0,0,0,0,0,0,0,0,0,0,0,0,0,0,0,0,0,0,0,0,0,0,0,0,0,0,0,0,0,0,0,0,0,0,0,0,0,0,0,0,0,0,0,0,0,0,0,0,0,0],"id":5,"left_children":[1,3,5,7,9,11,13,15,17,19,21,23,25,-1,27,-1,-1,29,31,33,35,37,39,-1,41,-1,43,-1,-1,45,47,49,51,53,55,57,59,61,63,65,67,69,-1,-1,-1,-1,-1,-1,-1,-1,-1,-1,-1,-1,-1,-1,-1,-1,-1,-1,-1,-1,-1,-1,-1,-1,-1,-1,-1,-1,-1],"loss_changes":[1.4402076E10,7.4400256E8,1.02201446E9,2.570153E8,4.649484E7,1.8209997E8,1.0274202E8,9.137664E6,5.9712256E7,7.0896885E6,8.320672E6,2.36256E7,1.8929408E7,0E0,6.307328E6,0E0,0E0,3.906304E6,1.2897088E7,6.99334E5,1.3382299E6,9.65364E5,1.232916E6,0E0,2.470208E6,0E0,8.204288E6,0E0,0E0,7.17184E5,3.3152E5,1.187456E6,2.158992E6,6.17203E5,3.902039E3,1.3820346E6,1.7279579E6,4.613595E5,1.13318E5,9.2595E4,7.80244E5,2.927232E6,0E0,0E0,0E0,0E0,0E0,0E0,0E0,0E0,0E0,0E0,0E0,0E0,0E0,0E0,0E0,0E0,0E0,0E0,0E0,0E0,0E0,0E0,0E0,0E0,0E0,0E0,0E0,0E0,0E0],"parents":[2147483647,0,0,1,1,2,2,3,3,4,4,5,5,6,6,7,7,8,8,9,9,10,10,11,11,12,12,14,14,17,17,18,18,19,19,20,20,21,21,22,22,24,24,26,26,29,29,30,30,31,31,32,32,33,33,34,34,35,35,36,36,37,37,38,38,39,39,40,40,41,41],"right_children":[2,4,6,8,10,12,14,16,18,20,22,24,26,-1,28,-1,-1,30,32,34,36,38,40,-1,42,-1,44,-1,-1,46,48,50,52,54,56,58,60,62,64,66,68,70,-1,-1,-1,-1,-1,-1,-1,-1,-1,-1,-1,-1,-1,-1,-1,-1,-1,-1,-1,-1,-1,-1,-1,-1,-1,-1,-1,-1,-1],"split_conditions":[2.8936734E4,1.3184566E4,4.987877E4,4.139878E3,1.9345121E4,3.9621836E4,5.7248457E4,1.42103E3,8.458453E3,1.5332315E4,2.2805162E4,3.1533068E4,3.6825367E4,1.7664824E3,6.3742285E4,-9.378223E2,-7.8666455E2,6.62248E3,1.0771057E4,1.4198344E3,2.777778E-1,6.1773563E1,1.5863632E12,5.9091925E2,5.0489895E1,2.4217229E2,4.2775777E4,2.1833958E3,2.8823347E3,-1.086148E3,9.796998E1,7.7636053E2,9.6727776E1,1.0918665E10,1.1972719E4,1.7998129E4,1.49461045E4,2.2348602E4,4.608893E10,5.6842285E1,8.022756E-1,3.6024035E4,1.06551E3,1.1548336E3,1.391065E3,-1.5049571E2,-6.3321515E2,-5.5215607E2,-1.4286652E2,-4.6570334E2,-6.309595E1,-3.4540445E2,-6.3215336E1,2.0425782E0,-2.3628706E2,-1.4230958E1,-6.0215626E1,-1.0117611E2,4.044909E1,-1.4170312E2,7.8431114E1,1.0292129E2,1.8209055E2,2.5971423E2,5.993555E1,1.1618365E2,2.58848E2,6.1652637E1,4.0916412E2,5.4306055E2,8.7660144E2],"split_indices":[0,1,1,3,3,1,3,0,1,3,3,3,3,0,1,0,0,3,1,11,20,10,19,0,10,0,1,0,0,11,18,11,17,5,0,7,9,8,5,18,17,14,0,0,0,0,0,0,0,0,0,0,0,0,0,0,0,0,0,0,0,0,0,0,0,0,0,0,0,0,0],"split_type":[0,0,0,0,0,0,0,0,0,0,0,0,0,0,0,0,0,0,0,0,0,0,0,0,0,0,0,0,0,0,0,0,0,0,0,0,0,0,0,0,0,0,0,0,0,0,0,0,0,0,0,0,0,0,0,0,0,0,0,0,0,0,0,0,0,0,0,0,0,0,0],"sum_hessian":[1.77E3,1.292E3,4.78E2,1.126E3,1.66E2,3.31E2,1.47E2,3.04E2,8.22E2,7.6E1,9E1,1.38E2,1.93E2,7.6E1,7.1E1,9.7E1,2.07E2,4.29E2,3.93E2,2.8E1,4.8E1,5.5E1,3.5E1,3.5E1,1.03E2,2E0,1.91E2,5.6E1,1.5E1,2.08E2,2.21E2,2.69E2,1.24E2,2.5E1,3E0,2.9E1,1.9E1,4.7E1,8E0,1.5E1,2E1,7.4E1,2.9E1,6.7E1,1.24E2,1E0,2.07E2,2.2E2,1E0,2.68E2,1E0,1.21E2,3E0,1E0,2.4E1,1E0,2E0,2.1E1,8E0,3E0,1.6E1,3.6E1,1.1E1,7E0,1E0,3E0,1.2E1,1E0,1.9E1,9E0,6.5E1],"tree_param":{"num_deleted":"0","num_feature":"21","num_nodes":"71","size_leaf_vector":"1"}},{"base_weights":[2.0854008E1,-1.2265115E3,3.2568774E3,-1.4477234E3,-1.25035866E2,2.5049563E3,4.7918643E3,-1.9694286E3,-1.2434058E3,-5.8520593E2,3.113866E2,1.6042842E3,2.8683499E3,3.7792676E3,5.3878413E3,-6.642531E2,-5.5586487E2,-1.4339883E3,-1.0778406E3,-6.7558954E2,-3.2504236E2,6.495731E1,4.9811118E2,1.241915E3,1.8538839E3,2.4819333E3,3.1859998E3,3.872904E3,4.2897073E2,1.5311084E3,2.2986702E3,-1.4366981E3,-7.1607864E1,-1.175098E3,-9.609901E2,-7.223379E2,-1.8209277E2,-3.6993353E2,1.8732552E2,1.1441256E1,2.4879083E2,4.006408E2,9.2245825E2,1.0852411E3,5.677897E2,1.6168136E3,2.513669E3,2.3445386E3,3.2049583E3,9.640084E2,4.6444162E2,4.3058832E2,3.9322131E3,-4.318127E2,-7.413311E1,-2.1368698E2,-3.5672125E2,-2.9326782E2,-1.535349E2,4.4181007E1,-2.2112259E2,6.72837E1,-1.0647896E2,-6.636006E1,-1.4767291E2,9.604893E1,-1.1752441E1,2.503072E1,-8.3390045E1,1.5911217E1,1.4192625E2,9.590016E1,1.5264207E2,3.55926E2,1.105261E2,5.240479E1,3.3170465E2,4.97593E2,1.4767891E2,8.949592E2,2.1342921E2,6.463242E1,7.0934174E2,1.0250742E3,3.6544922E2,1.1901349E3,2.9141135E2],"categories":[],"categories_nodes":[],"categories_segments":[],"categories_sizes":[],"default_left":[0,0,0,0,0,0,0,0,0,0,0,0,0,0,0,0,0,0,0,0,0,0,0,0,0,0,0,0,0,0,0,0,0,0,0,0,0,0,0,0,0,0,0,0,0,0,0,0,0,0,0,0,0,0,0,0,0,0,0,0,0,0,0,0,0,0,0,0,0,0,0,0,0,0,0,0,0,0,0,0,0,0,0,0,0,0,0],"id":6,"left_children":[1,3,5,7,9,11,13,15,17,19,21,23,25,27,29,-1,-1,31,33,35,37,39,41,43,45,47,49,51,-1,-1,-1,53,-1,55,57,59,61,63,65,67,69,71,73,75,-1,77,79,81,83,-1,-1,-1,85,-1,-1,-1,-1,-1,-1,-1,-1,-1,-1,-1,-1,-1,-1,-1,-1,-1,-1,-1,-1,-1,-1,-1,-1,-1,-1,-1,-1,-1,-1,-1,-1,-1,-1],"loss_changes":[7.152643E9,3.114596E8,5.57012E8,1.1107328E8,4.3360364E7,1.0438886E8,7.679846E7,4.397696E6,2.2687744E7,2.249432E6,5.075243E6,6.56144E6,2.106048E7,8.32128E6,2.487424E7,0E0,0E0,8.03648E5,3.58704E6,1.644872E6,7.3632075E5,4.7921772E5,2.236185E6,2.329908E6,4.695136E6,3.512576E6,6.72E5,3.030528E6,0E0,0E0,0E0,7.68704E5,0E0,5.88672E5,9.43648E5,1.005644E6,6.414921E5,3.8228625E5,1.0280557E5,8.357878E5,4.5788394E5,3.01557E5,1.171591E6,4.95524E5,0E0,1.25324E6,8.878296E6,3.607392E6,2.154336E6,0E0,0E0,0E0,2.140224E6,0E0,0E0,0E0,0E0,0E0,0E0,0E0,0E0,0E0,0E0,0E0,0E0,0E0,0E0,0E0,0E0,0E0,0E0,0E0,0E0,0E0,0E0,0E0,0E0,0E0,0E0,0E0,0E0,0E0,0E0,0E0,0E0,0E0,0E0],"parents":[2147483647,0,0,1,1,2,2,3,3,4,4,5,5,6,6,7,7,8,8,9,9,10,10,11,11,12,12,13,13,14,14,17,17,18,18,19,19,20,20,21,21,22,22,23,23,24,24,25,25,26,26,27,27,31,31,33,33,34,34,35,35,36,36,37,37,38,38,39,39,40,40,41,41,42,42,43,43,45,45,46,46,47,47,48,48,52,52],"right_children":[2,4,6,8,10,12,14,16,18,20,22,24,26,28,30,-1,-1,32,34,36,38,40,42,44,46,48,50,52,-1,-1,-1,54,-1,56,58,60,62,64,66,68,70,72,74,76,-1,78,80,82,84,-1,-1,-1,86,-1,-1,-1,-1,-1,-1,-1,-1,-1,-1,-1,-1,-1,-1,-1,-1,-1,-1,-1,-1,-1,-1,-1,-1,-1,-1,-1,-1,-1,-1,-1,-1,-1,-1],"split_conditions":[2.3869832E4,1.1570786E4,4.813747E4,4.0874763E3,1.66246E4,3.654211E4,5.31296E4,1.24997E3,7.7811797E3,1.4593E4,2.0190115E4,3.0395504E4,4.095138E4,5.6297855E4,6.4261992E4,-6.642531E2,-5.5586487E2,7.5417144E3,9.505052E3,9.5158585E1,2.1650566E3,9.003821E1,8.382372E1,2.1135886E3,5.319149E-1,8.285603E1,1.1E0,4.3706285E4,4.2897073E2,1.5311084E3,2.2986702E3,5.977875E2,-7.1607864E1,-1.1154296E3,6.712446E2,1.9756998E1,1.1841957E4,1.5246189E4,1.6685691E4,1.2564524E3,1.9666762E4,2.2487389E4,1.8265596E12,8.022756E-1,5.677897E2,6.8564705E10,3.6974625E4,3.281574E4,6.296296E-1,9.640084E2,4.6444162E2,4.3058832E2,9.7065025E1,-4.318127E2,-7.413311E1,-2.1368698E2,-3.5672125E2,-2.9326782E2,-1.535349E2,4.4181007E1,-2.2112259E2,6.72837E1,-1.0647896E2,-6.636006E1,-1.4767291E2,9.604893E1,-1.1752441E1,2.503072E1,-8.3390045E1,1.5911217E1,1.4192625E2,9.590016E1,1.5264207E2,3.55926E2,1.105261E2,5.240479E1,3.3170465E2,4.97593E2,1.4767891E2,8.949592E2,2.1342921E2,6.463242E1,7.0934174E2,1.0250742E3,3.6544922E2,1.1901349E3,2.9141135E2],"split_indices":[3,1,0,3,3,1,2,2,1,1,3,6,3,6,3,0,0,15,1,17,11,17,17,11,20,17,20,2,0,0,0,11,0,12,11,10,1,8,0,12,14,3,19,17,0,5,13,6,20,0,0,0,18,0,0,0,0,0,0,0,0,0,0,0,0,0,0,0,0,0,0,0,0,0,0,0,0,0,0,0,0,0,0,0,0,0,0],"split_type":[0,0,0,0,0,0,0,0,0,0,0,0,0,0,0,0,0,0,0,0,0,0,0,0,0,0,0,0,0,0,0,0,0,0,0,0,0,0,0,0,0,0,0,0,0,0,0,0,0,0,0,0,0,0,0,0,0,0,0,0,0,0,0,0,0,0,0,0,0,0,0,0,0,0,0,0,0,0,0,0,0,0,0,0,0,0,0],"sum_hessian":[1.77E3,1.278E3,4.92E2,1.064E3,2.14E2,3.32E2,1.6E2,2.97E2,7.67E2,1.04E2,1.1E2,9.7E1,2.35E2,6.2E1,9.8E1,9E1,2.07E2,3.53E2,4.14E2,7.6E1,2.8E1,4.8E1,6.2E1,4.2E1,5.5E1,1.1E2,1.25E2,5.9E1,3E0,9E1,8E0,3.52E2,1E0,2.21E2,1.93E2,6.9E1,7E0,2.6E1,2E0,3.8E1,1E1,5.2E1,1E1,3.6E1,6E0,4.3E1,1.2E1,9.6E1,1.4E1,1.22E2,3E0,2E0,5.7E1,3.51E2,1E0,8E0,2.13E2,1.85E2,8E0,1E0,6.8E1,2E0,5E0,1.3E1,1.3E1,1E0,1E0,3.1E1,7E0,6E0,4E0,3.2E1,2E1,6E0,4E0,1E0,3.5E1,4.1E1,2E0,9E0,3E0,1E0,9.5E1,1.2E1,2E0,5.6E1,1E0],"tree_param":{"num_deleted":"0","num_feature":"21","num_nodes":"87","size_leaf_vector":"1"}},{"base_weights":[2.0313812E1,-8.4327356E2,2.3514165E3,-9.913846E2,1.14931046E2,1.9247463E3,3.716341E3,-1.2818884E3,-7.9508325E2,-1.7731197E2,3.8343085E2,1.5344382E3,2.348856E3,3.1231414E3,4.4013096E3,-1.4673884E3,-1.1262544E3,-8.903071E2,-6.4397437E2,-3.3129462E2,-1.54413595E1,2.3186382E2,5.6261346E2,1.2707897E3,1.8865553E3,2.0643076E3,2.5914973E3,1.9644142E2,3.1922039E3,1.4839164E3,3.1574824E3,-4.9234674E2,-4.203033E2,-6.314949E1,-1.1290983E3,-9.304224E2,-7.906032E2,-6.659615E2,-3.588863E2,-6.4505597E2,-2.7303506E2,2.0466699E2,-6.531066E1,9.188324E1,3.348876E2,4.8240344E2,9.501048E2,1.0965562E3,1.8784757E3,2.0523943E3,1.1414918E3,2.2906914E2,2.0864514E3,2.6323655E3,4.110795E2,1.2711387E3,3.2683403E3,2.595996E2,3.2414128E3,-3.3948752E2,-7.574839E1,-2.8475085E2,-1.795707E2,-3.6024097E1,-2.3852351E2,-2.0945482E2,-1.5260197E2,-1.2440979E2,-5.4019046E0,-3.6726273E1,-2.1752965E2,1.9741055E1,-9.445014E1,-1.371211E1,1.0920985E2,-1.6311288E-1,-9.729024E1,4.4119164E1,-6.2097218E1,-2.6369143E0,1.0820122E2,1.530846E2,1.6935548E0,4.024045E2,1.25743805E2,3.3585065E2,1.5092189E1,9.0454297E2,4.501155E2,7.295427E2,4.9048E2,7.0221214E1,4.208079E2,6.291242E2,1.8222891E2,5.928021E2,8.2624854E2,4.6254846E2,6.886055E1,2.4700783E2,9.8888983E2,3.9715274E2,1.02264984E3],"categories":[],"categories_nodes":[],"categories_segments":[],"categories_sizes":[],"default_left":[0,0,0,0,0,0,0,0,0,0,0,0,0,0,0,0,0,0,0,0,0,0,0,0,0,0,0,0,0,0,0,0,0,0,0,0,0,0,0,0,0,0,0,0,0,0,0,0,0,0,0,0,0,0,0,0,0,0,0,0,0,0,0,0,0,0,0,0,0,0,0,0,0,0,0,0,0,0,0,0,0,0,0,0,0,0,0,0,0,0,0,0,0,0,0,0,0,0,0,0,0,0,0],"id":7,"left_children":[1,3,5,7,9,11,13,15,17,19,21,23,25,27,29,31,33,35,37,39,41,43,45,47,49,51,53,-1,55,-1,57,-1,-1,-1,59,61,63,65,67,69,71,73,75,77,79,81,83,85,87,89,91,-1,93,95,-1,97,99,-1,101,-1,-1,-1,-1,-1,-1,-1,-1,-1,-1,-1,-1,-1,-1,-1,-1,-1,-1,-1,-1,-1,-1,-1,-1,-1,-1,-1,-1,-1,-1,-1,-1,-1,-1,-1,-1,-1,-1,-1,-1,-1,-1,-1,-1],"loss_changes":[3.567202E9,1.8361728E8,2.718034E8,6.2850176E7,1.3721278E7,5.7146624E7,3.2168576E7,1.1338944E7,9.081824E6,2.0886068E6,2.340944E6,1.561264E7,6.663872E6,8.819776E6,1.828096E7,3.0592E4,4.10784E5,9.00288E5,1.409544E6,6.098995E5,4.7438622E5,7.0471725E5,8.15975E5,1.0010384E7,7.665632E6,8.55136E5,8.84864E5,0E0,4.913856E6,0E0,6.57952E5,0E0,0E0,0E0,2.63584E5,1.21112E6,2.76608E5,8.76384E5,3.92069E5,1.62232E5,5.589125E5,3.3584738E5,5.869137E5,4.0975806E5,2.601415E5,4.75608E5,6.841845E5,2.128328E6,5.79044E6,6.319552E6,3.701E6,0E0,3.1008E4,1.432768E6,0E0,7.73901E5,1.319168E6,0E0,9.44928E5,0E0,0E0,0E0,0E0,0E0,0E0,0E0,0E0,0E0,0E0,0E0,0E0,0E0,0E0,0E0,0E0,0E0,0E0,0E0,0E0,0E0,0E0,0E0,0E0,0E0,0E0,0E0,0E0,0E0,0E0,0E0,0E0,0E0,0E0,0E0,0E0,0E0,0E0,0E0,0E0,0E0,0E0,0E0,0E0],"parents":[2147483647,0,0,1,1,2,2,3,3,4,4,5,5,6,6,7,7,8,8,9,9,10,10,11,11,12,12,13,13,14,14,15,15,16,16,17,17,18,18,19,19,20,20,21,21,22,22,23,23,24,24,25,25,26,26,28,28,30,30,34,34,35,35,36,36,37,37,38,38,39,39,40,40,41,41,42,42,43,43,44,44,45,45,46,46,47,47,48,48,49,49,50,50,52,52,53,53,55,55,56,56,58,58],"right_children":[2,4,6,8,10,12,14,16,18,20,22,24,26,28,30,32,34,36,38,40,42,44,46,48,50,52,54,-1,56,-1,58,-1,-1,-1,60,62,64,66,68,70,72,74,76,78,80,82,84,86,88,90,92,-1,94,96,-1,98,100,-1,102,-1,-1,-1,-1,-1,-1,-1,-1,-1,-1,-1,-1,-1,-1,-1,-1,-1,-1,-1,-1,-1,-1,-1,-1,-1,-1,-1,-1,-1,-1,-1,-1,-1,-1,-1,-1,-1,-1,-1,-1,-1,-1,-1,-1],"split_conditions":[2.9401916E4,1.2445175E4,5.1769004E4,6.36126E3,1.8917568E4,4.095138E4,1.8693951E3,3.6462566E3,9.267562E3,1.60998E4,5.7365334E1,-7.921871E2,2.3539373E3,5.390468E4,3.268826E3,1.1153E3,-1.086148E3,1.23576744E2,1.0544698E3,1.0031599E2,1.4601632E10,2.187504E4,1.2009114E3,2.8515989E3,3.083519E3,3.9478375E4,5.3518414E4,1.9644142E2,5.105368E4,1.4839164E3,3.182667E0,-4.9234674E2,-4.203033E2,-6.314949E1,6.77777E3,1.2048351E4,6.43728E3,7.330808E1,1.1667762E4,1.0175916E10,2.1106555E2,1.60777E4,1.2564524E3,4.9367123E1,1.4430247E12,4.608893E10,8.615645E1,2.8019956E3,2.0709044E1,3.9832277E4,3.3204785E4,2.2906914E2,1.037037E0,3.060236E10,4.110795E2,5.048819E4,2.6246662E10,2.595996E2,4.7240547E4,-3.3948752E2,-7.574839E1,-2.8475085E2,-1.795707E2,-3.6024097E1,-2.3852351E2,-2.0945482E2,-1.5260197E2,-1.2440979E2,-5.4019046E0,-3.6726273E1,-2.1752965E2,1.9741055E1,-9.445014E1,-1.371211E1,1.0920985E2,-1.6311288E-1,-9.729024E1,4.4119164E1,-6.2097218E1,-2.6369143E0,1.0820122E2,1.530846E2,1.6935548E0,4.024045E2,1.25743805E2,3.3585065E2,1.5092189E1,9.0454297E2,4.501155E2,7.295427E2,4.9048E2,7.0221214E1,4.208079E2,6.291242E2,1.8222891E2,5.928021E2,8.2624854E2,4.6254846E2,6.886055E1,2.4700783E2,9.8888983E2,3.9715274E2,1.02264984E3],"split_indices":[1,1,0,3,7,3,12,1,3,3,17,12,16,1,16,3,11,11,16,11,5,7,12,16,16,0,8,0,2,0,17,0,0,0,0,14,1,10,6,5,11,2,12,18,19,5,18,16,18,7,6,0,20,5,0,2,5,0,13,0,0,0,0,0,0,0,0,0,0,0,0,0,0,0,0,0,0,0,0,0,0,0,0,0,0,0,0,0,0,0,0,0,0,0,0,0,0,0,0,0,0,0,0],"split_type":[0,0,0,0,0,0,0,0,0,0,0,0,0,0,0,0,0,0,0,0,0,0,0,0,0,0,0,0,0,0,0,0,0,0,0,0,0,0,0,0,0,0,0,0,0,0,0,0,0,0,0,0,0,0,0,0,0,0,0,0,0,0,0,0,0,0,0,0,0,0,0,0,0,0,0,0,0,0,0,0,0,0,0,0,0,0,0,0,0,0,0,0,0,0,0,0,0,0,0,0,0,0,0],"sum_hessian":[1.77E3,1.292E3,4.78E2,1.119E3,1.73E2,3.66E2,1.12E2,4.49E2,6.7E2,8.3E1,9E1,1.93E2,1.73E2,6.3E1,4.9E1,2.01E2,2.48E2,4.08E2,2.62E2,4.2E1,4.1E1,5E1,4E1,1.13E2,8E1,8.4E1,8.9E1,2E0,6.1E1,3.2E1,1.7E1,4.9E1,1.52E2,1E0,2.47E2,2.85E2,1.23E2,2.42E2,2E1,5E0,3.7E1,7E0,3.4E1,2.2E1,2.8E1,3.5E1,5E0,9E1,2.3E1,6.4E1,1.6E1,2E0,8.2E1,8.5E1,4E0,3E0,5.8E1,1E0,1.6E1,2.46E2,1E0,2.68E2,1.7E1,1E0,1.22E2,1.98E2,4.4E1,1.7E1,3E0,1E0,4E0,4E0,3.3E1,3E0,4E0,2.8E1,6E0,1.9E1,3E0,2E0,2.6E1,3.3E1,2E0,2E0,3E0,8.8E1,2E0,4E0,1.9E1,3.1E1,3.3E1,4E0,1.2E1,8.1E1,1E0,1.6E1,6.9E1,2E0,1E0,1E0,5.7E1,2E0,1.4E1],"tree_param":{"num_deleted":"0","num_feature":"21","num_nodes":"103","size_leaf_vector":"1"}},{"base_weights":[1.9432426E1,-6.0471814E2,1.6386396E3,-7.1940985E2,-7.569772E1,1.2082363E3,2.3674705E3,-9.6781647E2,-6.103224E2,-2.9333823E2,1.5831053E2,8.4827997E2,1.4411422E3,2.2159163E3,1.1404049E3,-1.0680486E3,-2.6311615E2,-6.915312E2,-5.3052155E2,-3.618384E2,-1.3780258E2,3.7995457E1,2.4937605E2,7.580098E2,1.8105859E3,9.0711646E2,1.4078687E3,1.882715E3,2.431306E3,-8.115231E1,-1.0716583E3,-7.11731E2,-5.551885E2,-5.648238E2,-4.3478625E2,-3.959833E2,-1.5014761E2,-6.844394E1,-2.8237598E2,2.004808E1,9.195176E1,2.171216E2,3.3737286E2,6.018977E2,9.591856E2,9.304434E1,6.440781E2,-7.3212895E0,1.4157426E3,1.9597952E3,4.887133E2,2.1640205E3,2.8707837E3,-8.4265686E1,-3.2255246E2,-2.1947862E2,-1.7814134E2,-6.5664554E0,-1.6962503E2,6.8479546E1,-1.705778E2,-1.3426875E2,-4.6093018E1,-1.21102135E2,2.0198877E1,-6.2551445E1,8.2520805E1,3.995123E1,-3.971688E1,1.4059571E0,-1.0207715E2,-9.248882E0,3.9192734E1,8.714418E1,3.530056E1,2.5450972E2,1.4670447E2,5.0985852E2,2.5092905E2,3.914451E2,4.8915576E2,4.726857E2,6.765144E2,2.4139484E2,-1.1625469E2,3.5165627E1,6.582511E2,1.2031989E3,7.6078625E2],"categories":[],"categories_nodes":[],"categories_segments":[],"categories_sizes":[],"default_left":[0,0,0,0,0,0,0,0,0,0,0,0,0,0,0,0,0,0,0,0,0,0,0,0,0,0,0,0,0,0,0,0,0,0,0,0,0,0,0,0,0,0,0,0,0,0,0,0,0,0,0,0,0,0,0,0,0,0,0,0,0,0,0,0,0,0,0,0,0,0,0,0,0,0,0,0,0,0,0,0,0,0,0,0,0,0,0,0,0],"id":8,"left_children":[1,3,5,7,9,11,13,15,17,19,21,23,25,27,-1,29,-1,31,33,35,37,39,41,43,45,-1,47,49,51,-1,53,55,57,59,61,63,65,67,69,71,-1,73,-1,75,77,-1,-1,-1,79,81,83,85,87,-1,-1,-1,-1,-1,-1,-1,-1,-1,-1,-1,-1,-1,-1,-1,-1,-1,-1,-1,-1,-1,-1,-1,-1,-1,-1,-1,-1,-1,-1,-1,-1,-1,-1,-1,-1],"loss_changes":[1.7908151E9,7.75479E7,1.5178918E8,2.7889408E7,1.1709334E7,2.4934272E7,3.1126976E7,1.965312E6,4.38336E6,1.21799E6,1.2067025E6,9.485992E6,5.642752E6,7.407808E6,0E0,1.33312E5,0E0,5.9632E5,9.82616E5,5.33253E5,3.617148E5,2.2998895E5,1.5342638E6,3.065764E6,4.380726E6,0E0,2.13216E6,6.563712E6,5.299264E6,0E0,1.03984E5,2.91776E5,2.65814E5,9.428E5,3.01206E5,2.76596E5,3.7994134E5,3.6572484E5,2.0098069E5,2.6848656E5,0E0,4.181575E5,0E0,1.477034E6,3.031632E6,0E0,0E0,0E0,2.279968E6,3.933216E6,1.6959761E6,3.753984E6,2.805728E6,0E0,0E0,0E0,0E0,0E0,0E0,0E0,0E0,0E0,0E0,0E0,0E0,0E0,0E0,0E0,0E0,0E0,0E0,0E0,0E0,0E0,0E0,0E0,0E0,0E0,0E0,0E0,0E0,0E0,0E0,0E0,0E0,0E0,0E0,0E0,0E0],"parents":[2147483647,0,0,1,1,2,2,3,3,4,4,5,5,6,6,7,7,8,8,9,9,10,10,11,11,12,12,13,13,15,15,17,17,18,18,19,19,20,20,21,21,22,22,23,23,24,24,26,26,27,27,28,28,30,30,31,31,32,32,33,33,34,34,35,35,36,36,37,37,38,38,39,39,41,41,43,43,44,44,48,48,49,49,50,50,51,51,52,52],"right_children":[2,4,6,8,10,12,14,16,18,20,22,24,26,28,-1,30,-1,32,34,36,38,40,42,44,46,-1,48,50,52,-1,54,56,58,60,62,64,66,68,70,72,-1,74,-1,76,78,-1,-1,-1,80,82,84,86,88,-1,-1,-1,-1,-1,-1,-1,-1,-1,-1,-1,-1,-1,-1,-1,-1,-1,-1,-1,-1,-1,-1,-1,-1,-1,-1,-1,-1,-1,-1,-1,-1,-1,-1,-1,-1],"split_conditions":[2.3481174E4,1.1111214E4,4.711614E4,4.25742E3,1.66246E4,3.710337E4,6.3039824E4,2.60872E3,7.89596E3,6.3672424E2,2.0190115E4,9.440345E1,4.0131184E4,5.1769004E4,1.1404049E3,-6.901108E1,-2.6311615E2,3.9306857E2,4.8611594E2,1.7724332E4,3.1764294E10,2.187504E4,1.2009114E3,2.2423882E3,2.8936734E4,9.0711646E2,3.374131E4,7.866524E10,2.0856658E3,-8.115231E1,7.1845455E0,4.5462743E11,6.3078804E3,7.49955E3,7.48598E1,3.6084896E10,1.68945E10,8.036507E2,6.543046E1,8.631344E1,9.195176E1,2.4622027E4,3.3737286E2,2.383848E10,1.6408859E12,9.304434E1,6.440781E2,-7.3212895E0,6.1533054E1,3.456909E10,5.231407E4,1.9832439E3,2.3322036E3,-8.4265686E1,-3.2255246E2,-2.1947862E2,-1.7814134E2,-6.5664554E0,-1.6962503E2,6.8479546E1,-1.705778E2,-1.3426875E2,-4.6093018E1,-1.21102135E2,2.0198877E1,-6.2551445E1,8.2520805E1,3.995123E1,-3.971688E1,1.4059571E0,-1.0207715E2,-9.248882E0,3.9192734E1,8.714418E1,3.530056E1,2.5450972E2,1.4670447E2,5.0985852E2,2.5092905E2,3.914451E2,4.8915576E2,4.726857E2,6.765144E2,2.4139484E2,-1.1625469E2,3.5165627E1,6.582511E2,1.2031989E3,7.6078625E2],"split_indices":[2,3,6,3,3,6,3,3,3,11,3,17,14,0,0,12,0,16,16,14,5,7,12,16,0,0,7,5,12,0,18,19,9,0,10,5,5,12,17,17,0,14,0,5,19,0,0,0,10,5,1,16,12,0,0,0,0,0,0,0,0,0,0,0,0,0,0,0,0,0,0,0,0,0,0,0,0,0,0,0,0,0,0,0,0,0,0,0,0],"split_type":[0,0,0,0,0,0,0,0,0,0,0,0,0,0,0,0,0,0,0,0,0,0,0,0,0,0,0,0,0,0,0,0,0,0,0,0,0,0,0,0,0,0,0,0,0,0,0,0,0,0,0,0,0,0,0,0,0,0,0,0,0,0,0,0,0,0,0,0,0,0,0,0,0,0,0,0,0,0,0,0,0,0,0,0,0,0,0,0,0],"sum_hessian":[1.77E3,1.278E3,4.92E2,1.05E3,2.28E2,3.11E2,1.81E2,3.18E2,7.32E2,1.18E2,1.1E2,1.24E2,1.87E2,1.66E2,1.5E1,1.46E2,1.72E2,3.59E2,3.73E2,8.1E1,3.7E1,4.8E1,6.2E1,1.15E2,9E0,2E0,1.85E2,6.9E1,9.7E1,1E0,1.45E2,3.09E2,5E1,2.71E2,1.02E2,6.9E1,1.2E1,2.6E1,1.1E1,4.6E1,2E0,6.1E1,1E0,6.7E1,4.8E1,2E0,7E0,1E0,1.84E2,6.5E1,4E0,6.4E1,3.3E1,1E0,1.44E2,2.6E2,4.9E1,1E0,4.9E1,1E0,2.7E2,9.7E1,5E0,6.8E1,1E0,1.1E1,1E0,6E0,2E1,2E0,9E0,3.2E1,1.4E1,3.4E1,2.7E1,1.9E1,4.8E1,5E0,4.3E1,1.26E2,5.8E1,3.1E1,3.4E1,3E0,1E0,1E0,6.3E1,5E0,2.8E1],"tree_param":{"num_deleted":"0","num_feature":"21","num_nodes":"89","size_leaf_vector":"1"}},{"base_weights":[1.7862759E1,-4.0726154E2,1.2127437E3,-4.842032E2,1.2086819E2,9.170597E2,1.730012E3,-6.2912415E2,-3.7914835E2,1.606359E1,2.9362396E2,8.0703955E2,1.2773182E3,1.6316617E3,9.858712E2,-7.2429224E2,-5.485711E2,-4.242507E2,-2.782304E2,-7.24769E1,9.189552E1,2.171532E2,7.2832056E2,5.878302E2,9.353964E2,1.054891E3,1.5573966E3,1.2132689E3,1.7433462E3,-2.570663E2,-6.873618E2,-1.4430646E2,-5.5268066E2,-4.603109E2,-3.7807874E2,-2.9799356E2,-5.3064346E1,-1.4999477E2,8.226229E1,6.201957E1,3.3550455E2,2.7765118E2,-5.0079723E1,8.2593384E2,-7.887891E0,1.2746459E3,5.310986E2,3.7034055E2,9.74801E2,7.665386E2,1.4168862E3,2.203491E3,1.1353787E3,1.6966458E3,9.973033E2,1.9365135E3,1.3611964E3,-2.6811659E1,-2.0709056E2,-3.375879E0,-5.5472E1,-1.6641428E2,-3.8993409E0,-1.4443391E2,-1.1587204E2,1.20218414E2,-1.1514977E2,3.0040918E1,-9.082092E1,2.4236913E0,-8.072571E1,8.373675E0,-8.0108986E1,-6.521221E1,4.859904E1,2.5668264E1,-5.291426E1,1.11260864E2,2.3801954E1,6.757338E1,2.8087854E2,5.407659E1,-1.0875985E2,2.9315588E2,7.4435356E1,4.4820682E2,2.6664259E1,2.0069838E2,1.0505867E2,1.5403888E2,-1.5913243E2,2.3682784E2,3.270184E2,3.4438556E2,1.8413632E2,6.678399E1,4.970703E2,2.8936057E2,7.7900446E2,3.5621536E2,2.9891016E1,5.709153E2,1.7420508E2,1.19488045E2,3.5340207E2,5.951233E2,1.6295801E2,2.4281856E2,5.0972586E2],"categories":[],"categories_nodes":[],"categories_segments":[],"categories_sizes":[],"default_left":[0,0,0,0,0,0,0,0,0,0,0,0,0,0,0,0,0,0,0,0,0,0,0,0,0,0,0,0,0,0,0,0,0,0,0,0,0,0,0,0,0,0,0,0,0,0,0,0,0,0,0,0,0,0,0,0,0,0,0,0,0,0,0,0,0,0,0,0,0,0,0,0,0,0,0,0,0,0,0,0,0,0,0,0,0,0,0,0,0,0,0,0,0,0,0,0,0,0,0,0,0,0,0,0,0,0,0,0,0],"id":9,"left_children":[1,3,5,7,9,11,13,15,17,19,21,23,25,27,-1,29,31,33,35,37,39,41,43,45,47,49,51,53,55,-1,57,59,61,63,65,67,69,71,73,75,77,79,81,83,-1,85,87,89,91,93,95,97,99,101,103,105,107,-1,-1,-1,-1,-1,-1,-1,-1,-1,-1,-1,-1,-1,-1,-1,-1,-1,-1,-1,-1,-1,-1,-1,-1,-1,-1,-1,-1,-1,-1,-1,-1,-1,-1,-1,-1,-1,-1,-1,-1,-1,-1,-1,-1,-1,-1,-1,-1,-1,-1,-1,-1],"loss_changes":[9.001139E8,5.316869E7,6.953427E7,1.7132816E7,3.0189185E6,1.0780592E7,2.0351232E7,3.267056E6,2.90424E6,7.1165094E5,1.9360635E6,5.949792E6,2.593328E6,5.361344E6,0E0,4.68728E5,3.57184E5,5.86856E5,9.09784E5,6.000964E5,3.9404112E5,9.0309225E5,6.846585E5,2.751882E6,2.845264E6,3.193572E6,5.132776E6,2.170464E6,6.517568E6,0E0,2.44208E5,1.9527258E4,2.7812E5,2.08556E5,1.076924E6,3.90974E5,2.3992262E5,6.945589E5,4.4136688E5,3.069287E5,2.4930875E4,1.3423108E6,8.5700625E5,4.567115E5,0E0,1.427986E6,1.836224E6,1.6905044E6,2.002568E6,7.5193E5,4.504088E6,2.36686E6,9.0512E5,1.19833E6,2.56162E6,4.18704E6,7.014928E6,0E0,0E0,0E0,0E0,0E0,0E0,0E0,0E0,0E0,0E0,0E0,0E0,0E0,0E0,0E0,0E0,0E0,0E0,0E0,0E0,0E0,0E0,0E0,0E0,0E0,0E0,0E0,0E0,0E0,0E0,0E0,0E0,0E0,0E0,0E0,0E0,0E0,0E0,0E0,0E0,0E0,0E0,0E0,0E0,0E0,0E0,0E0,0E0,0E0,0E0,0E0,0E0],"parents":[2147483647,0,0,1,1,2,2,3,3,4,4,5,5,6,6,7,7,8,8,9,9,10,10,11,11,12,12,13,13,15,15,16,16,17,17,18,18,19,19,20,20,21,21,22,22,23,23,24,24,25,25,26,26,27,27,28,28,30,30,31,31,32,32,33,33,34,34,35,35,36,36,37,37,38,38,39,39,40,40,41,41,42,42,43,43,45,45,46,46,47,47,48,48,49,49,50,50,51,51,52,52,53,53,54,54,55,55,56,56],"right_children":[2,4,6,8,10,12,14,16,18,20,22,24,26,28,-1,30,32,34,36,38,40,42,44,46,48,50,52,54,56,-1,58,60,62,64,66,68,70,72,74,76,78,80,82,84,-1,86,88,90,92,94,96,98,100,102,104,106,108,-1,-1,-1,-1,-1,-1,-1,-1,-1,-1,-1,-1,-1,-1,-1,-1,-1,-1,-1,-1,-1,-1,-1,-1,-1,-1,-1,-1,-1,-1,-1,-1,-1,-1,-1,-1,-1,-1,-1,-1,-1,-1,-1,-1,-1,-1,-1,-1,-1,-1,-1,-1],"split_conditions":[3.0060992E4,1.39487E4,5.2610082E4,6.47629E3,2.1592207E4,7.9155266E1,6.4261992E4,3.63104E3,1.1035705E4,1.7998129E4,1.2009114E3,3.7366906E4,9.2978226E1,-1.1154296E3,9.858712E2,1.02816E3,3.4775007E3,1.0031599E2,9.13701E1,2.777778E-1,6.2163834E1,2.989721E4,2.9706139E4,1.6408859E12,4.252289E4,2.4500352E3,1.016409E3,1.7182598E12,5.6652198E10,-2.570663E2,2.0378922E1,3.454951E3,5.1783775E11,4.8E-1,1.5336757E2,8.551463E3,2.4967782E10,1.464063E4,1.49461045E4,5.796201E1,4.492526E10,2.8936734E4,4.7572613E1,4.074074E-1,-7.887891E0,3.759996E4,3.358952E4,3.7485806E10,1.8800299E3,8.4444626E1,3.463183E4,4.9382716E-2,5.0450082E4,-1.7943984E3,4.711614E4,9.506019E1,4.9382716E-2,-2.6811659E1,-2.0709056E2,-3.375879E0,-5.5472E1,-1.6641428E2,-3.8993409E0,-1.4443391E2,-1.1587204E2,1.20218414E2,-1.1514977E2,3.0040918E1,-9.082092E1,2.4236913E0,-8.072571E1,8.373675E0,-8.0108986E1,-6.521221E1,4.859904E1,2.5668264E1,-5.291426E1,1.11260864E2,2.3801954E1,6.757338E1,2.8087854E2,5.407659E1,-1.0875985E2,2.9315588E2,7.4435356E1,4.4820682E2,2.6664259E1,2.0069838E2,1.0505867E2,1.5403888E2,-1.5913243E2,2.3682784E2,3.270184E2,3.4438556E2,1.8413632E2,6.678399E1,4.970703E2,2.8936057E2,7.7900446E2,3.5621536E2,2.9891016E1,5.709153E2,1.7420508E2,1.19488045E2,3.5340207E2,5.951233E2,1.6295801E2,2.4281856E2,5.0972586E2],"split_indices":[8,0,14,3,3,18,3,3,14,7,12,6,17,12,0,2,6,11,17,20,10,13,0,19,14,16,11,19,5,0,10,0,19,20,16,7,5,13,9,10,5,0,10,20,0,1,0,5,16,18,7,20,0,12,6,18,20,0,0,0,0,0,0,0,0,0,0,0,0,0,0,0,0,0,0,0,0,0,0,0,0,0,0,0,0,0,0,0,0,0,0,0,0,0,0,0,0,0,0,0,0,0,0,0,0,0,0,0,0],"split_type":[0,0,0,0,0,0,0,0,0,0,0,0,0,0,0,0,0,0,0,0,0,0,0,0,0,0,0,0,0,0,0,0,0,0,0,0,0,0,0,0,0,0,0,0,0,0,0,0,0,0,0,0,0,0,0,0,0,0,0,0,0,0,0,0,0,0,0,0,0,0,0,0,0,0,0,0,0,0,0,0,0,0,0,0,0,0,0,0,0,0,0,0,0,0,0,0,0,0,0,0,0,0,0,0,0,0,0,0,0],"sum_hessian":[1.77E3,1.306E3,4.64E2,1.14E3,1.66E2,2.97E2,1.67E2,4.77E2,6.63E2,1.04E2,6.2E1,2.3E2,6.7E1,1.59E2,8E0,2.15E2,2.62E2,4.56E2,2.07E2,4.8E1,5.6E1,5.4E1,8E0,8.7E1,1.43E2,4E1,2.7E1,3.6E1,1.23E2,4.2E1,1.73E2,3E0,2.59E2,2.51E2,2.05E2,1.9E2,1.7E1,3.2E1,1.6E1,5.1E1,5E0,4.4E1,1E1,7E0,1E0,5E0,8.2E1,1E1,1.33E2,2.4E1,1.6E1,9E0,1.8E1,9E0,2.7E1,7.9E1,4.4E1,1E0,1.72E2,1E0,2E0,2.58E2,1E0,1.91E2,6E1,1E0,2.04E2,2E0,1.88E2,1.4E1,3E0,1.3E1,1.9E1,3E0,1.3E1,4.7E1,4E0,4E0,1E0,4.2E1,2E0,6E0,4E0,5E0,2E0,4E0,1E0,4.5E1,3.7E1,9E0,1E0,5.4E1,7.9E1,5E0,1.9E1,3E0,1.3E1,3E0,6E0,1.7E1,1E0,7E0,2E0,7E0,2E1,7.6E1,3E0,1.8E1,2.6E1],"tree_param":{"num_deleted":"0","num_feature":"21","num_nodes":"109","size_leaf_vector":"1"}},{"base_weights":[1.6546186E1,-2.979394E2,8.32389E2,-3.644435E2,-6.3657513E1,6.2332526E2,1.2331174E3,-4.9769583E2,-3.124149E2,-1.6307683E2,7.758557E1,4.7111832E2,7.9660406E2,1.1592161E3,2.4099075E3,-1.8384993E2,-4.7460855E2,-3.430263E2,-2.7295532E2,-1.9362097E2,-9.557484E1,6.1791637E1,3.621071E2,3.048833E2,5.806212E2,1.6062556E3,7.400763E2,4.6610547E2,1.1974404E3,4.0964554E2,8.917045E2,-4.7631848E2,-1.0916676E1,-1.2010834E2,-3.4668195E2,-2.8710065E2,-1.4594014E2,-2.0537166E2,1.0361836E2,-1.18266174E2,7.3676476E1,3.6252655E1,1.6578232E2,1.1080391E2,2.4279347E2,2.4299336E2,7.6962866E2,1.5667266E3,5.3625806E2,1.7499971E3,6.844864E1,5.441289E2,8.875833E2,4.597805E1,1.9473772E2,1.2415509E3,5.830319E2,-1.4414226E2,-8.1696625E1,-5.50162E1,-1.3639044E1,-1.049269E2,-4.6387245E1,-8.2377106E1,-1.27422874E2,-7.054458E1,4.87624E0,-3.0610707E0,-6.743593E1,-1.4309571E0,5.324014E1,4.55647E0,-4.750569E1,3.5466064E1,-2.9037891E1,2.9416332E1,-1.6245396E1,7.046317E-1,6.8076935E1,5.0212357E1,-1.7321777E1,2.655299E2,6.256795E1,2.8334827E2,1.07591896E2,5.586145E2,1.02114265E2,2.090229E2,1.1056402E2,1.2179825E2,5.651995E2,5.213502E2,1.4927896E2,3.0059982E2,1.10188225E2,3.304226E2,4.5387933E2,-1.7527559E2,2.2267874E2],"categories":[],"categories_nodes":[],"categories_segments":[],"categories_sizes":[],"default_left":[0,0,0,0,0,0,0,0,0,0,0,0,0,0,0,0,0,0,0,0,0,0,0,0,0,0,0,0,0,0,0,0,0,0,0,0,0,0,0,0,0,0,0,0,0,0,0,0,0,0,0,0,0,0,0,0,0,0,0,0,0,0,0,0,0,0,0,0,0,0,0,0,0,0,0,0,0,0,0,0,0,0,0,0,0,0,0,0,0,0,0,0,0,0,0,0,0,0,0],"id":10,"left_children":[1,3,5,7,9,11,13,15,17,19,21,23,25,27,29,-1,31,33,35,37,39,41,43,45,47,49,51,53,55,-1,-1,57,-1,59,61,63,65,67,69,71,73,75,77,79,-1,81,83,85,87,89,-1,91,93,-1,-1,95,97,-1,-1,-1,-1,-1,-1,-1,-1,-1,-1,-1,-1,-1,-1,-1,-1,-1,-1,-1,-1,-1,-1,-1,-1,-1,-1,-1,-1,-1,-1,-1,-1,-1,-1,-1,-1,-1,-1,-1,-1,-1,-1],"loss_changes":[4.5463488E8,1.9904544E7,4.0533824E7,6.749712E6,4.0006632E6,8.222712E6,1.1816752E7,4.48128E5,7.74856E5,3.258135E5,5.0788312E5,3.026748E6,5.722184E6,3.68088E6,1.228136E6,0E0,1.59508E5,2.8514E5,5.31238E5,4.194555E5,2.1610256E5,2.9409716E5,5.8462844E5,1.8839255E6,3.75324E6,1.383518E6,3.650256E6,4.73085E5,3.368512E6,0E0,0E0,6.8376E4,0E0,2.9450195E4,1.78556E5,3.75848E5,4.9577138E5,4.145125E5,4.0868176E4,2.5918925E5,6.4596312E4,5.1932544E5,2.19301E5,5.7337016E4,0E0,1.2525528E6,2.362095E5,8.1486E5,2.488562E6,6.75892E5,0E0,2.690202E6,4.394324E6,0E0,0E0,3.658096E6,2.6640748E6,0E0,0E0,0E0,0E0,0E0,0E0,0E0,0E0,0E0,0E0,0E0,0E0,0E0,0E0,0E0,0E0,0E0,0E0,0E0,0E0,0E0,0E0,0E0,0E0,0E0,0E0,0E0,0E0,0E0,0E0,0E0,0E0,0E0,0E0,0E0,0E0,0E0,0E0,0E0,0E0,0E0,0E0],"parents":[2147483647,0,0,1,1,2,2,3,3,4,4,5,5,6,6,7,7,8,8,9,9,10,10,11,11,12,12,13,13,14,14,16,16,17,17,18,18,19,19,20,20,21,21,22,22,23,23,24,24,25,25,26,26,27,27,28,28,31,31,33,33,34,34,35,35,36,36,37,37,38,38,39,39,40,40,41,41,42,42,43,43,45,45,46,46,47,47,48,48,49,49,51,51,52,52,55,55,56,56],"right_children":[2,4,6,8,10,12,14,16,18,20,22,24,26,28,30,-1,32,34,36,38,40,42,44,46,48,50,52,54,56,-1,-1,58,-1,60,62,64,66,68,70,72,74,76,78,80,-1,82,84,86,88,90,-1,92,94,-1,-1,96,98,-1,-1,-1,-1,-1,-1,-1,-1,-1,-1,-1,-1,-1,-1,-1,-1,-1,-1,-1,-1,-1,-1,-1,-1,-1,-1,-1,-1,-1,-1,-1,-1,-1,-1,-1,-1,-1,-1,-1,-1,-1,-1],"split_conditions":[2.3869832E4,1.0358723E4,5.2610082E4,4.00174E3,1.61635E4,1.8508009E12,6.4261992E4,4.065116E9,7.89596E3,4.9677246E2,5.1146162E10,3.3878965E4,-1.2220892E3,2.7436022E10,6.435509E1,-1.8384993E2,3.948821E2,-9.8282965E2,9.572192E1,1.6007306E3,8.8575935E1,8.631344E1,2.2399812E4,8.5714287E-1,4.0131184E4,5.1814027E4,5.603503E1,4.9382716E-2,7.866524E10,4.0964554E2,8.917045E2,2.4506442E2,-1.0916676E1,2.2357664E1,8.983047E1,1.0200496E4,4.8E-1,1.0266374E4,1.68945E10,4.225573E1,2.4967782E10,5.7860374E1,1.9666762E4,2.2805162E4,2.4279347E2,2.0378922E1,2.7901531E1,3.759996E4,2.7436022E10,4.1500875E4,6.844864E1,3.0817625E4,6.296296E-1,4.597805E1,1.9473772E2,2.0856658E3,4.531772E4,-1.4414226E2,-8.1696625E1,-5.50162E1,-1.3639044E1,-1.049269E2,-4.6387245E1,-8.2377106E1,-1.27422874E2,-7.054458E1,4.87624E0,-3.0610707E0,-6.743593E1,-1.4309571E0,5.324014E1,4.55647E0,-4.750569E1,3.5466064E1,-2.9037891E1,2.9416332E1,-1.6245396E1,7.046317E-1,6.8076935E1,5.0212357E1,-1.7321777E1,2.655299E2,6.256795E1,2.8334827E2,1.07591896E2,5.586145E2,1.02114265E2,2.090229E2,1.1056402E2,1.2179825E2,5.651995E2,5.213502E2,1.4927896E2,3.0059982E2,1.10188225E2,3.304226E2,4.5387933E2,-1.7527559E2,2.2267874E2],"split_indices":[3,0,14,3,0,19,3,19,3,12,5,2,11,5,17,0,16,11,17,16,10,17,2,20,14,1,10,20,5,0,0,11,0,17,10,0,20,6,5,18,5,18,14,3,0,10,17,1,5,3,0,0,20,0,0,12,7,0,0,0,0,0,0,0,0,0,0,0,0,0,0,0,0,0,0,0,0,0,0,0,0,0,0,0,0,0,0,0,0,0,0,0,0,0,0,0,0,0,0],"split_type":[0,0,0,0,0,0,0,0,0,0,0,0,0,0,0,0,0,0,0,0,0,0,0,0,0,0,0,0,0,0,0,0,0,0,0,0,0,0,0,0,0,0,0,0,0,0,0,0,0,0,0,0,0,0,0,0,0,0,0,0,0,0,0,0,0,0,0,0,0,0,0,0,0,0,0,0,0,0,0,0,0,0,0,0,0,0,0,0,0,0,0,0,0,0,0,0,0,0,0],"sum_hessian":[1.77E3,1.278E3,4.92E2,9.95E2,2.83E2,3.25E2,1.67E2,2.77E2,7.18E2,1.66E2,1.17E2,1.75E2,1.5E2,1.59E2,8E0,4.2E1,2.35E2,4E2,3.18E2,1.13E2,5.3E1,1.12E2,5E0,7.1E1,1.04E2,8E0,1.42E2,9E0,1.5E2,4E0,4E0,2.34E2,1E0,7E0,3.93E2,2.85E2,3.3E1,1.09E2,4E0,4.7E1,6E0,9.1E1,2.1E1,4E0,1E0,6.4E1,7E0,3E0,1.01E2,7E0,1E0,6.3E1,7.9E1,4E0,5E0,1.39E2,1.1E1,2.28E2,6E0,3E0,4E0,3.86E2,7E0,2.64E2,2.1E1,2.1E1,1.2E1,1E1,9.9E1,2E0,2E0,1.1E1,3.6E1,5E0,1E0,5.4E1,3.7E1,6E0,1.5E1,3E0,1E0,2E0,6.2E1,4E0,3E0,2E0,1E0,5E1,5.1E1,1E0,6E0,1E0,6.2E1,6.4E1,1.5E1,9.5E1,4.4E1,1E0,1E1],"tree_param":{"num_deleted":"0","num_feature":"21","num_nodes":"99","size_leaf_vector":"1"}},{"base_weights":[1.4573008E1,-1.9701999E2,6.3430646E2,-2.4810939E2,2.2839415E1,5.7279913E2,1.3070425E3,-3.484436E2,-2.102788E2,-6.931278E1,1.1407898E2,4.8483395E2,7.953573E2,8.520751E2,1.6511609E3,-1.4497604E2,-3.3621384E2,-2.2999042E2,-1.5731706E2,-9.4569145E1,4.0914795E1,3.470469E1,1.8345776E2,4.7015433E2,1.781401E3,5.231858E2,9.5441785E2,9.5843945E2,7.734375E-1,1.9932489E3,5.207474E2,-3.615855E2,-3.0368707E2,-2.5395985E2,-1.9987926E2,7.920776E1,-1.6051971E2,-1.6477638E2,-3.157793E1,2.2856999E2,-2.049815E1,3.353939E2,1.2712358E0,1.4021074E2,5.3411633E2,4.996024E2,4.5645258E2,7.525547E2,4.9075783E1,7.604589E2,2.1580412E2,4.0899057E2,1.1029508E3,1.1367848E3,5.6674054E2,-1.7029102E1,1.737715E1,2.1762407E3,1.6076054E2,-3.310547E1,2.0071126E2,-1.1685425E0,-1.0920263E2,-1.02638115E2,-6.906992E1,-8.0724945E1,-5.4927303E1,-6.1878025E1,3.0109377E1,-1.7725851E1,-5.283022E1,3.2409668E1,-5.7609737E1,-2.3115278E1,2.8446035E1,1.1716221E2,1.4984839E1,-3.1691282E1,2.5751629E1,1.979998E2,2.4273927E0,1.0873242E1,-5.445189E1,2.0634024E2,3.588627E1,2.1324716E2,1.8469532E1,1.06618034E2,1.7134383E2,1.64311E2,4.0287033E2,9.728155E1,-5.8844067E1,2.4589424E2,1.1869805E1,3.645067E2,4.346267E1,5.6375393E1,3.664004E2,1.5053906E1,1.9334122E2,6.9477496E2,2.816047E2],"categories":[],"categories_nodes":[],"categories_segments":[],"categories_sizes":[],"default_left":[0,0,0,0,0,0,0,0,0,0,0,0,0,0,0,0,0,0,0,0,0,0,0,0,0,0,0,0,0,0,0,0,0,0,0,0,0,0,0,0,0,0,0,0,0,0,0,0,0,0,0,0,0,0,0,0,0,0,0,0,0,0,0,0,0,0,0,0,0,0,0,0,0,0,0,0,0,0,0,0,0,0,0,0,0,0,0,0,0,0,0,0,0,0,0,0,0,0,0,0,0,0,0],"id":11,"left_children":[1,3,5,7,9,11,13,15,17,19,21,23,25,27,29,-1,31,33,35,37,39,41,43,45,47,49,51,53,55,57,59,61,63,65,67,-1,69,71,73,75,77,79,81,83,85,-1,87,-1,-1,89,91,93,95,97,99,-1,-1,101,-1,-1,-1,-1,-1,-1,-1,-1,-1,-1,-1,-1,-1,-1,-1,-1,-1,-1,-1,-1,-1,-1,-1,-1,-1,-1,-1,-1,-1,-1,-1,-1,-1,-1,-1,-1,-1,-1,-1,-1,-1,-1,-1,-1,-1],"loss_changes":[2.3235845E8,1.4843776E7,1.791288E7,3.99572E6,2.1098888E6,7.738976E6,4.385904E6,3.18944E5,7.79152E5,3.5186275E5,6.875015E5,4.872408E6,4.522512E6,1.629126E6,6.696044E6,0E0,1.13838E5,3.58468E5,3.325065E5,4.458855E5,2.8127225E5,6.0275825E5,9.41162E5,4.119944E6,3.118653E6,3.117893E6,5.3819E6,4.73461E5,1.3152773E4,2.834144E6,6.353436E5,1.25996E5,2.74177E5,2.85124E5,5.11145E5,0E0,3.27808E5,3.7765888E5,3.234293E5,1.5408044E5,1.8108366E5,6.3212494E5,3.581529E5,6.054871E5,5.4076125E5,0E0,3.2279E6,0E0,0E0,2.362434E6,1.0019559E6,2.546584E6,5.836864E6,5.72754E5,2.4872725E5,0E0,0E0,7.3228E4,0E0,0E0,0E0,0E0,0E0,0E0,0E0,0E0,0E0,0E0,0E0,0E0,0E0,0E0,0E0,0E0,0E0,0E0,0E0,0E0,0E0,0E0,0E0,0E0,0E0,0E0,0E0,0E0,0E0,0E0,0E0,0E0,0E0,0E0,0E0,0E0,0E0,0E0,0E0,0E0,0E0,0E0,0E0,0E0,0E0],"parents":[2147483647,0,0,1,1,2,2,3,3,4,4,5,5,6,6,7,7,8,8,9,9,10,10,11,11,12,12,13,13,14,14,16,16,17,17,18,18,19,19,20,20,21,21,22,22,23,23,24,24,25,25,26,26,27,27,28,28,29,29,30,30,31,31,32,32,33,33,34,34,36,36,37,37,38,38,39,39,40,40,41,41,42,42,43,43,44,44,46,46,49,49,50,50,51,51,52,52,53,53,54,54,57,57],"right_children":[2,4,6,8,10,12,14,16,18,20,22,24,26,28,30,-1,32,34,36,38,40,42,44,46,48,50,52,54,56,58,60,62,64,66,68,-1,70,72,74,76,78,80,82,84,86,-1,88,-1,-1,90,92,94,96,98,100,-1,-1,102,-1,-1,-1,-1,-1,-1,-1,-1,-1,-1,-1,-1,-1,-1,-1,-1,-1,-1,-1,-1,-1,-1,-1,-1,-1,-1,-1,-1,-1,-1,-1,-1,-1,-1,-1,-1,-1,-1,-1,-1,-1,-1,-1,-1,-1],"split_conditions":[3.0395504E4,1.14037E4,6.579954E4,3.9987715E3,1.9144492E4,6.1773563E1,3.7799457E10,9.66725E2,9.267562E3,9.003821E1,1.9444445E-1,6.1362605E4,3.5087757E10,3.6774326E10,4.656612E10,-1.4497604E2,7.308125E1,5.6370342E1,8.304197E0,1.4634146E-1,8.4444626E1,1.8283315E10,1.2009114E3,1.6175535E1,6.1548805E4,4.4963074E4,3.584383E4,2.891119E3,5.6620273E4,6.3182344E4,5.5654484E4,2.0378922E1,9.239498E1,4.2629498E2,7.5417144E3,7.920776E1,7.290717E3,6.836193E3,2.6123448E10,2.404599E10,9.185725E1,1.2524757E3,2.9707008E4,2.1428572E-1,5.5172414E-1,4.996024E2,3.9481926E4,7.525547E2,4.9075783E1,4.3706285E4,3.3499939E10,3.706877E4,2.501421E12,5.570518E4,2.6246662E10,-1.7029102E1,1.737715E1,6.15894E-1,1.6076054E2,-3.310547E1,2.0071126E2,-1.1685425E0,-1.0920263E2,-1.02638115E2,-6.906992E1,-8.0724945E1,-5.4927303E1,-6.1878025E1,3.0109377E1,-1.7725851E1,-5.283022E1,3.2409668E1,-5.7609737E1,-2.3115278E1,2.8446035E1,1.1716221E2,1.4984839E1,-3.1691282E1,2.5751629E1,1.979998E2,2.4273927E0,1.0873242E1,-5.445189E1,2.0634024E2,3.588627E1,2.1324716E2,1.8469532E1,1.06618034E2,1.7134383E2,1.64311E2,4.0287033E2,9.728155E1,-5.8844067E1,2.4589424E2,1.1869805E1,3.645067E2,4.346267E1,5.6375393E1,3.664004E2,1.5053906E1,1.9334122E2,6.9477496E2,2.816047E2],"split_indices":[6,3,14,7,0,10,5,3,3,17,20,9,5,5,5,0,17,17,18,20,18,5,12,10,0,3,9,16,0,7,7,10,16,16,15,0,15,15,5,5,18,16,7,20,20,0,15,0,0,2,5,0,19,2,5,0,0,20,0,0,0,0,0,0,0,0,0,0,0,0,0,0,0,0,0,0,0,0,0,0,0,0,0,0,0,0,0,0,0,0,0,0,0,0,0,0,0,0,0,0,0,0,0],"split_type":[0,0,0,0,0,0,0,0,0,0,0,0,0,0,0,0,0,0,0,0,0,0,0,0,0,0,0,0,0,0,0,0,0,0,0,0,0,0,0,0,0,0,0,0,0,0,0,0,0,0,0,0,0,0,0,0,0,0,0,0,0,0,0,0,0,0,0,0,0,0,0,0,0,0,0,0,0,0,0,0,0,0,0,0,0,0,0,0,0,0,0,0,0,0,0,0,0,0,0,0,0,0,0],"sum_hessian":[1.77E3,1.32E3,4.5E2,1.071E3,2.49E2,4.14E2,3.6E1,2.91E2,7.8E2,1.24E2,1.25E2,2.99E2,1.15E2,1.7E1,1.9E1,2.1E1,2.7E2,5.66E2,2.14E2,1.01E2,2.3E1,5.9E1,6.6E1,2.97E2,2E0,4.4E1,7.1E1,1.5E1,2E0,1.4E1,5E0,1.46E2,1.24E2,3.11E2,2.55E2,1E0,2.13E2,4.7E1,5.4E1,5E0,1.8E1,5E0,5.4E1,6E1,6E0,2E0,2.95E2,1E0,1E0,2.4E1,2E1,1.6E1,5.5E1,9E0,6E0,1E0,1E0,1.2E1,2E0,1E0,4E0,1E0,1.45E2,7.9E1,4.5E1,2.54E2,5.7E1,2.5E2,5E0,2.9E1,1.84E2,4E0,4.3E1,4E1,1.4E1,2E0,3E0,1E1,8E0,2E0,3E0,4.6E1,8E0,1E0,5.9E1,4E0,2E0,1.59E2,1.36E2,1.9E1,5E0,1.6E1,4E0,7E0,9E0,4.9E1,6E0,1E0,8E0,1E0,5E0,1E1,2E0],"tree_param":{"num_deleted":"0","num_feature":"21","num_nodes":"103","size_leaf_vector":"1"}},{"base_weights":[1.2989418E1,-1.3796751E2,4.551205E2,-1.6768396E2,5.88856E1,4.0836307E2,9.6726154E2,-2.2224898E2,-1.2757595E2,-1.3158379E1,1.1621081E2,3.6239667E2,6.965692E2,7.8866956E2,1.5160737E3,-2.617481E2,-1.9501674E2,-1.4284868E2,-8.814687E1,2.290019E1,-2.3486967E2,3.9811123E1,2.1531013E2,3.2943008E2,7.9097156E2,5.017213E2,9.748922E2,4.758762E2,6.750473E2,1.7728398E3,1.4915509E2,-2.7919843E2,-2.0085779E2,-1.2933266E2,-2.108122E2,3.4435734E1,-1.4749782E2,-1.3427284E2,-3.958515E1,-8.7420425E1,1.02310135E2,-1.2677681E2,-1.1165112E2,8.056828E0,1.850752E2,4.0905777E2,1.3336555E2,3.178022E2,1.5141914E3,1.1154138E3,9.0250435E1,6.957868E2,7.178027E1,1.3888281E3,3.3928632E2,-2.813965E1,7.0699713E2,5.7721545E2,1.525172E2,-1.7411865E1,-8.500358E1,-1.8840904E1,-7.094176E1,2.8340845E1,-4.2902706E1,-6.0879154E1,-1.5888937E2,5.0714775E1,-2.1248657E1,-6.471621E1,-4.1288807E1,-3.3044605E1,-8.8188896E1,4.180544E1,-1.7419703E1,4.0156827E0,-1.0611285E2,6.581955E1,-1.0386275E0,6.628516E0,-4.797471E1,3.0570135E1,-1.6111423E1,7.6961945E1,-2.0156643E1,3.5926907E1,1.4765561E2,1.4305493E0,8.106535E1,1.0348065E2,-6.2533253E1,6.396715E2,4.171465E1,4.4819504E2,5.171172E1,-6.70649E1,2.3771016E2,3.567211E2,1.6130298E2,-1.21299805E2,1.4088684E2,5.7351965E2,2.0025603E2,3.3439413E2,1.8345704E0,2.2296095E1,2.2639154E2],"categories":[],"categories_nodes":[],"categories_segments":[],"categories_sizes":[],"default_left":[0,0,0,0,0,0,0,0,0,0,0,0,0,0,0,0,0,0,0,0,0,0,0,0,0,0,0,0,0,0,0,0,0,0,0,0,0,0,0,0,0,0,0,0,0,0,0,0,0,0,0,0,0,0,0,0,0,0,0,0,0,0,0,0,0,0,0,0,0,0,0,0,0,0,0,0,0,0,0,0,0,0,0,0,0,0,0,0,0,0,0,0,0,0,0,0,0,0,0,0,0,0,0,0,0,0,0],"id":12,"left_children":[1,3,5,7,9,11,13,15,17,19,21,23,25,27,29,31,33,35,37,39,41,43,45,47,49,51,53,-1,55,57,-1,59,61,63,65,67,69,71,73,75,77,-1,79,81,83,85,87,89,91,93,95,97,99,101,103,-1,105,-1,-1,-1,-1,-1,-1,-1,-1,-1,-1,-1,-1,-1,-1,-1,-1,-1,-1,-1,-1,-1,-1,-1,-1,-1,-1,-1,-1,-1,-1,-1,-1,-1,-1,-1,-1,-1,-1,-1,-1,-1,-1,-1,-1,-1,-1,-1,-1,-1,-1],"loss_changes":[1.1826421E8,7.737426E6,1.0404832E7,2.484036E6,7.2013794E5,5.2454E6,2.430816E6,4.70646E5,3.87263E5,6.2895675E5,7.258306E5,4.825744E6,2.547794E6,1.647902E6,1.211504E6,1.51119E5,2.7465E5,3.98232E5,4.1579675E5,6.046616E5,2.0725344E5,2.5682333E5,6.122615E5,4.147616E6,5.582922E6,2.87034E6,5.31699E6,0E0,7.54121E5,1.69028E5,0E0,1.20203E5,2.1623775E5,1.9409694E5,4.78012E5,1.9618402E5,2.83374E5,3.3744988E5,3.156278E5,7.831973E5,4.9614734E5,0E0,5.517496E4,2.778812E5,1.9751603E5,2.2964462E5,5.4427425E5,4.841016E6,2.2532225E6,5.811596E6,2.1600522E6,1.232501E6,2.4628995E6,3.627154E6,2.576462E6,0E0,7.57737E5,0E0,0E0,0E0,0E0,0E0,0E0,0E0,0E0,0E0,0E0,0E0,0E0,0E0,0E0,0E0,0E0,0E0,0E0,0E0,0E0,0E0,0E0,0E0,0E0,0E0,0E0,0E0,0E0,0E0,0E0,0E0,0E0,0E0,0E0,0E0,0E0,0E0,0E0,0E0,0E0,0E0,0E0,0E0,0E0,0E0,0E0,0E0,0E0,0E0,0E0],"parents":[2147483647,0,0,1,1,2,2,3,3,4,4,5,5,6,6,7,7,8,8,9,9,10,10,11,11,12,12,13,13,14,14,15,15,16,16,17,17,18,18,19,19,20,20,21,21,22,22,23,23,24,24,25,25,26,26,28,28,29,29,31,31,32,32,33,33,34,34,35,35,36,36,37,37,38,38,39,39,40,40,42,42,43,43,44,44,45,45,46,46,47,47,48,48,49,49,50,50,51,51,52,52,53,53,54,54,56,56],"right_children":[2,4,6,8,10,12,14,16,18,20,22,24,26,28,30,32,34,36,38,40,42,44,46,48,50,52,54,-1,56,58,-1,60,62,64,66,68,70,72,74,76,78,-1,80,82,84,86,88,90,92,94,96,98,100,102,104,-1,106,-1,-1,-1,-1,-1,-1,-1,-1,-1,-1,-1,-1,-1,-1,-1,-1,-1,-1,-1,-1,-1,-1,-1,-1,-1,-1,-1,-1,-1,-1,-1,-1,-1,-1,-1,-1,-1,-1,-1,-1,-1,-1,-1,-1,-1,-1,-1,-1,-1,-1],"split_conditions":[3.0877928E4,1.7724332E4,6.579954E4,6.6125737E3,1.4634146E-1,9.211983E1,6.9173744E1,3.597918E3,1.14023955E4,8.514901E1,2.2348602E4,2.3591343E12,4.594146E4,5.3569766E4,4.251526E10,9.044887E1,5.3062197E10,6.209824E3,4.9447186E1,3.771203E1,8.732662E1,9.003821E1,2.5287357E-1,6.1362605E4,8.350337E1,4.6306445E4,9.735051E1,4.758762E2,5.5654484E4,4.383069E3,1.4915509E2,7.1845455E0,2.1734E3,3.7852102E3,3.7220316E2,7.03758E3,6.7838936E3,1.1841957E4,1.04460205E4,4.2142433E1,5.7860374E1,-1.2677681E2,1.34543E10,1.8231336E4,8.945625E1,2.9333885E10,6.636821E1,5.7044938E4,6.1548805E4,3.0190496E3,2.7821948E3,2.110401E10,2.7272728E-1,5.748479E4,8.514901E1,-2.813965E1,2.7480816E1,5.7721545E2,1.525172E2,-1.7411865E1,-8.500358E1,-1.8840904E1,-7.094176E1,2.8340845E1,-4.2902706E1,-6.0879154E1,-1.5888937E2,5.0714775E1,-2.1248657E1,-6.471621E1,-4.1288807E1,-3.3044605E1,-8.8188896E1,4.180544E1,-1.7419703E1,4.0156827E0,-1.0611285E2,6.581955E1,-1.0386275E0,6.628516E0,-4.797471E1,3.0570135E1,-1.6111423E1,7.6961945E1,-2.0156643E1,3.5926907E1,1.4765561E2,1.4305493E0,8.106535E1,1.0348065E2,-6.2533253E1,6.396715E2,4.171465E1,4.4819504E2,5.171172E1,-6.70649E1,2.3771016E2,3.567211E2,1.6130298E2,-1.21299805E2,1.4088684E2,5.7351965E2,2.0025603E2,3.3439413E2,1.8345704E0,2.2296095E1,2.2639154E2],"split_indices":[8,14,14,1,20,17,18,1,14,18,8,19,9,3,5,11,19,13,10,17,18,17,20,9,17,3,17,0,7,11,0,18,3,8,12,3,7,1,6,10,18,0,5,6,18,5,17,13,0,11,11,5,20,3,18,0,10,0,0,0,0,0,0,0,0,0,0,0,0,0,0,0,0,0,0,0,0,0,0,0,0,0,0,0,0,0,0,0,0,0,0,0,0,0,0,0,0,0,0,0,0,0,0,0,0,0,0],"split_type":[0,0,0,0,0,0,0,0,0,0,0,0,0,0,0,0,0,0,0,0,0,0,0,0,0,0,0,0,0,0,0,0,0,0,0,0,0,0,0,0,0,0,0,0,0,0,0,0,0,0,0,0,0,0,0,0,0,0,0,0,0,0,0,0,0,0,0,0,0,0,0,0,0,0,0,0,0,0,0,0,0,0,0,0,0,0,0,0,0,0,0,0,0,0,0,0,0,0,0,0,0,0,0,0,0,0,0],"sum_hessian":[1.77E3,1.32E3,4.5E2,1.147E3,1.73E2,4.14E2,3.6E1,4.84E2,6.63E2,7.7E1,9.6E1,3.59E2,5.5E1,2.9E1,7E0,1.94E2,2.9E2,4.76E2,1.87E2,6.7E1,1E1,5.5E1,4.1E1,3.35E2,2.4E1,3.4E1,2.1E1,2E0,2.7E1,5E0,2E0,1.48E2,4.6E1,5.8E1,2.32E2,1.2E1,4.64E2,9.5E1,9.2E1,2.8E1,3.9E1,3E0,7E0,4.6E1,9E0,1.1E1,3E1,3.33E2,2E0,1.6E1,8E0,2.3E1,1.1E1,1.2E1,9E0,1E0,2.6E1,4E0,1E0,3E0,1.45E2,1E1,3.6E1,3E0,5.5E1,2.28E2,4E0,5E0,7E0,5.6E1,4.08E2,8.4E1,1.1E1,8E0,8.4E1,2.1E1,7E0,1.8E1,2.1E1,2E0,5E0,1.8E1,2.8E1,7E0,2E0,3E0,8E0,1.6E1,1.4E1,3.17E2,1.6E1,1E0,1E0,1.1E1,5E0,6E0,2E0,4E0,1.9E1,5E0,6E0,6E0,6E0,2E0,7E0,2E0,2.4E1],"tree_param":{"num_deleted":"0","num_feature":"21","num_nodes":"107","size_leaf_vector":"1"}},{"base_weights":[1.1434768E1,-1.0485751E2,3.0725946E2,-1.3348332E2,-4.0728214E1,2.1581038E2,4.8669565E2,-1.7446663E2,-1.1226939E2,-6.560101E1,2.3277212E1,1.8731984E2,5.317655E2,4.3487552E2,9.518074E2,-7.961977E1,-1.666147E2,-6.512177E1,-1.2133284E2,1.0809795E2,-6.989953E1,7.699408E0,1.3065918E2,1.1780542E2,2.7159613E2,9.006888E2,3.2902466E2,4.830638E2,-4.0661198E1,4.0409726E2,1.598278E3,-1.8925441E2,-1.4836546E2,-4.4902374E1,-1.6341235E2,-1.22864685E2,5.0028027E1,7.949286E1,-7.859009E1,2.9948444E1,-1.0007238E2,2.2218025E2,3.424585E1,-3.1696615E1,1.7026404E2,9.6402954E2,2.2156924E2,1.2135254E2,1.2701315E3,4.5596875E2,4.6267857E1,4.3084177E2,8.860432E2,-4.0067535E2,4.280229E2,3.201823E1,4.9311475E2,1.9238614E2,6.467098E2,-4.339393E1,-6.2448727E1,-8.021952E0,-4.6147995E1,-7.0890636E0,-6.3736233E1,-1.7410534E1,-9.881057E1,-4.4577564E1,-3.160536E1,-6.9485703E0,1.5961523E2,-2.8125582E1,-4.229624E0,-3.8514996E0,2.9161196E1,-5.659812E1,-5.758418E0,1.4311523E0,7.728604E1,3.8610645E1,-1.4450508E1,8.200209E1,-4.527065E1,1.0979474E2,1.93375E1,3.5456403E2,4.0310547E1,8.816491E1,2.4938776E1,8.0299805E1,-4.9921875E0,1.0628321E2,4.147341E2,-1.4371095E0,1.620536E2,1.7176993E2,-4.106289E1,1.4698227E2,3.444905E1,7.436865E1,3.0747668E2,-1.9524611E2,9.496641E1,2.7198712E2,1.6577345E1,2.0558205E1,-6.15E0,1.9799123E2,7.830211E1],"categories":[],"categories_nodes":[],"categories_segments":[],"categories_sizes":[],"default_left":[0,0,0,0,0,0,0,0,0,0,0,0,0,0,0,0,0,0,0,0,0,0,0,0,0,0,0,0,0,0,0,0,0,0,0,0,0,0,0,0,0,0,0,0,0,0,0,0,0,0,0,0,0,0,0,0,0,0,0,0,0,0,0,0,0,0,0,0,0,0,0,0,0,0,0,0,0,0,0,0,0,0,0,0,0,0,0,0,0,0,0,0,0,0,0,0,0,0,0,0,0,0,0,0,0,0,0,0,0],"id":13,"left_children":[1,3,5,7,9,11,13,15,17,19,21,23,25,27,29,-1,31,33,35,-1,37,39,41,43,45,47,49,51,53,55,57,59,61,63,65,67,-1,69,71,73,75,77,79,81,83,85,87,89,91,93,95,97,99,101,103,105,107,-1,-1,-1,-1,-1,-1,-1,-1,-1,-1,-1,-1,-1,-1,-1,-1,-1,-1,-1,-1,-1,-1,-1,-1,-1,-1,-1,-1,-1,-1,-1,-1,-1,-1,-1,-1,-1,-1,-1,-1,-1,-1,-1,-1,-1,-1,-1,-1,-1,-1,-1,-1],"loss_changes":[6.0958388E7,2.329641E6,8.099604E6,7.4463E5,6.287727E5,2.897965E6,3.635244E6,1.68551E5,2.40799E5,5.4514975E5,1.8467206E5,1.766539E6,1.723138E6,3.525686E6,5.019396E6,0E0,8.6366E4,1.834505E5,2.35409E5,0E0,3.7236875E5,2.3798322E5,1.1592516E5,1.338651E6,4.566761E6,2.4371475E6,6.608951E5,2.543426E6,2.7024915E6,3.1542675E5,2.351706E6,7.1104E4,1.0083375E5,2.8367888E5,2.6069319E5,2.02874E5,0E0,7.556389E5,2.59753E5,2.3721503E5,1.1818017E5,5.2705812E4,6.8475695E4,1.6775419E6,2.5856335E6,1.467871E6,1.2770145E6,8.521517E4,1.27418E5,5.0699375E5,7.530903E5,2.27824E6,1.075307E6,1.8207235E6,1.1987419E6,7.156993E3,1.375715E5,0E0,0E0,0E0,0E0,0E0,0E0,0E0,0E0,0E0,0E0,0E0,0E0,0E0,0E0,0E0,0E0,0E0,0E0,0E0,0E0,0E0,0E0,0E0,0E0,0E0,0E0,0E0,0E0,0E0,0E0,0E0,0E0,0E0,0E0,0E0,0E0,0E0,0E0,0E0,0E0,0E0,0E0,0E0,0E0,0E0,0E0,0E0,0E0,0E0,0E0,0E0,0E0],"parents":[2147483647,0,0,1,1,2,2,3,3,4,4,5,5,6,6,7,7,8,8,9,9,10,10,11,11,12,12,13,13,14,14,16,16,17,17,18,18,20,20,21,21,22,22,23,23,24,24,25,25,26,26,27,27,28,28,29,29,30,30,31,31,32,32,33,33,34,34,35,35,37,37,38,38,39,39,40,40,41,41,42,42,43,43,44,44,45,45,46,46,47,47,48,48,49,49,50,50,51,51,52,52,53,53,54,54,55,55,56,56],"right_children":[2,4,6,8,10,12,14,16,18,20,22,24,26,28,30,-1,32,34,36,-1,38,40,42,44,46,48,50,52,54,56,58,60,62,64,66,68,-1,70,72,74,76,78,80,82,84,86,88,90,92,94,96,98,100,102,104,106,108,-1,-1,-1,-1,-1,-1,-1,-1,-1,-1,-1,-1,-1,-1,-1,-1,-1,-1,-1,-1,-1,-1,-1,-1,-1,-1,-1,-1,-1,-1,-1,-1,-1,-1,-1,-1,-1,-1,-1,-1,-1,-1,-1,-1,-1,-1,-1,-1,-1,-1,-1,-1],"split_conditions":[2.3474455E4,9.35059E3,5.2610082E4,4.006855E3,1.8982258E4,9.495745E1,6.1362605E4,9.72055E2,1.2650398E11,1.3432716E1,2.0745512E4,1.8362063E12,6.712446E2,5.457664E4,5.420566E1,-7.961977E1,6.2981327E1,7.967142E1,9.796998E1,1.0809795E2,9.980345E3,2.1531463E4,2.4E-1,2.3608643E1,-1.2220892E3,7.4443886E1,4.108008E4,5.826889E4,1.8651112E3,4.9382716E-2,2.0668807E12,2.39884E3,-8.2625435E1,8.977727E3,5.87672E3,6.69057E9,5.0028027E1,9.908797E3,5.328342E2,5.9051712E1,2.2348602E4,2.1531463E4,1.151947E1,3.3438695E4,4.1760937E1,5.078454E4,4.4752332E4,3.5684156E4,5.36172E1,2.8936734E4,3.060236E10,5.926636E4,3.5087757E10,4.9382716E-2,2.1378828E12,5.8326562E4,5.8268402E4,1.9238614E2,6.467098E2,-4.339393E1,-6.2448727E1,-8.021952E0,-4.6147995E1,-7.0890636E0,-6.3736233E1,-1.7410534E1,-9.881057E1,-4.4577564E1,-3.160536E1,-6.9485703E0,1.5961523E2,-2.8125582E1,-4.229624E0,-3.8514996E0,2.9161196E1,-5.659812E1,-5.758418E0,1.4311523E0,7.728604E1,3.8610645E1,-1.4450508E1,8.200209E1,-4.527065E1,1.0979474E2,1.93375E1,3.5456403E2,4.0310547E1,8.816491E1,2.4938776E1,8.0299805E1,-4.9921875E0,1.0628321E2,4.147341E2,-1.4371095E0,1.620536E2,1.7176993E2,-4.106289E1,1.4698227E2,3.444905E1,7.436865E1,3.0747668E2,-1.9524611E2,9.496641E1,2.7198712E2,1.6577345E1,2.0558205E1,-6.15E0,1.9799123E2,7.830211E1],"split_indices":[0,0,14,13,14,17,9,0,19,18,15,19,11,15,17,0,17,10,18,0,14,0,20,17,11,18,7,9,11,20,19,3,11,1,1,5,0,1,12,17,8,0,18,7,18,3,2,0,10,0,5,1,5,20,19,0,15,0,0,0,0,0,0,0,0,0,0,0,0,0,0,0,0,0,0,0,0,0,0,0,0,0,0,0,0,0,0,0,0,0,0,0,0,0,0,0,0,0,0,0,0,0,0,0,0,0,0,0,0],"split_type":[0,0,0,0,0,0,0,0,0,0,0,0,0,0,0,0,0,0,0,0,0,0,0,0,0,0,0,0,0,0,0,0,0,0,0,0,0,0,0,0,0,0,0,0,0,0,0,0,0,0,0,0,0,0,0,0,0,0,0,0,0,0,0,0,0,0,0,0,0,0,0,0,0,0,0,0,0,0,0,0,0,0,0,0,0,0,0,0,0,0,0,0,0,0,0,0,0,0,0,0,0,0,0,0,0,0,0,0,0],"sum_hessian":[1.77E3,1.271E3,4.99E2,8.78E2,3.93E2,3.32E2,1.67E2,2.97E2,5.81E2,2.83E2,1.1E2,3.06E2,2.6E1,1.52E2,1.5E1,2.1E1,2.76E2,9.5E1,4.86E2,2E0,2.81E2,9.7E1,1.3E1,1.69E2,1.37E2,8E0,1.8E1,1.38E2,1.4E1,9E0,6E0,1.19E2,1.57E2,8E1,1.5E1,4.84E2,2E0,1.5E1,2.66E2,8.1E1,1.6E1,6E0,7E0,4.4E1,1.25E2,8E0,1.29E2,3E0,5E0,1.2E1,6E0,1.24E2,1.4E1,8E0,6E0,2E0,7E0,3E0,3E0,3.8E1,8.1E1,7E0,1.5E2,7.2E1,8E0,1E1,5E0,1.93E2,2.91E2,1.3E1,2E0,2.15E2,5.1E1,5E1,3.1E1,7E0,9E0,1E0,5E0,3E0,4E0,1.2E1,3.2E1,4.3E1,8.2E1,6E0,2E0,8.4E1,4.5E1,1E0,2E0,1E0,4E0,2E0,1E1,1E0,5E0,1.04E2,2E1,3E0,1.1E1,6E0,2E0,2E0,4E0,1E0,1E0,3E0,4E0],"tree_param":{"num_deleted":"0","num_feature":"21","num_nodes":"109","size_leaf_vector":"1"}},{"base_weights":[9.859086E0,-6.811058E1,2.4304346E2,-8.713764E1,8.904297E0,2.2405888E2,7.368772E2,-1.1537679E2,-6.790813E1,-4.193703E0,1.0399585E2,3.4958984E2,2.1692122E2,3.119383E2,1.2386647E3,-1.076155E2,-2.1898575E2,-1.2118719E1,-7.50087E1,-4.8743916E1,3.210061E1,3.8921368E2,4.9349957E1,1.06613754E2,2.768843E2,2.7214844E1,3.797173E2,4.9699707E2,5.0119983E2,-1.1168496E2,1.0676575E2,-9.886621E1,-2.9796036E2,1.547647E2,-3.8004898E1,-9.281654E1,-5.582223E1,-2.1080587E1,-2.0130365E2,2.0754636E2,8.937245E0,2.469463E1,1.3360782E2,2.377474E1,1.1098213E2,5.305011E2,8.556016E1,6.504634E2,2.5292206E2,1.7474415E1,-5.2277346E0,5.1147656E2,5.9509926E1,4.030547E1,1.7192851E2,-4.6522972E1,-2.951173E1,7.115112E1,7.130738E0,-5.888279E1,3.8001816E0,-2.408357E1,-9.1964424E1,7.643239E1,-1.7683155E1,-2.090277E1,4.8984554E1,-3.1598862E1,-1.078435E1,-9.582975E0,-3.369741E1,-1.0275927E1,8.120743E1,-3.4194073E1,-1.3043365E2,2.4099464E1,1.6119127E2,-1.2579611E1,2.759243E1,2.977088E1,-1.6015493E1,2.3800713E2,-2.5327736E1,1.1610394E2,1.5955488E1,1.224942E2,3.8244992E2,4.414732E1,1.0702672E2,3.994336E1,1.7796173E2],"categories":[],"categories_nodes":[],"categories_segments":[],"categories_sizes":[],"default_left":[0,0,0,0,0,0,0,0,0,0,0,0,0,0,0,0,0,0,0,0,0,0,0,0,0,0,0,0,0,0,0,0,0,0,0,0,0,0,0,0,0,0,0,0,0,0,0,0,0,0,0,0,0,0,0,0,0,0,0,0,0,0,0,0,0,0,0,0,0,0,0,0,0,0,0,0,0,0,0,0,0,0,0,0,0,0,0,0,0,0,0],"id":14,"left_children":[1,3,5,7,9,11,13,15,17,19,21,-1,23,25,27,29,31,33,35,37,39,41,43,45,47,49,51,53,-1,55,57,59,61,63,65,67,69,71,73,75,77,-1,-1,79,-1,81,83,85,87,-1,-1,89,-1,-1,-1,-1,-1,-1,-1,-1,-1,-1,-1,-1,-1,-1,-1,-1,-1,-1,-1,-1,-1,-1,-1,-1,-1,-1,-1,-1,-1,-1,-1,-1,-1,-1,-1,-1,-1,-1,-1],"loss_changes":[3.2215652E7,1.946782E6,3.997494E6,5.704865E5,3.2925056E5,2.629354E6,3.025278E6,3.22213E5,2.5103375E5,3.7830694E5,4.795437E5,0E0,2.79482E6,1.8264888E5,1.412493E6,3.626355E5,2.4564725E5,3.212399E5,1.875205E5,4.3888894E5,5.2238994E5,4.9495188E4,2.2078156E5,1.311112E6,2.306178E6,5.171042E3,8.96975E4,3.3390125E4,0E0,2.129175E5,8.0947836E4,1.4372408E5,7.17025E3,2.2874712E5,4.1937375E5,2.0328825E5,3.6609875E5,3.5517497E5,2.766493E5,5.860888E5,4.8962344E5,0E0,0E0,1.6250762E5,0E0,1.19844E6,1.4043184E6,1.8985195E6,2.813775E6,0E0,0E0,4.4700875E4,0E0,0E0,0E0,0E0,0E0,0E0,0E0,0E0,0E0,0E0,0E0,0E0,0E0,0E0,0E0,0E0,0E0,0E0,0E0,0E0,0E0,0E0,0E0,0E0,0E0,0E0,0E0,0E0,0E0,0E0,0E0,0E0,0E0,0E0,0E0,0E0,0E0,0E0,0E0],"parents":[2147483647,0,0,1,1,2,2,3,3,4,4,5,5,6,6,7,7,8,8,9,9,10,10,12,12,13,13,14,14,15,15,16,16,17,17,18,18,19,19,20,20,21,21,22,22,23,23,24,24,25,25,26,26,27,27,29,29,30,30,31,31,32,32,33,33,34,34,35,35,36,36,37,37,38,38,39,39,40,40,43,43,45,45,46,46,47,47,48,48,51,51],"right_children":[2,4,6,8,10,12,14,16,18,20,22,-1,24,26,28,30,32,34,36,38,40,42,44,46,48,50,52,54,-1,56,58,60,62,64,66,68,70,72,74,76,78,-1,-1,80,-1,82,84,86,88,-1,-1,90,-1,-1,-1,-1,-1,-1,-1,-1,-1,-1,-1,-1,-1,-1,-1,-1,-1,-1,-1,-1,-1,-1,-1,-1,-1,-1,-1,-1,-1,-1,-1,-1,-1,-1,-1,-1,-1,-1,-1],"split_conditions":[3.1708629E4,1.1122726E4,6.1362605E4,6.28599E3,9.003821E1,1.6175535E1,5.420566E1,5.90344E3,1.3427992E11,1.4634146E-1,2.1106555E2,3.4958984E2,1.8508009E12,4.9382716E-2,2.0668807E12,5.7508E3,3.1867933E1,6.8432817E3,5.9051712E1,3.5087757E10,2.5116568E1,5.5434277E1,9.623401E1,1.6083536E12,1.2941969E1,5.8326562E4,5.8268402E4,2.5735305E3,5.0119983E2,1.0961707E3,4.7896152E1,1.0807087E1,1.7812E9,4.31396E9,1.2975825E11,3.060236E10,3.076755E10,2.8049842E4,2.8936734E4,1.6408859E12,6.493022E1,2.469463E1,1.3360782E2,9.55196E1,1.1098213E2,-2.2749753E3,1.4717897E3,3.4517915E3,5.4855663E1,1.7474415E1,-5.2277346E0,5.7248457E4,5.9509926E1,4.030547E1,1.7192851E2,-4.6522972E1,-2.951173E1,7.115112E1,7.130738E0,-5.888279E1,3.8001816E0,-2.408357E1,-9.1964424E1,7.643239E1,-1.7683155E1,-2.090277E1,4.8984554E1,-3.1598862E1,-1.078435E1,-9.582975E0,-3.369741E1,-1.0275927E1,8.120743E1,-3.4194073E1,-1.3043365E2,2.4099464E1,1.6119127E2,-1.2579611E1,2.759243E1,2.977088E1,-1.6015493E1,2.3800713E2,-2.5327736E1,1.1610394E2,1.5955488E1,1.224942E2,3.8244992E2,4.414732E1,1.0702672E2,3.994336E1,1.7796173E2],"split_indices":[6,7,9,3,17,10,17,3,19,20,11,0,19,20,19,3,18,0,17,5,10,10,18,19,18,0,15,16,0,15,10,17,5,5,19,5,5,15,0,19,17,0,0,17,0,11,16,16,10,0,0,3,0,0,0,0,0,0,0,0,0,0,0,0,0,0,0,0,0,0,0,0,0,0,0,0,0,0,0,0,0,0,0,0,0,0,0,0,0,0,0],"split_type":[0,0,0,0,0,0,0,0,0,0,0,0,0,0,0,0,0,0,0,0,0,0,0,0,0,0,0,0,0,0,0,0,0,0,0,0,0,0,0,0,0,0,0,0,0,0,0,0,0,0,0,0,0,0,0,0,0,0,0,0,0,0,0,0,0,0,0,0,0,0,0,0,0,0,0,0,0,0,0,0,0,0,0,0,0,0,0,0,0,0,0],"sum_hessian":[1.77E3,1.327E3,4.43E2,1.064E3,2.63E2,4.28E2,1.5E1,4.29E2,6.35E2,2.32E2,3.1E1,2E0,4.26E2,9E0,6E0,4.01E2,2.8E1,7.2E1,5.63E2,1.04E2,1.28E2,4E0,2.7E1,1.51E2,2.75E2,2E0,7E0,3E0,3E0,3.94E2,7E0,1.2E1,1.6E1,9E0,6.3E1,2.9E2,2.73E2,8.9E1,1.5E1,1.4E1,1.14E2,1E0,3E0,2.6E1,1E0,6E0,1.45E2,1.5E1,2.6E2,1E0,1E0,3E0,4E0,1E0,2E0,9E1,3.04E2,2E0,5E0,6E0,6E0,1E0,1.5E1,6E0,3E0,5.5E1,8E0,2.37E2,5.3E1,1.93E2,8E1,8.6E1,3E0,1.2E1,3E0,1.1E1,3E0,7.1E1,4.3E1,1.3E1,1.3E1,4E0,2E0,1.3E1,1.32E2,1.2E1,3E0,1.3E2,1.3E2,1E0,2E0],"tree_param":{"num_deleted":"0","num_feature":"21","num_nodes":"91","size_leaf_vector":"1"}},{"base_weights":[8.355314E0,-4.3994747E1,1.9445244E2,-5.6547836E1,3.9681263E1,1.2351914E3,1.8043127E2,-7.754603E1,-3.9783924E1,6.628171E1,-2.5911575E2,5.507825E2,2.2271094E2,1.507205E2,4.5579962E2,-7.414636E1,-2.3213507E2,-4.6068188E1,2.3728304E0,5.2655716E1,1.8251309E2,7.05791E1,-3.1123312E2,4.410938E0,9.580899E1,2.7967188E2,1.435295E2,3.424754E2,3.839952E2,-7.973923E1,2.3874899E1,-2.6928152E2,-4.3317383E1,1.1980009E2,-4.7997272E1,1.6977525E2,-1.1946557E1,4.0525425E1,2.0704181E2,1.6089844E1,-4.0196573E2,-4.136452E1,1.7552599E2,2.522167E2,5.8760364E2,-2.6897886E1,-1.5619123E1,4.411496E1,-6.6003666E0,-8.693264E1,-1.5799512E1,-1.6097023E1,-3.3958008E0,-9.60416E0,9.9867E1,-1.3551522E1,-5.3251175E1,1.2015675E1,7.711633E1,6.68147E1,-6.1791177E0,1.8437386E1,-1.5418896E2,3.714258E1,-1.8325783E1,4.6166603E1,-1.4188202E2,9.348514E0,-1.1740235E2,1.3829475E2,4.459316E1,9.975771E1,-3.1020235E1,2.1902136E2,6.409242E1],"categories":[],"categories_nodes":[],"categories_segments":[],"categories_sizes":[],"default_left":[0,0,0,0,0,0,0,0,0,0,0,0,0,0,0,0,0,0,0,0,0,0,0,0,0,0,0,0,0,0,0,0,0,0,0,0,0,0,0,0,0,0,0,0,0,0,0,0,0,0,0,0,0,0,0,0,0,0,0,0,0,0,0,0,0,0,0,0,0,0,0,0,0,0,0],"id":15,"left_children":[1,3,5,7,9,11,13,15,17,19,21,-1,23,25,27,29,31,33,35,37,-1,-1,39,-1,-1,-1,41,-1,43,45,47,49,51,53,55,57,59,61,-1,63,65,67,69,71,73,-1,-1,-1,-1,-1,-1,-1,-1,-1,-1,-1,-1,-1,-1,-1,-1,-1,-1,-1,-1,-1,-1,-1,-1,-1,-1,-1,-1,-1,-1],"loss_changes":[1.7261984E7,1.454936E6,5.453566E6,4.203855E5,1.4557868E6,2.632354E6,3.081144E6,2.629065E5,1.778735E5,1.2015252E6,4.5970812E5,0E0,5.5617688E4,1.8275435E6,1.383605E6,2.8862275E5,6.5488375E4,1.9261462E5,2.1297305E5,1.2402208E6,0E0,0E0,4.2225162E5,0E0,0E0,0E0,2.060098E6,0E0,7.90889E5,1.31235E5,1.6710817E5,2.4692875E4,3.8515918E2,2.3710723E5,2.034865E5,6.89592E4,1.7104284E5,1.9118962E6,0E0,4.0816082E4,5.0674538E5,1.332084E6,2.202887E6,6.9124675E5,5.36634E5,0E0,0E0,0E0,0E0,0E0,0E0,0E0,0E0,0E0,0E0,0E0,0E0,0E0,0E0,0E0,0E0,0E0,0E0,0E0,0E0,0E0,0E0,0E0,0E0,0E0,0E0,0E0,0E0,0E0,0E0],"parents":[2147483647,0,0,1,1,2,2,3,3,4,4,5,5,6,6,7,7,8,8,9,9,10,10,12,12,13,13,14,14,15,15,16,16,17,17,18,18,19,19,22,22,26,26,28,28,29,29,30,30,31,31,32,32,33,33,34,34,35,35,36,36,37,37,39,39,40,40,41,41,42,42,43,43,44,44],"right_children":[2,4,6,8,10,12,14,16,18,20,22,-1,24,26,28,30,32,34,36,38,-1,-1,40,-1,-1,-1,42,-1,44,46,48,50,52,54,56,58,60,62,-1,64,66,68,70,72,74,-1,-1,-1,-1,-1,-1,-1,-1,-1,-1,-1,-1,-1,-1,-1,-1,-1,-1,-1,-1,-1,-1,-1,-1,-1,-1,-1,-1,-1,-1],"split_conditions":[3.5601508E4,1.9325973E4,4.0131184E4,6.7413823E3,3.4624793E4,3.978928E4,6.579954E4,6.7241714E3,9.211983E1,9.6727776E1,5.514194E0,5.507825E2,3.8392625E4,1.6175535E1,5.3569766E4,6.7164404E3,3.3225232E10,1.5336757E2,9.2978226E1,3.4517915E3,1.8251309E2,7.05791E1,3.9310926E4,4.410938E0,9.580899E1,2.7967188E2,3.1805374E1,3.424754E2,4.780615E1,8.490318E1,8.082439E1,7.7308066E3,7.2035073E3,9.212283E3,9.2099304E1,9.2619896E1,4.981774E1,3.083519E3,2.0704181E2,3.706877E4,3.2824516E4,3.0009254E1,3.5728138E1,3.924871E1,2.1848532E12,-2.6897886E1,-1.5619123E1,4.411496E1,-6.6003666E0,-8.693264E1,-1.5799512E1,-1.6097023E1,-3.3958008E0,-9.60416E0,9.9867E1,-1.3551522E1,-5.3251175E1,1.2015675E1,7.711633E1,6.68147E1,-6.1791177E0,1.8437386E1,-1.5418896E2,3.714258E1,-1.8325783E1,4.6166603E1,-1.4188202E2,9.348514E0,-1.1740235E2,1.3829475E2,4.459316E1,9.975771E1,-3.1020235E1,2.1902136E2,6.409242E1],"split_indices":[9,0,14,7,9,1,14,9,17,17,17,0,0,10,3,3,5,16,17,16,0,0,14,0,0,0,10,0,17,17,17,2,0,0,18,17,18,16,0,0,13,10,10,18,19,0,0,0,0,0,0,0,0,0,0,0,0,0,0,0,0,0,0,0,0,0,0,0,0,0,0,0,0,0,0],"split_type":[0,0,0,0,0,0,0,0,0,0,0,0,0,0,0,0,0,0,0,0,0,0,0,0,0,0,0,0,0,0,0,0,0,0,0,0,0,0,0,0,0,0,0,0,0,0,0,0,0,0,0,0,0,0,0,0,0,0,0,0,0,0,0,0,0,0,0,0,0,0,0,0,0,0,0],"sum_hessian":[1.77E3,1.382E3,3.88E2,1.202E3,1.8E2,4E0,3.84E2,5.32E2,6.7E2,1.66E2,1.4E1,2E0,2E0,3.48E2,3.6E1,5.22E2,1E1,5.83E2,8.7E1,1.63E2,3E0,1E0,1.3E1,1E0,1E0,2E0,3.46E2,2E0,3.4E1,4.94E2,2.8E1,8E0,2E0,6E0,5.77E2,6E0,8.1E1,1.61E2,2E0,3E0,1E1,5.1E1,2.95E2,2.2E1,1.2E1,3.62E2,1.32E2,7E0,2.1E1,7E0,1E0,1E0,1E0,4E0,2E0,5.66E2,1.1E1,3E0,3E0,2E0,7.9E1,1.56E2,5E0,1E0,2E0,1E0,9E0,4.3E1,8E0,2.4E1,2.71E2,1.8E1,4E0,8E0,4E0],"tree_param":{"num_deleted":"0","num_feature":"21","num_nodes":"75","size_leaf_vector":"1"}},{"base_weights":[6.9742594E0,-3.269538E1,1.417156E2,-4.7216705E1,1.5043479E0,5.3069107E1,2.0047188E2,-4.5683517E1,-1.8845479E2,1.1893264E1,-1.9100958E2,3.5230916E0,2.263823E2,1.4814563E3,1.7271812E2,-6.1468887E1,-3.0985771E1,-2.389497E2,9.016602E0,-6.3398356E0,1.8552544E2,-3.6763397E2,-2.7905111E1,7.953332E1,-2.2461768E2,1.3439894E2,2.7859485E2,1.118877E2,1.6653408E3,1.4098297E2,3.8007925E2,-1.8072657E1,-6.8729294E1,-5.6241207E1,-1.2333228E1,-1.3429542E1,-7.808861E1,-1.1567286E1,1.5624757E1,1.3533933E1,-1.1908822E2,3.9650183E2,3.986583E1,-1.9409505E2,-5.023539E2,-1.2605245E2,9.125098E1,1.9880198E1,8.351401E2,-4.360452E2,-5.700699E1,4.604983E2,-4.9582474E1,5.788215E2,1.3097227E2,1.8052065E2,-1.0928475E2,6.5437915E2,4.3867447E1,-8.649203E0,4.757216E1,-4.450455E1,-1.948401E1,-1.3633605E1,-3.0296244E1,7.439216E-1,-1.7167297E1,1.513199E-1,7.8579025E1,5.7958597E-1,-6.579284E1,1.7697516E2,2.4177737E0,2.612303E2,-1.1244833E1,-6.561399E1,-1.0650586E1,-2.0388596E2,-4.7291016E1,3.3216798E0,-5.493504E1,6.067266E0,6.695772E1,-3.4790175E0,2.0985997E2,7.410493E1,4.6108987E2,-5.549385E1,-1.9820558E2,-3.8635685E1,1.1062227E2,5.6790325E1,3.632969E2,1.1590977E2,-3.3748684E1,3.7654118E1,1.265244E2,4.5937656E1,-1.09322815E2,2.4430148E2,-1.090629E2,-1.09951614E2,1.3462706E2],"categories":[],"categories_nodes":[],"categories_segments":[],"categories_sizes":[],"default_left":[0,0,0,0,0,0,0,0,0,0,0,0,0,0,0,0,0,0,0,0,0,0,0,0,0,0,0,0,0,0,0,0,0,0,0,0,0,0,0,0,0,0,0,0,0,0,0,0,0,0,0,0,0,0,0,0,0,0,0,0,0,0,0,0,0,0,0,0,0,0,0,0,0,0,0,0,0,0,0,0,0,0,0,0,0,0,0,0,0,0,0,0,0,0,0,0,0,0,0,0,0,0,0],"id":16,"left_children":[1,3,5,7,9,11,13,15,17,19,21,23,25,27,29,31,33,35,37,39,41,43,45,47,49,51,-1,-1,53,55,57,59,61,63,65,-1,-1,-1,-1,67,69,71,73,75,77,79,81,83,85,87,89,91,93,-1,-1,95,97,99,101,-1,-1,-1,-1,-1,-1,-1,-1,-1,-1,-1,-1,-1,-1,-1,-1,-1,-1,-1,-1,-1,-1,-1,-1,-1,-1,-1,-1,-1,-1,-1,-1,-1,-1,-1,-1,-1,-1,-1,-1,-1,-1,-1,-1],"loss_changes":[9.470878E6,6.799511E5,2.0884015E6,1.9949025E5,8.2027625E5,1.3902929E6,8.34774E6,2.1896825E5,1.0186753E5,1.2326928E6,5.94714E5,2.2201758E6,2.2006785E6,3.98074E5,1.5126065E6,1.4306188E5,2.324901E5,2.1507812E4,8.15466E3,7.925913E5,1.1212302E6,1.3628712E5,1.5184066E5,4.31053E6,1.1091428E6,2.002708E6,0E0,0E0,4.55565E5,2.077889E6,2.8302025E6,1.3189638E5,1.08422875E5,9.685619E4,1.9032339E5,0E0,0E0,0E0,0E0,9.7405006E5,6.432496E5,1.1222072E6,1.510828E6,1.5660953E4,1.9839988E5,5.680204E4,5.1714332E4,1.9335169E6,2.5096675E6,6.6737875E5,6.281209E5,2.2131322E6,6.4685575E5,0E0,0E0,2.3355155E6,1.9972728E6,3.0640875E6,2.6568058E6,0E0,0E0,0E0,0E0,0E0,0E0,0E0,0E0,0E0,0E0,0E0,0E0,0E0,0E0,0E0,0E0,0E0,0E0,0E0,0E0,0E0,0E0,0E0,0E0,0E0,0E0,0E0,0E0,0E0,0E0,0E0,0E0,0E0,0E0,0E0,0E0,0E0,0E0,0E0,0E0,0E0,0E0,0E0,0E0],"parents":[2147483647,0,0,1,1,2,2,3,3,4,4,5,5,6,6,7,7,8,8,9,9,10,10,11,11,12,12,13,13,14,14,15,15,16,16,17,17,18,18,19,19,20,20,21,21,22,22,23,23,24,24,25,25,28,28,29,29,30,30,31,31,32,32,33,33,34,34,39,39,40,40,41,41,42,42,43,43,44,44,45,45,46,46,47,47,48,48,49,49,50,50,51,51,52,52,55,55,56,56,57,57,58,58],"right_children":[2,4,6,8,10,12,14,16,18,20,22,24,26,28,30,32,34,36,38,40,42,44,46,48,50,52,-1,-1,54,56,58,60,62,64,66,-1,-1,-1,-1,68,70,72,74,76,78,80,82,84,86,88,90,92,94,-1,-1,96,98,100,102,-1,-1,-1,-1,-1,-1,-1,-1,-1,-1,-1,-1,-1,-1,-1,-1,-1,-1,-1,-1,-1,-1,-1,-1,-1,-1,-1,-1,-1,-1,-1,-1,-1,-1,-1,-1,-1,-1,-1,-1,-1,-1,-1,-1],"split_conditions":[1.8051068E3,4.8611594E2,4.080692E4,6.5375116E2,1.8967027E12,5.217391E-1,4.1113445E4,5.799362E1,6.424099E3,4.098526E4,3.2613898E10,4.4109082E4,3.894142E4,3.6833875E4,9.13701E1,1.1245177E1,4.66811E9,8.0236445E3,8.744211E3,1.4717897E3,4.3124707E4,1.4717897E3,1.9354838E-1,3.7554176E4,5.7748688E1,3.261841E1,2.7859485E2,1.118877E2,4.585913E4,2.4697554E3,9.735051E1,4.0144937E2,3.7585945E0,4.6666667E-1,3.076755E10,-1.3429542E1,-7.808861E1,-1.1567286E1,1.5624757E1,3.1533068E4,1.6888362E12,1.7109043E3,1.7097509E10,4.639972E4,4.43664E4,8.514901E1,9.656897E1,2.3591343E12,1.7127278E12,3.7458004E4,1.6393442E-1,3.2366393E4,-3.3137742E3,5.788215E2,1.3097227E2,1.9483442E3,6.9345825E1,7.8688526E-1,9.867236E1,-8.649203E0,4.757216E1,-4.450455E1,-1.948401E1,-1.3633605E1,-3.0296244E1,7.439216E-1,-1.7167297E1,1.513199E-1,7.8579025E1,5.7958597E-1,-6.579284E1,1.7697516E2,2.4177737E0,2.612303E2,-1.1244833E1,-6.561399E1,-1.0650586E1,-2.0388596E2,-4.7291016E1,3.3216798E0,-5.493504E1,6.067266E0,6.695772E1,-3.4790175E0,2.0985997E2,7.410493E1,4.6108987E2,-5.549385E1,-1.9820558E2,-3.8635685E1,1.1062227E2,5.6790325E1,3.632969E2,1.1590977E2,-3.3748684E1,3.7654118E1,1.265244E2,4.5937656E1,-1.09322815E2,2.4430148E2,-1.090629E2,-1.09951614E2,1.3462706E2],"split_indices":[16,16,13,11,19,20,13,17,15,8,5,14,2,0,17,18,5,0,0,16,1,16,20,13,17,18,0,0,0,11,17,16,17,20,5,0,0,0,0,3,19,16,5,6,13,18,17,19,19,2,20,3,11,0,0,12,17,20,17,0,0,0,0,0,0,0,0,0,0,0,0,0,0,0,0,0,0,0,0,0,0,0,0,0,0,0,0,0,0,0,0,0,0,0,0,0,0,0,0,0,0,0,0],"split_type":[0,0,0,0,0,0,0,0,0,0,0,0,0,0,0,0,0,0,0,0,0,0,0,0,0,0,0,0,0,0,0,0,0,0,0,0,0,0,0,0,0,0,0,0,0,0,0,0,0,0,0,0,0,0,0,0,0,0,0,0,0,0,0,0,0,0,0,0,0,0,0,0,0,0,0,0,0,0,0,0,0,0,0,0,0,0,0,0,0,0,0,0,0,0,0,0,0,0,0,0,0,0,0],"sum_hessian":[1.77E3,1.368E3,4.02E2,9.6E2,4.08E2,1.61E2,2.41E2,9.51E2,9E0,3.88E2,2E1,1.26E2,3.5E1,4E0,2.37E2,4.57E2,4.94E2,7E0,2E0,3.52E2,3.6E1,9E0,1.1E1,9.5E1,3.1E1,3.2E1,3E0,1E0,3E0,2.07E2,3E1,6.6E1,3.91E2,2.09E2,2.85E2,1E0,6E0,1E0,1E0,3E2,5.2E1,1.4E1,2.2E1,5E0,4E0,6E0,5E0,8.9E1,6E0,1.3E1,1.8E1,1.1E1,2.1E1,2E0,1E0,1.79E2,2.8E1,1.6E1,1.4E1,6.3E1,3E0,1.6E1,3.75E2,1.7E2,3.9E1,2.15E2,7E1,2.86E2,1.4E1,2.4E1,2.8E1,9E0,5E0,1E0,2.1E1,4E0,1E0,2E0,2E0,2E0,4E0,4E0,1E0,8.6E1,3E0,4E0,2E0,7E0,6E0,1.6E1,2E0,9E0,2E0,2E0,1.9E1,1.47E2,3.2E1,1.4E1,1.4E1,1.4E1,2E0,7E0,7E0],"tree_param":{"num_deleted":"0","num_feature":"21","num_nodes":"103","size_leaf_vector":"1"}},{"base_weights":[6.23017E0,-2.2912977E1,1.0521463E2,-2.9182163E1,2.1474886E1,7.912919E1,2.240362E2,-5.4775867E1,-2.2423374E1,3.1821246E2,4.8569036E0,5.3421833E1,2.3011809E2,3.900094E2,1.747216E2,-5.1448185E1,-7.396989E1,-2.7330719E1,1.1146459E1,-4.2214844E1,6.1499725E2,2.9733946E1,-1.5480309E2,7.435396E1,-2.4354121E2,3.0871835E2,1.7301053E2,7.742075E2,9.5823044E1,-5.529209E1,5.634532E1,-2.5531195E1,-1.5899237E2,-4.031634E0,9.906608E1,-1.4952246E2,5.8052345E1,8.09711E1,2.2652754E2,-4.6832508E1,1.12618996E2,-1.0134114E1,-2.9855078E2,5.6819214E1,5.193148E2,1.2807149E2,-3.475293E2,-1.3053928E2,3.5545486E2,-5.941289E1,1.1312982E3,-1.0982708E2,2.744607E2,1.0470337E1,-1.7938978E1,-1.2873328E1,5.7343086E1,-8.145754E0,3.2553196E1,2.965176E1,-6.818112E1,4.248871E1,-4.7643485E0,-2.088047E1,4.5668514E1,-1.1184376E1,-5.2352734E1,1.0041833E1,-6.1670933E1,1.7110935E1,1.0301656E2,-3.256836E1,6.415811E1,-1.1538918E2,-3.5498672E1,2.398008E1,-7.144272E1,5.9809864E1,3.598219E2,-1.1988512E2,-4.2778595E1,7.8149025E1,-9.0292786E1,3.2699277E2,5.8299755E1,3.7675644E2,7.627734E1,3.458666E2,-5.793714E1,2.3152645E0,1.2588186E2],"categories":[],"categories_nodes":[],"categories_segments":[],"categories_sizes":[],"default_left":[0,0,0,0,0,0,0,0,0,0,0,0,0,0,0,0,0,0,0,0,0,0,0,0,0,0,0,0,0,0,0,0,0,0,0,0,0,0,0,0,0,0,0,0,0,0,0,0,0,0,0,0,0,0,0,0,0,0,0,0,0,0,0,0,0,0,0,0,0,0,0,0,0,0,0,0,0,0,0,0,0,0,0,0,0,0,0,0,0,0,0],"id":17,"left_children":[1,3,5,7,9,11,13,15,17,19,21,23,25,-1,27,29,-1,31,33,35,37,39,41,43,45,-1,47,49,51,53,55,57,59,61,63,65,-1,-1,-1,67,69,71,73,75,77,-1,79,81,83,-1,85,87,89,-1,-1,-1,-1,-1,-1,-1,-1,-1,-1,-1,-1,-1,-1,-1,-1,-1,-1,-1,-1,-1,-1,-1,-1,-1,-1,-1,-1,-1,-1,-1,-1,-1,-1,-1,-1,-1,-1],"loss_changes":[5.111247E6,3.815862E5,1.231376E6,2.0635062E5,8.36755E5,1.276373E6,3.5933388E6,1.4686906E5,1.5697112E5,9.8868625E5,6.480456E5,1.7896872E6,2.0119945E6,0E0,3.2367132E6,1.0545944E5,0E0,1.9259106E5,1.6320256E5,1.5540794E5,3.79265E4,9.000904E5,4.544827E5,2.0537E6,1.4730118E6,0E0,2.593924E6,3.001498E6,2.344565E6,9.918675E4,1.2861855E5,1.8115219E5,2.1610978E5,1.8348028E5,1.71997E5,4.712203E3,0E0,0E0,0E0,9.501916E5,8.5263406E5,2.877824E5,1.2513525E5,1.7780418E6,1.936822E6,0E0,1.24483875E5,1.2780472E6,3.2202672E6,0E0,3.361355E5,3.378052E6,1.3131248E6,0E0,0E0,0E0,0E0,0E0,0E0,0E0,0E0,0E0,0E0,0E0,0E0,0E0,0E0,0E0,0E0,0E0,0E0,0E0,0E0,0E0,0E0,0E0,0E0,0E0,0E0,0E0,0E0,0E0,0E0,0E0,0E0,0E0,0E0,0E0,0E0,0E0,0E0],"parents":[2147483647,0,0,1,1,2,2,3,3,4,4,5,5,6,6,7,7,8,8,9,9,10,10,11,11,12,12,14,14,15,15,17,17,18,18,19,19,20,20,21,21,22,22,23,23,24,24,26,26,27,27,28,28,29,29,30,30,31,31,32,32,33,33,34,34,35,35,39,39,40,40,41,41,42,42,43,43,44,44,46,46,47,47,48,48,50,50,51,51,52,52],"right_children":[2,4,6,8,10,12,14,16,18,20,22,24,26,-1,28,30,-1,32,34,36,38,40,42,44,46,-1,48,50,52,54,56,58,60,62,64,66,-1,-1,-1,68,70,72,74,76,78,-1,80,82,84,-1,86,88,90,-1,-1,-1,-1,-1,-1,-1,-1,-1,-1,-1,-1,-1,-1,-1,-1,-1,-1,-1,-1,-1,-1,-1,-1,-1,-1,-1,-1,-1,-1,-1,-1,-1,-1,-1,-1,-1,-1],"split_conditions":[1.8051068E3,2.0471482E4,5.721418E4,1.4691357E2,1.7097509E10,2.1688756E12,2.074988E3,2.5400946E2,9.2339935E1,4.4620033E1,4.220729E4,2.1013778E12,3.2343884E2,3.900094E2,5.633091E4,1.566513E2,-7.396989E1,1.6497592E12,7.8688526E-1,1.6169269E10,1.6169269E10,-4.2270612E2,4.9382716E-2,7.652359E1,3.463183E4,3.0871835E2,3.5601508E4,4.8858418E4,6.499238E4,1.151947E1,4.9382716E-2,1.01118384E3,7.7268665E2,2.293346E3,7.1938003E3,1.3791445E10,5.8052345E1,8.09711E1,2.2652754E2,1.5218431E3,4.009142E4,4.639972E4,5.084746E-1,8.732662E1,4.2886652E4,1.2807149E2,2.4964773E3,3.4060016E4,4.4963074E4,-5.941289E1,5.7052273E4,2.9333885E10,3.6084896E10,1.0470337E1,-1.7938978E1,-1.2873328E1,5.7343086E1,-8.145754E0,3.2553196E1,2.965176E1,-6.818112E1,4.248871E1,-4.7643485E0,-2.088047E1,4.5668514E1,-1.1184376E1,-5.2352734E1,1.0041833E1,-6.1670933E1,1.7110935E1,1.0301656E2,-3.256836E1,6.415811E1,-1.1538918E2,-3.5498672E1,2.398008E1,-7.144272E1,5.9809864E1,3.598219E2,-1.1988512E2,-4.2778595E1,7.8149025E1,-9.0292786E1,3.2699277E2,5.8299755E1,3.7675644E2,7.627734E1,3.458666E2,-5.793714E1,2.3152645E0,1.2588186E2],"split_indices":[16,3,0,16,5,19,16,11,17,10,2,19,11,0,8,11,0,19,20,5,5,11,20,10,7,0,9,13,14,18,20,12,16,15,7,5,0,0,0,16,7,6,20,18,0,0,12,0,3,0,2,5,5,0,0,0,0,0,0,0,0,0,0,0,0,0,0,0,0,0,0,0,0,0,0,0,0,0,0,0,0,0,0,0,0,0,0,0,0,0,0],"split_type":[0,0,0,0,0,0,0,0,0,0,0,0,0,0,0,0,0,0,0,0,0,0,0,0,0,0,0,0,0,0,0,0,0,0,0,0,0,0,0,0,0,0,0,0,0,0,0,0,0,0,0,0,0,0,0,0,0,0,0,0,0,0,0,0,0,0,0,0,0,0,0,0,0,0,0,0,0,0,0,0,0,0,0,0,0,0,0,0,0,0,0],"sum_hessian":[1.77E3,1.368E3,4.02E2,1.199E3,1.69E2,3.31E2,7.1E1,2.49E2,9.5E2,8E0,1.61E2,2.84E2,4.7E1,2E0,6.9E1,2.46E2,3E0,8.29E2,1.21E2,4E0,4E0,1.4E2,2.1E1,2.66E2,1.8E1,2E0,4.5E1,7E0,6.2E1,2.38E2,8E0,8.19E2,1E1,1.04E2,1.7E1,3E0,1E0,2E0,2E0,7.3E1,6.7E1,1.1E1,1E1,2.57E2,9E0,2E0,1.6E1,1.7E1,2.8E1,2E0,5E0,2.9E1,3.3E1,1.1E1,2.27E2,5E0,3E0,8.1E2,9E0,2E0,8E0,7E0,9.7E1,4E0,1.3E1,1E0,2E0,4.9E1,2.4E1,5.5E1,1.2E1,8E0,3E0,6E0,4E0,2.39E2,1.8E1,7E0,2E0,1.2E1,4E0,5E0,1.2E1,4E0,2.4E1,4E0,1E0,1E0,2.8E1,1.2E1,2.1E1],"tree_param":{"num_deleted":"0","num_feature":"21","num_nodes":"91","size_leaf_vector":"1"}},{"base_weights":[5.762461E0,-1.5034783E1,9.3020805E1,-1.3569756E1,-2.1235938E2,4.292698E2,7.731207E1,-1.2358845E1,-1.7551094E2,-4.8457466E1,9.821663E2,2.1141095E2,7.128288E1,-1.4135615E1,2.4082304E2,2.0097852E2,-1.23149124E2,3.9403906E2,4.9049692E2,8.779809E1,-1.4938622E2,-1.2131971E1,-2.1420592E2,4.0791858E2,-3.458073E1,1.3196191E2,-5.536211E1,1.3122334E2,3.308262E1,6.89112E1,6.9711285E2,-4.433254E2,2.1157706E2,-4.4298105E0,1.3490611E2,-1.1725125E2,5.4569534E1,6.890508E1,-4.286903E1,2.5012096E1,-1.05481766E2,2.5356285E2,-7.3149025E1,-1.8349126E2,2.6485842E1,3.8789065E0,1.1248848E2],"categories":[],"categories_nodes":[],"categories_segments":[],"categories_sizes":[],"default_left":[0,0,0,0,0,0,0,0,0,0,0,0,0,0,0,0,0,0,0,0,0,0,0,0,0,0,0,0,0,0,0,0,0,0,0,0,0,0,0,0,0,0,0,0,0,0,0],"id":18,"left_children":[1,3,5,7,-1,9,11,13,-1,15,17,-1,19,21,23,25,-1,27,-1,29,31,33,35,-1,37,-1,-1,-1,-1,39,41,43,45,-1,-1,-1,-1,-1,-1,-1,-1,-1,-1,-1,-1,-1,-1],"loss_changes":[3.2152908E6,1.4428805E6,1.7679895E6,9.816309E5,0E0,4.0095992E6,1.1866955E6,6.453344E5,0E0,8.9525244E5,2.0433515E6,0E0,1.1975441E6,5.658345E5,3.1285285E6,6.3376444E5,0E0,1.33014375E4,0E0,3.4389028E6,2.5341265E6,1.7157668E6,1.0505962E6,0E0,2.9043762E5,0E0,0E0,0E0,0E0,1.8234176E6,1.4602415E6,1.2171958E6,3.5216688E5,0E0,0E0,0E0,0E0,0E0,0E0,0E0,0E0,0E0,0E0,0E0,0E0,0E0,0E0],"parents":[2147483647,0,0,1,1,2,2,3,3,5,5,6,6,7,7,9,9,10,10,12,12,13,13,14,14,15,15,17,17,19,19,20,20,21,21,22,22,24,24,29,29,30,30,31,31,32,32],"right_children":[2,4,6,8,-1,10,12,14,-1,16,18,-1,20,22,24,26,-1,28,-1,30,32,34,36,-1,38,-1,-1,-1,-1,40,42,44,46,-1,-1,-1,-1,-1,-1,-1,-1,-1,-1,-1,-1,-1,-1],"split_conditions":[3.8887723E4,4.0552316E4,3.9589215E4,3.4328707E4,-2.1235938E2,3.8742816E4,3.149316E4,3.925019E4,-1.7551094E2,4.9382716E-2,4.570726E4,2.1141095E2,7.038886E10,3.683273E4,3.978928E4,3.864726E4,-1.23149124E2,4.2235547E4,4.9049692E2,6.7547324E10,2.7272728E-1,3.7821836E4,3.92942E4,4.0791858E2,4.0617723E4,1.3196191E2,-5.536211E1,1.3122334E2,3.308262E1,6.404787E10,5.958483E4,3.7530647E3,1.4092501E3,-4.4298105E0,1.3490611E2,-1.1725125E2,5.4569534E1,6.890508E1,-4.286903E1,2.5012096E1,-1.05481766E2,2.5356285E2,-7.3149025E1,-1.8349126E2,2.6485842E1,3.8789065E0,1.1248848E2],"split_indices":[9,0,9,15,0,0,2,0,0,20,14,0,5,2,1,1,0,1,0,5,20,9,3,0,1,0,0,0,0,5,6,12,12,0,0,0,0,0,0,0,0,0,0,0,0,0,0],"split_type":[0,0,0,0,0,0,0,0,0,0,0,0,0,0,0,0,0,0,0,0,0,0,0,0,0,0,0,0,0,0,0,0,0,0,0,0,0,0,0,0,0,0,0,0,0,0,0],"sum_hessian":[1.77E3,1.43E3,3.4E2,1.428E3,2E0,1.4E1,3.26E2,1.426E3,2E0,8E0,6E0,2E0,3.24E2,1.417E3,9E0,5E0,3E0,4E0,2E0,3.02E2,2.2E1,1.404E3,1.3E1,1E0,8E0,3E0,2E0,3E0,1E0,2.94E2,8E0,1.2E1,1E1,1.397E3,7E0,9E0,4E0,2E0,6E0,2.85E2,9E0,7E0,1E0,9E0,3E0,5E0,5E0],"tree_param":{"num_deleted":"0","num_feature":"21","num_nodes":"47","size_leaf_vector":"1"}},{"base_weights":[4.594308E0,-1.4331627E1,6.0019066E1,-1.0322663E1,-1.3324168E2,3.2832603E1,1.298823E2,-1.4228448E1,1.2890662E2,-4.448314E2,-8.053696E1,5.089274E1,-3.202633E2,5.23699E2,9.8744736E1,-1.2535201E1,-2.45375E2,1.2205322E1,3.51567E2,1.716797E0,-1.6082602E2,1.2591211E2,-1.2318091E2,3.0434662E1,2.9426913E2,-6.609414E2,-1.0532404E2,9.81333E1,2.1603789E2,2.1107324E2,1.0090602E1,-1.3939395E1,2.7788184E2,-7.9941216E1,-1.1491406E1,-2.692207E2,6.522907E1,5.892602E2,1.5663737E1,2.2674883E2,-8.411979E1,1.8492773E2,-1.4988574E2,1.09884705E2,-5.7936443E1,1.3081E2,6.7255414E2,-2.7631702E2,-2.8142187E1,-2.3714258E2,9.7571884E1,-1.990635E1,5.2524223E1,-1.021737E2,3.291688E2,-5.355596E2,8.267578E1,-3.94232E0,-7.672222E1,1.3442638E2,2.4227053E1,-2.003672E1,-9.4330475E1,1.1213116E2,-2.0878582E0,1.2114405E1,2.0220294E2,-1.6365822E1,5.5011917E1,1.4383302E1,7.7839165E1,-4.182422E0,-3.3671486E1,7.480342E1,8.4140625E0,-5.4858116E1,3.3049366E1,1.1957693E1,8.111456E1,-3.6896175E1,3.086593E1,5.4738575E1,-1.1993204E1,2.7723926E2,7.585166E1,8.975509E0,-1.370325E2,3.4412464E1,-5.744036E1,2.2422879E2,5.781551E1,-6.622969E1,-2.0408485E2,5.191943E1,-2.107714E1],"categories":[],"categories_nodes":[],"categories_segments":[],"categories_sizes":[],"default_left":[0,0,0,0,0,0,0,0,0,0,0,0,0,0,0,0,0,0,0,0,0,0,0,0,0,0,0,0,0,0,0,0,0,0,0,0,0,0,0,0,0,0,0,0,0,0,0,0,0,0,0,0,0,0,0,0,0,0,0,0,0,0,0,0,0,0,0,0,0,0,0,0,0,0,0,0,0,0,0,0,0,0,0,0,0,0,0,0,0,0,0,0,0,0,0],"id":19,"left_children":[1,3,5,7,9,11,13,15,17,19,21,23,25,27,29,31,33,35,37,-1,-1,39,41,43,45,47,49,51,-1,53,55,57,59,-1,-1,61,63,65,67,69,71,73,75,77,79,81,83,-1,-1,85,-1,-1,-1,87,89,91,93,-1,-1,-1,-1,-1,-1,-1,-1,-1,-1,-1,-1,-1,-1,-1,-1,-1,-1,-1,-1,-1,-1,-1,-1,-1,-1,-1,-1,-1,-1,-1,-1,-1,-1,-1,-1,-1,-1],"loss_changes":[1.8585779E6,6.283534E5,8.523355E5,6.9735375E5,6.7033144E5,2.095188E6,1.4933615E6,4.842027E5,9.0517525E5,2.4976062E5,3.5005456E5,1.539517E6,1.1019886E6,6.81666E5,1.1729598E6,5.0832438E5,2.9107562E4,3.7569534E5,9.4887275E5,0E0,0E0,1.6732655E5,2.9101372E5,2.0284399E6,1.3960424E6,7.987195E5,7.0144706E5,6.224504E4,0E0,1.9572715E6,2.6978875E6,2.344605E5,1.6512512E5,0E0,0E0,1.56103125E4,4.703379E5,2.984035E5,8.065924E4,1.6808156E4,4.355172E3,2.332404E4,2.7739675E5,1.6975405E6,1.4459006E6,1.6608122E5,5.05478E5,0E0,0E0,5.415631E5,0E0,0E0,0E0,3.1245728E5,2.0246858E6,2.1428075E5,8.41566E5,0E0,0E0,0E0,0E0,0E0,0E0,0E0,0E0,0E0,0E0,0E0,0E0,0E0,0E0,0E0,0E0,0E0,0E0,0E0,0E0,0E0,0E0,0E0,0E0,0E0,0E0,0E0,0E0,0E0,0E0,0E0,0E0,0E0,0E0,0E0,0E0,0E0,0E0],"parents":[2147483647,0,0,1,1,2,2,3,3,4,4,5,5,6,6,7,7,8,8,9,9,10,10,11,11,12,12,13,13,14,14,15,15,16,16,17,17,18,18,21,21,22,22,23,23,24,24,25,25,26,26,27,27,29,29,30,30,31,31,32,32,35,35,36,36,37,37,38,38,39,39,40,40,41,41,42,42,43,43,44,44,45,45,46,46,49,49,53,53,54,54,55,55,56,56],"right_children":[2,4,6,8,10,12,14,16,18,20,22,24,26,28,30,32,34,36,38,-1,-1,40,42,44,46,48,50,52,-1,54,56,58,60,-1,-1,62,64,66,68,70,72,74,76,78,80,82,84,-1,-1,86,-1,-1,-1,88,90,92,94,-1,-1,-1,-1,-1,-1,-1,-1,-1,-1,-1,-1,-1,-1,-1,-1,-1,-1,-1,-1,-1,-1,-1,-1,-1,-1,-1,-1,-1,-1,-1,-1,-1,-1,-1,-1,-1,-1],"split_conditions":[1.6007306E3,1.4717897E3,6.1533054E1,1.3663E3,-9.6866943E2,5.923337E1,6.2899555E1,3.0151814E4,3.030303E-1,2.124417E4,-9.334813E2,5.5926285E1,5.978047E1,6.2020473E1,1.4634146E-1,2.8049842E4,3.3499939E10,1.3861792E3,1.016409E3,1.716797E0,-1.6082602E2,3.52459E-1,2.1245863E1,4.176033E1,2.0416452E12,1.7539275E3,5.372788E4,1.7719635E4,2.1603789E2,2.7485604E4,2.0689656E-1,2.9924777E4,1.8283315E10,-7.9941216E1,-1.1491406E1,2.8936734E4,1.25802E1,1.0912953E4,2.4697554E3,1.0973252E4,2.8936734E4,1.1446597E4,8.701884E1,3.4572872E1,4.819994E4,1.989756E12,5.1897586E10,-2.7631702E2,-2.8142187E1,2.6422376E10,9.7571884E1,-1.990635E1,5.2524223E1,1.3791445E10,3.0989777E4,3.6084896E10,2.4964773E3,-3.94232E0,-7.672222E1,1.3442638E2,2.4227053E1,-2.003672E1,-9.4330475E1,1.1213116E2,-2.0878582E0,1.2114405E1,2.0220294E2,-1.6365822E1,5.5011917E1,1.4383302E1,7.7839165E1,-4.182422E0,-3.3671486E1,7.480342E1,8.4140625E0,-5.4858116E1,3.3049366E1,1.1957693E1,8.111456E1,-3.6896175E1,3.086593E1,5.4738575E1,-1.1993204E1,2.7723926E2,7.585166E1,8.975509E0,-1.370325E2,3.4412464E1,-5.744036E1,2.2422879E2,5.781551E1,-6.622969E1,-2.0408485E2,5.191943E1,-2.107714E1],"split_indices":[16,16,10,16,12,10,10,7,20,0,11,10,10,10,20,15,5,16,11,0,0,20,10,10,19,11,0,0,0,15,20,6,5,0,0,0,17,0,11,0,0,0,17,10,2,19,5,0,0,5,0,0,0,5,15,5,12,0,0,0,0,0,0,0,0,0,0,0,0,0,0,0,0,0,0,0,0,0,0,0,0,0,0,0,0,0,0,0,0,0,0,0,0,0,0],"split_type":[0,0,0,0,0,0,0,0,0,0,0,0,0,0,0,0,0,0,0,0,0,0,0,0,0,0,0,0,0,0,0,0,0,0,0,0,0,0,0,0,0,0,0,0,0,0,0,0,0,0,0,0,0,0,0,0,0,0,0,0,0,0,0,0,0,0,0,0,0,0,0,0,0,0,0,0,0,0,0,0,0,0,0,0,0,0,0,0,0,0,0,0,0,0,0],"sum_hessian":[1.77E3,1.32E3,4.5E2,1.278E3,4.2E1,3.25E2,1.25E2,1.244E3,3.4E1,5E0,3.7E1,3.1E2,1.5E1,8E0,1.17E2,1.236E3,8E0,2.3E1,1.1E1,1E0,4E0,6E0,3.1E1,2.87E2,2.3E1,5E0,1E1,3E0,5E0,5.1E1,6.6E1,1.231E3,5E0,7E0,1E0,3E0,2E1,6E0,5E0,4E0,2E0,2E0,2.9E1,1.51E2,1.36E2,1.7E1,6E0,3E0,2E0,8E0,2E0,1E0,2E0,1.4E1,3.7E1,7E0,5.9E1,1.228E3,3E0,2E0,3E0,1E0,2E0,3E0,1.7E1,1E0,5E0,4E0,1E0,1E0,3E0,1E0,1E0,1E0,1E0,2.6E1,3E0,1.06E2,4.5E1,9.7E1,3.9E1,1.3E1,4E0,3E0,3E0,4E0,4E0,4E0,1E1,8E0,2.9E1,3E0,4E0,3.7E1,2.2E1],"tree_param":{"num_deleted":"0","num_feature":"21","num_nodes":"95","size_leaf_vector":"1"}},{"base_weights":[3.559277E0,-5.9181643E0,6.708386E1,-9.630256E0,1.75327E2,4.107422E2,4.7946953E1,-7.479021E0,-4.1312744E2,4.443206E2,-4.3630642E1,2.4343887E2,1.8700607E2,2.7671545E2,3.9704647E1,-9.66454E0,1.8438672E2,-1.5645938E2,-1.7434082E2,5.7753973E2,-7.099883E1,7.045404E1,-2.9746057E2,1.3186583E2,-1.2526042E1,-1.5145928E1,1.3086104E2,-6.381561E0,-1.8719545E2,3.6206152E2,2.3808203E1,-1.4032618E1,-6.0381252E1,2.7855405E2,7.513075E2,-7.426758E-1,1.8144025E2,-3.1706251E1,1.15864586E2,8.428513E1,-1.7929834E2,2.7577673E2,6.2463337E1,-2.1342587E0,1.5970958E2,-2.026966E1,-1.1514293E2,-8.7890625E-2,1.7385986E2,-8.680225E0,4.695547E1,1.571625E2,-4.241758E1,2.5106465E2,3.567891E1,9.9662506E1,-2.1610882E1,1.0307813E1,4.1831253E1,3.9051797E2,1.639436E1,-1.4211464E2,-2.3739098E1,4.7012753E1,2.2335564E2,4.275848E-1,9.527515E1],"categories":[],"categories_nodes":[],"categories_segments":[],"categories_sizes":[],"default_left":[0,0,0,0,0,0,0,0,0,0,0,0,0,0,0,0,0,0,0,0,0,0,0,0,0,0,0,0,0,0,0,0,0,0,0,0,0,0,0,0,0,0,0,0,0,0,0,0,0,0,0,0,0,0,0,0,0,0,0,0,0,0,0,0,0,0,0],"id":20,"left_children":[1,3,5,7,9,11,13,15,17,19,21,-1,23,-1,25,27,29,-1,31,33,-1,35,-1,-1,37,39,41,43,45,47,49,-1,-1,51,53,55,-1,-1,57,59,61,63,65,-1,-1,-1,-1,-1,-1,-1,-1,-1,-1,-1,-1,-1,-1,-1,-1,-1,-1,-1,-1,-1,-1,-1,-1],"loss_changes":[1.0666285E6,1.0391437E6,1.4929146E6,1.3093519E6,1.8452305E6,9.241199E5,1.5417939E6,6.328681E5,1.16158875E5,1.4067618E6,2.0164026E6,0E0,4.5902644E5,0E0,1.0919778E6,8.666399E5,4.7640275E5,0E0,4.326836E3,4.1416925E5,0E0,6.471927E5,0E0,0E0,8.401178E4,2.2512052E6,7.9555E5,5.8124025E5,6.091335E5,6.305834E5,7.452301E4,0E0,0E0,6.922009E5,2.792785E5,4.0372744E5,0E0,0E0,9.7296094E2,3.0318845E6,1.496056E6,1.3344384E6,8.871545E5,0E0,0E0,0E0,0E0,0E0,0E0,0E0,0E0,0E0,0E0,0E0,0E0,0E0,0E0,0E0,0E0,0E0,0E0,0E0,0E0,0E0,0E0,0E0,0E0],"parents":[2147483647,0,0,1,1,2,2,3,3,4,4,5,5,6,6,7,7,8,8,9,9,10,10,12,12,14,14,15,15,16,16,18,18,19,19,21,21,24,24,25,25,26,26,27,27,28,28,29,29,30,30,33,33,34,34,35,35,38,38,39,39,40,40,41,41,42,42],"right_children":[2,4,6,8,10,12,14,16,18,20,22,-1,24,-1,26,28,30,-1,32,34,-1,36,-1,-1,38,40,42,44,46,48,50,-1,-1,52,54,56,-1,-1,58,60,62,64,66,-1,-1,-1,-1,-1,-1,-1,-1,-1,-1,-1,-1,-1,-1,-1,-1,-1,-1,-1,-1,-1,-1,-1,-1],"split_conditions":[2.4969556E3,4.8361863E4,1.2941969E1,4.8927305E4,5.8584827E1,6.3708215E4,3.0817625E4,2.3322036E3,3.456909E10,2.408705E3,6.162737E4,2.4343887E2,2.8227356E1,2.7671545E2,5.4855663E1,4.5080492E4,8.4121666E1,-1.5645938E2,1.6018755E3,4.752988E4,-7.099883E1,7.853596E1,-2.9746057E2,1.3186583E2,5.7248457E4,5.1146162E10,4.9382716E-2,4.5808676E4,2.0144824E3,2.1324673E3,8.8575935E1,-1.4032618E1,-6.0381252E1,4.816092E4,6.0893926E4,6.6732376E1,1.8144025E2,-3.1706251E1,5.5137566E4,2.5132312E3,5.574604E10,9.311399E1,5.207851E4,-2.1342587E0,1.5970958E2,-2.026966E1,-1.1514293E2,-8.7890625E-2,1.7385986E2,-8.680225E0,4.695547E1,1.571625E2,-4.241758E1,2.5106465E2,3.567891E1,9.9662506E1,-2.1610882E1,1.0307813E1,4.1831253E1,3.9051797E2,1.639436E1,-1.4211464E2,-2.3739098E1,4.7012753E1,2.2335564E2,4.275848E-1,9.527515E1],"split_indices":[16,9,18,3,10,14,0,12,5,16,6,0,10,0,10,1,18,0,11,2,0,10,0,0,3,5,20,6,16,16,10,0,0,1,0,17,0,0,0,16,5,18,15,0,0,0,0,0,0,0,0,0,0,0,0,0,0,0,0,0,0,0,0,0,0,0,0],"split_type":[0,0,0,0,0,0,0,0,0,0,0,0,0,0,0,0,0,0,0,0,0,0,0,0,0,0,0,0,0,0,0,0,0,0,0,0,0,0,0,0,0,0,0,0,0,0,0,0,0,0,0,0,0,0,0,0,0,0,0,0,0,0,0,0,0,0,0],"sum_hessian":[1.77E3,1.541E3,2.29E2,1.511E3,3E1,1.1E1,2.18E2,1.504E3,7E0,1.3E1,1.7E1,3E0,8E0,1E0,2.17E2,1.488E3,1.6E1,4E0,3E0,1.1E1,2E0,1.6E1,1E0,3E0,5E0,1.36E2,8.1E1,1.462E3,2.6E1,7E0,9E0,1E0,2E0,5E0,6E0,1.5E1,1E0,3E0,2E0,8.5E1,5.1E1,2.5E1,5.6E1,1.461E3,1E0,1.7E1,9E0,3E0,4E0,7E0,2E0,3E0,2E0,5E0,1E0,2E0,1.3E1,1E0,1E0,1E0,8.4E1,1.2E1,3.9E1,2.1E1,4E0,4.6E1,1E1],"tree_param":{"num_deleted":"0","num_feature":"21","num_nodes":"67","size_leaf_vector":"1"}},{"base_weights":[3.380915E0,-1.0458869E0,9.1200134E1,-4.9252753E0,9.139022E1,1.3177606E2,-3.7975668E2,-2.2001991E0,-1.719088E2,5.747259E2,4.3907616E1,1.7030754E2,-1.8683636E2,-1.9798126E2,-4.6367188E0,-4.2882843E0,2.9887393E2,-4.7296875E1,-4.0203168E2,-2.7826173E0,6.933812E2,6.3780176E2,3.5828776E0,2.056263E2,-2.4658333E2,-2.7714844E2,8.034903E1,3.0326954E1,-7.357552E1,-5.4707026E0,6.210638E2,-4.3124443E1,7.1789685E2,2.4420898E2,-1.7819981E2,-4.943019E2,-5.2723957E1,2.6288086E2,2.7936588E2,2.7247266E2,-2.6027931E1,1.8565372E2,-3.965632E1,-1.4451823E1,2.6515604E2,2.6304688E1,-1.5847188E2,5.2350586E1,-4.8531796E2,-3.1580275E1,-1.528711E0,-7.7401495E-1,-3.7855015E1,2.2631895E2,5.3159767E1,6.692133E1,-1.4172266E2,2.6480627E2,8.810157E0,1.3690079E2,-3.6008984E1,-6.634293E1,1.1597657E1,-4.892188E1,-1.7825368E2,-2.0864063E1,-2.861719E0,-2.2073439E1,1.4778809E2,-5.4245605E1,3.716632E1,5.468584E1,-6.281499E1,1.6713689E2,3.5975197E1,2.763711E1,-2.5672853E1,6.3590042E1,-2.1453125E1,-7.4056644E0,-1.7829141E2],"categories":[],"categories_nodes":[],"categories_segments":[],"categories_sizes":[],"default_left":[0,0,0,0,0,0,0,0,0,0,0,0,0,0,0,0,0,0,0,0,0,0,0,0,0,0,0,0,0,0,0,0,0,0,0,0,0,0,0,0,0,0,0,0,0,0,0,0,0,0,0,0,0,0,0,0,0,0,0,0,0,0,0,0,0,0,0,0,0,0,0,0,0,0,0,0,0,0,0,0,0],"id":21,"left_children":[1,3,5,7,9,11,13,15,17,19,21,23,25,-1,27,29,31,33,35,-1,37,39,41,43,45,47,-1,-1,49,51,53,55,57,59,61,63,65,-1,67,-1,-1,-1,69,71,73,75,-1,77,79,-1,-1,-1,-1,-1,-1,-1,-1,-1,-1,-1,-1,-1,-1,-1,-1,-1,-1,-1,-1,-1,-1,-1,-1,-1,-1,-1,-1,-1,-1,-1,-1],"loss_changes":[6.885863E5,6.054009E5,1.674351E6,7.3679125E5,1.5353678E6,1.00167175E6,7.3264994E5,1.00400794E6,7.2656256E5,4.2220062E5,1.5064782E6,1.0961126E6,4.4378553E5,0E0,3.6592387E4,1.1753906E6,1.6073155E6,7.3037956E5,2.6401488E5,0E0,1.33793E5,8.626019E5,1.6207492E6,8.685105E5,4.750589E5,5.7414006E5,0E0,0E0,5.9743857E3,5.52044E5,4.38665E4,9.0529594E5,5.4139425E5,5.1836334E5,1.2961328E5,1.346805E5,1.5160752E3,0E0,2.620542E5,0E0,0E0,0E0,1.3383182E6,6.13424E5,2.1382462E6,3.7339145E4,0E0,9.423873E4,2.3634325E5,0E0,0E0,0E0,0E0,0E0,0E0,0E0,0E0,0E0,0E0,0E0,0E0,0E0,0E0,0E0,0E0,0E0,0E0,0E0,0E0,0E0,0E0,0E0,0E0,0E0,0E0,0E0,0E0,0E0,0E0,0E0,0E0],"parents":[2147483647,0,0,1,1,2,2,3,3,